{
    "network": {
        "input_layer": {
            "activation": "default",
            "neurons": 30
        },
        "hidden_layer_1": {
            "neurons": 20,
            "activation": "relu"
        },
        "hidden_layer_2": {
            "neurons": 8,
            "activation": "relu"
        },
        "output_layer": {
            "activation": "softmax",
            "neurons": 2
        }
    },
    "weights": {
        "l1": [
            [
                -0.18908929108607866,
                -0.17106709563631642,
                0.5215833566825216,
                0.04994080608130653,
                -0.45219841896017426,
                0.014155073276212782,
                0.534183891607576,
                0.24587274538052778,
                0.09948902567831276,
                -0.016936658750441664,
                0.05588285856925875,
                -0.30760766177878984,
                -0.18753062838167284,
                0.3535506598225692,
                0.2399681126175344,
                -0.2704966836900919,
                0.3463515895971535,
                0.18897848581270024,
                -0.23100120778899416,
                -0.08329621054758349,
                -0.03686435094091462,
                0.7220258590002006,
                -0.17116046657205092,
                0.46824225288485843,
                0.5731554249441062,
                0.1379052501007624,
                -0.15319802705569682,
                0.10549096050901946,
                -0.03603818746100757,
                0.042396353385819846
            ],
            [
                -0.022589616592137197,
                0.2676349339128407,
                0.029239856613612236,
                -0.17916654786120467,
                -0.3088554955780622,
                0.41298440695316824,
                -0.5068735751408395,
                -0.20787421572606196,
                0.21806660351959434,
                -0.18405661971130177,
                -0.3066552369773525,
                -0.08928346897596169,
                -0.35951443488536894,
                -0.5273293083722308,
                -0.07590964090530318,
                0.4457600199620851,
                -0.208829487376024,
                -0.4500447605653729,
                0.18867699418439413,
                0.4884547250393778,
                0.04345795707557078,
                -0.18987859474010493,
                0.02718354934479166,
                0.1501156248723653,
                0.019372192511447704,
                -0.29388616870432815,
                0.029803868335653187,
                -0.24770516784271782,
                -0.21140867958620557,
                0.11553402449501612
            ],
            [
                0.2421578512400117,
                0.3865245438622382,
                0.081987489601832,
                -0.03812696247215772,
                -0.011185907751643511,
                0.32932827033762385,
                0.05159168326814812,
                -0.018515579407377095,
                0.19878741629659774,
                0.30431658862459354,
                -0.17455728853897515,
                -0.4566915130944518,
                -0.3738089107354219,
                0.18076761362138974,
                0.10596485444577233,
                0.29859482311660507,
                -0.1343867393930447,
                0.2113840850611968,
                0.029919141458983643,
                -0.38598482552867974,
                0.12117528042184898,
                0.05673730561530698,
                0.08988937069786829,
                0.5514231619817804,
                -0.22582678311527998,
                0.14700074720686152,
                0.287656584173058,
                -0.3324087454118133,
                0.44810119713202556,
                -0.2023196080674441
            ],
            [
                -0.11865273648864938,
                -0.16116563048730856,
                0.19571237254562002,
                0.2608280592435472,
                0.19808511759943379,
                0.26080658201146706,
                0.28907076008791793,
                0.048237655383611334,
                -0.2790570258142213,
                0.10994595011768261,
                -0.026525187966939787,
                -0.14547811169413338,
                0.2653009341019818,
                0.43141549714301475,
                0.3992523820612343,
                0.4005130380921946,
                0.35522990314711883,
                -0.0013780052666351864,
                -0.2798115686745204,
                -0.24263006620505528,
                0.3437153158371465,
                0.4213336352511407,
                0.17731088637808776,
                0.4606591358084681,
                0.3838826985099365,
                0.1820536045274927,
                -0.4086039332106494,
                -0.025978123060805967,
                0.09000293108552408,
                -0.24363023516513516
            ],
            [
                0.16259233074728238,
                0.38218568747160436,
                -0.19108309415931887,
                0.2613399930892006,
                0.07353263110373039,
                -0.1334784512293472,
                0.41298094156209686,
                0.15286530915086646,
                0.30744469714080797,
                0.37112070485702614,
                0.15402118044665344,
                0.41693826706746384,
                0.35772694604912403,
                -0.1638203456762302,
                -0.24964228080485323,
                -0.1757417708571079,
                -0.35172508268103536,
                -0.36166807817107255,
                0.2024916497541251,
                0.196045863874395,
                0.22696080152489773,
                0.20909790739970976,
                -0.19981375060082687,
                -0.39085499661766393,
                -0.4223777884899219,
                -0.042006269297718696,
                0.3394277542892219,
                -0.4250667340640188,
                0.34407661109822124,
                -0.36546034394515736
            ],
            [
                -0.22169932584004917,
                -0.5833815721812512,
                0.11835228491413914,
                -0.1498400390510586,
                0.35074566456124046,
                0.006332501032663689,
                -0.0762548056312918,
                -0.5999951630393849,
                0.28340140108896006,
                0.45595468232106096,
                -0.6190240887856213,
                -0.4377619719846018,
                0.11554573265999836,
                -0.4547838453884898,
                0.37977332047865364,
                0.46000343925001563,
                0.04122419866501653,
                -0.07625324931250434,
                -0.29239127017330935,
                0.3035603678218545,
                0.058867683963324466,
                -0.46532320448115244,
                -0.13882232004772072,
                -0.33463957655411297,
                -0.124744205635276,
                0.1286252692142931,
                -0.4981421037159386,
                -0.40687207558217436,
                -0.3478637735262855,
                -0.31390521957395934
            ],
            [
                0.33928587635401797,
                0.02386410897754814,
                0.08704698087324371,
                -0.3624066300793187,
                0.14750033179636296,
                -0.10139731786172906,
                0.04843515376014713,
                -0.24991858643590223,
                -0.29990461063336454,
                -0.05455795637477613,
                -0.41732553941175154,
                0.45703594313870044,
                -0.037152042186402966,
                -0.4710466015774338,
                -0.354149936386813,
                0.581450009215891,
                -0.368502380685537,
                -0.24746224303148703,
                0.41493776825364015,
                -0.39015361800069837,
                0.13254040549301044,
                -0.522775011827178,
                -0.5008819112343821,
                -0.3409134080140496,
                0.09590454758608455,
                0.1347022190485619,
                -0.16787764349874265,
                0.12374810608594645,
                -0.4795892978112306,
                -0.27298717568590913
            ],
            [
                -0.03625403108708715,
                -0.2238098851997346,
                -0.03312189447027892,
                -0.40558005233789707,
                0.29653376846597795,
                -0.40436295099493225,
                0.1245514624691749,
                0.02781568055308476,
                0.21187730265954635,
                -0.06169916447178597,
                -0.31875527345236937,
                -0.1762654527476413,
                -0.11326309698689412,
                -0.017000555024090154,
                0.26958674221326984,
                -0.1415964991930529,
                -0.030878512493899935,
                0.39636863135055245,
                0.1461154682648835,
                0.22924276663064563,
                0.17840811916491378,
                0.08738182611522702,
                -0.026536427265161495,
                -0.005501156848984313,
                0.3266789902095009,
                0.3905247717725846,
                0.29938424929776775,
                0.15438526725380833,
                -0.010452400722797926,
                -0.34726401793939626
            ],
            [
                -0.3667112903661883,
                0.13822111495329836,
                -0.42512851783054456,
                -0.2836814840555951,
                0.04087551721116534,
                -0.5392214470684975,
                -0.42723750543889366,
                -0.15074907623220124,
                -0.3150913483300511,
                -0.4195287702855807,
                0.18716922620139204,
                -0.4557200929153301,
                -0.27312789433476325,
                0.0725038822065159,
                -0.2153882249480003,
                -0.4003428308522974,
                -0.34205039739353066,
                0.2091032807836186,
                -0.2761663045955833,
                -0.4233507321733318,
                0.14009934252241055,
                0.36324316226953085,
                0.11945231087236395,
                0.20400639115118915,
                0.4088296378205265,
                0.3655948586015828,
                0.3690332591574914,
                -0.08741142455942263,
                -0.06793004692980968,
                -0.3042592992753145
            ],
            [
                0.29669769898266807,
                0.01720008941833422,
                0.24580361611516421,
                -0.4086150294510606,
                0.12822672699980023,
                0.4058701773716288,
                0.09121167537710735,
                -0.06886219709958923,
                -0.16340808985009664,
                -0.39622052211663217,
                -0.2496291737080236,
                0.0958453330085833,
                -0.34773343174103477,
                0.07338661771805632,
                -0.42054567237635043,
                0.43820706402842147,
                -0.15887372470723268,
                0.16445903636634074,
                0.13927110629431155,
                0.15514399729958592,
                0.10168208054386399,
                0.309546471180297,
                -0.11591520743889201,
                -0.13497146566353804,
                -0.44406223893361274,
                -0.07084254359967025,
                -0.006688285749356758,
                -0.21989633095861785,
                0.38504723107538313,
                -0.052457858455302965
            ],
            [
                -0.11086577021012813,
                -0.3043193869164576,
                0.09993079969321067,
                0.22396270118798203,
                -0.23099335847036437,
                -0.08310259926597004,
                -0.032567290260197286,
                0.1600813575527086,
                0.18954534828167716,
                -0.41660071339605287,
                0.4685195568558281,
                -0.26285383909034454,
                0.21512733406564627,
                -0.17809655685678263,
                -0.21431583727413225,
                0.26118481885128864,
                0.00984272757990853,
                0.22981885334238833,
                -0.2695061820871692,
                -0.43953513980023995,
                0.12795404894318627,
                0.18579248687549912,
                -0.009147633503634896,
                0.13140811529193483,
                -0.09971134814034244,
                0.23443701815956544,
                -0.27206423601271057,
                0.03611522195505735,
                -0.0076759509633149365,
                0.41713786817392273
            ],
            [
                -0.12468346559890299,
                -0.24123488403013427,
                -0.19467505520330047,
                -0.025658321265048765,
                -0.35805111513475785,
                0.32572483708580685,
                0.06975762031260316,
                0.11521462063309315,
                -0.4737855307386335,
                -0.047240698255013196,
                -0.09423808031101655,
                -0.21216446581905998,
                0.004824848735771159,
                -0.20946532101660548,
                0.12378010102767227,
                0.11487067665472457,
                -0.3441362074311529,
                0.10104061285491846,
                0.29063056437485546,
                0.3817605624869953,
                0.0395755802519187,
                0.010921025415950006,
                -0.2776647215240738,
                -0.3217174329339791,
                0.055348860037339534,
                0.10270324614580376,
                -0.0527439809755622,
                0.198226405141365,
                0.17214239007453352,
                0.3596732904796098
            ],
            [
                0.14975058702129304,
                -0.30186961177623406,
                0.25270379157129835,
                0.2587806463167842,
                -0.015673782886802854,
                0.28603972191219973,
                0.33614877341336463,
                0.3853965315182333,
                -0.24610756953208182,
                0.45298387283874275,
                0.006787416429411537,
                -0.05513957564232147,
                0.12408554870346346,
                -0.2847034458536521,
                -0.15132960692755867,
                0.24878075771917435,
                -0.17680732322919931,
                0.08644859684571193,
                -0.08758493804647723,
                0.393902554492089,
                -0.18646114502226832,
                -0.11595230575459897,
                0.007821874389730966,
                -0.12997571311800307,
                0.4301820279410808,
                -0.09661786084627795,
                0.35310682478093086,
                -0.3120562486295463,
                0.18568407524807368,
                -0.17118346536839846
            ],
            [
                -0.21420090030814332,
                0.11082182775113787,
                0.11778832393183887,
                0.20677975103465007,
                0.41841010899786146,
                0.03943590368892785,
                -0.1823423057607602,
                0.11474327399636272,
                0.36544066490889876,
                -0.15711586186412108,
                -0.374547907731676,
                -0.2819067579242625,
                0.14341648583155397,
                0.14726200389661948,
                0.08645739065486943,
                -0.15563051178443105,
                -0.004636201901506235,
                0.1893628943056379,
                0.0688895877860182,
                0.09155073781097907,
                0.4857307456458346,
                0.3447405400620172,
                0.46716046826573543,
                0.011912812162056682,
                -0.08313959426154825,
                -0.24997198649084268,
                0.0993011442372304,
                -0.03166719282937856,
                0.0693434544585111,
                0.4212045360010463
            ],
            [
                0.17583430678993822,
                -0.18736852552590427,
                0.22845241231902344,
                0.18911043921867257,
                -0.3810915005173278,
                0.23660604610699124,
                0.3110030704635546,
                0.4711460633919277,
                0.02933895979640771,
                -0.2377692417664963,
                -0.3500546683429306,
                -0.17111915155692675,
                0.16087751652218893,
                -0.06982638448876018,
                -0.05127587132534485,
                0.20364538748146396,
                0.43065795377983335,
                0.19413979620315217,
                -0.09497072942593447,
                0.059080773883600855,
                0.18427846736187964,
                -0.2719290704999326,
                -0.18905769353695212,
                -0.32601623369778143,
                0.3124865599458935,
                -0.062381403222563546,
                0.08416226864875825,
                0.3945757458747945,
                0.4105876592710589,
                -0.16969413788099041
            ],
            [
                -0.2486973038737268,
                -0.12128475750276405,
                0.2689749339791102,
                0.24606059190902457,
                -0.3627285840576393,
                0.18714696558508076,
                0.07155467868945949,
                -0.4489856990131163,
                -0.14008921460485085,
                -0.3216119496833553,
                -0.3914434441794673,
                0.058026237368862706,
                -0.30378895241681164,
                0.10363109243669057,
                0.3115023764572258,
                0.03310605595596565,
                0.00977470122096815,
                0.1857229926961712,
                0.22353696583314311,
                -0.09961810390910734,
                0.2229248568488874,
                -0.14586024428119795,
                0.308170677330468,
                0.06837628036100023,
                -0.3302198665428404,
                0.06402316385009056,
                0.3305356261932939,
                -0.4678157528150952,
                0.3235454243557157,
                0.04075112191896255
            ],
            [
                0.053282535135795825,
                0.23811892032316204,
                -0.35668830312751937,
                0.3142503784997383,
                -0.20204555730910828,
                0.09304045176128464,
                -0.15144268531709007,
                0.11079509733897398,
                -0.39061750499168674,
                -0.2212054609374996,
                -0.04383421982778114,
                -0.17655774534682986,
                -0.39521353053844116,
                0.2915888586929344,
                -0.22509048684622782,
                -0.11658596956196005,
                0.038365958746262994,
                -0.13404977438644858,
                -0.3242917271615401,
                -0.2210877580580479,
                -0.1592305426415396,
                0.36167266072954773,
                -0.3302924988485352,
                -0.4190056535702424,
                -0.14670637410061235,
                0.41236611734793577,
                -0.26101505435385647,
                -0.4463724983752289,
                -0.3865366753761453,
                0.27303336794234806
            ],
            [
                0.09043942136688427,
                0.33046199849372987,
                -0.09047583400973402,
                0.09521434988833513,
                -0.11586461765598544,
                0.22499844022445095,
                -0.0019508624700910128,
                0.29660303045436553,
                -0.18222812566710034,
                -0.0854656289911516,
                0.5656547397572825,
                -0.22907485144319795,
                -0.17543166883599323,
                0.1355400396929815,
                -0.29098917812621417,
                -0.3182916040665983,
                0.34761000809161047,
                -0.07318859262155215,
                -0.011476509695032866,
                -0.36971924579102156,
                0.29655331680180963,
                0.38180908071060565,
                0.3893070182236207,
                0.0852798335969353,
                0.2813043495487309,
                0.026689404745963093,
                -0.34215979922458,
                -0.11880440417748549,
                -0.013408204615775481,
                0.4208060814125065
            ],
            [
                0.08301115463502827,
                0.41401092071419265,
                -0.43916254241746094,
                -0.2865026175075317,
                -0.32178795618385425,
                -0.09458918965040734,
                -0.27978505077834226,
                -0.2619263265538813,
                -0.2597001421884247,
                0.4026837037918793,
                -0.2003436925084815,
                -0.04914409617795159,
                -0.049291056547519814,
                0.20517114968682282,
                -0.12469945670977962,
                0.46433569501445965,
                -0.17636361843305065,
                0.20021471017289336,
                0.36755428542111385,
                0.008642327205673886,
                0.2753417878180494,
                0.1286855465241585,
                -0.3763244884398738,
                0.13868108401486276,
                0.0013021612170794536,
                0.0912408027038445,
                0.09084645837334039,
                -0.11428381874322152,
                -0.23021558071897136,
                0.3005671499581885
            ],
            [
                -0.007890020654845445,
                -0.16456836665553373,
                0.04871477294434119,
                0.2639285354294005,
                0.11613431794043573,
                -0.29889227314916905,
                -0.1176740914112365,
                -0.06566303750402108,
                -0.19217811455517686,
                -0.31700429440280786,
                0.36328241757568525,
                -0.4450414300075326,
                -0.3920025701876404,
                -0.23444330993610715,
                0.03368116201461861,
                -0.05469021635877739,
                -0.09222644815012102,
                -0.45125466819373045,
                0.3342550772953769,
                -0.12202177092194326,
                0.2612780801001161,
                0.16427327640183162,
                -0.0885211202439215,
                -0.03887240836603479,
                0.2554499460027609,
                -0.3508904767964346,
                0.22704844408214042,
                0.24312701420934568,
                -0.0673081759613231,
                0.18969816020889055
            ]
        ],
        "l2": [
            [
                -0.34862128937096737,
                -0.055160837225554225,
                -0.16411676208237122,
                -0.10499991507218884,
                0.5149433400684326,
                0.9372011729355154,
                0.6784629737784487,
                0.5416792335076517,
                -0.09748571539043233,
                -0.07382511521194601,
                0.4169189779866036,
                -0.176071578594211,
                -0.005400427402556659,
                0.06367330175051088,
                -0.2957076240944752,
                -0.016183537292304886,
                0.18710284749212053,
                -0.5917737725508594,
                0.25285397764909506,
                0.22030884934572117
            ],
            [
                0.5803541467346045,
                -0.3638676847758859,
                0.26175764738307467,
                0.649692674477647,
                -0.10629434132145678,
                -0.3965736180052575,
                0.1505800474631917,
                0.49421476952200694,
                -0.13828382868122066,
                -0.04647017627911145,
                -0.2610405508755507,
                -0.03177525844783766,
                -0.0737144204176119,
                0.46613155819378305,
                0.3957556755070184,
                -0.018120348989516578,
                -0.4537053520212614,
                0.351683404759443,
                0.12506786294966596,
                -0.18672689710102575
            ],
            [
                -0.5657744645194465,
                0.4062961347654677,
                0.3232318291239493,
                -0.1141156712578729,
                -0.3105480258839602,
                0.6046087670550963,
                -0.2102422124758694,
                -0.31421373147187015,
                0.35494580516215873,
                0.02175493940708333,
                -0.005821490804968741,
                -0.24068750210650736,
                -0.39472100063385757,
                -0.13970373452193818,
                0.47441106539613853,
                0.24497248948487055,
                0.33079469684677604,
                -0.4144909123286632,
                0.4588301822841925,
                0.3564958179825428
            ],
            [
                0.13257345841972745,
                0.03548646366985868,
                -0.05087368287911136,
                0.13847134160291655,
                0.2018773203446143,
                -0.31192231607327153,
                0.40898436041509456,
                -0.09842591914099935,
                -0.38071939840259955,
                -0.11041136215146065,
                -0.19356437059889453,
                -0.13078438715720728,
                -0.5128877865483282,
                0.2670454448042569,
                -0.14627302142407203,
                -0.2839952795642527,
                0.09444746320115742,
                -0.10478827915199945,
                0.10448625703622079,
                0.2145532603615155
            ],
            [
                -0.11526666242254487,
                -0.5274703016181829,
                0.6018040025167826,
                0.15490993173348117,
                0.4805352437821667,
                -0.6407251641277725,
                -0.3772835993179054,
                -0.08357178545461996,
                0.5573809643707028,
                -0.23106736038675635,
                0.5217468860642215,
                -0.2798225858518285,
                0.4969259762706456,
                0.07732873641481504,
                0.25894376964488647,
                0.3413117067401151,
                0.2945380313821213,
                -0.5041122201814824,
                0.1579797469512922,
                0.27579545934837685
            ],
            [
                0.6749416678851661,
                0.08995097497888449,
                0.3334472366315097,
                -0.13219581703737054,
                -0.015079200477630984,
                -0.4317520165527491,
                -0.4808102253212875,
                -0.07996801722012395,
                0.6165123340916783,
                -0.6023519631065859,
                0.7056288207526096,
                -0.2298495800730952,
                0.44159954326756146,
                0.4318863793749811,
                -0.1920348298069024,
                -0.18815480361940465,
                0.07355693492289721,
                0.3278093881168194,
                -0.5237341381121597,
                0.7134561164221113
            ],
            [
                -0.10394434151735281,
                0.7234648449379908,
                -0.07557790463608419,
                0.03593312150140777,
                0.17468488998016168,
                0.3062547391179347,
                0.5572358553724452,
                -0.37941325735990816,
                -0.09093785757623225,
                -0.167788343790234,
                -0.52193934809105,
                0.467121554162615,
                0.3775813066793565,
                0.3198402191341268,
                -0.4663900648762516,
                0.33468060757823387,
                0.30092467342872087,
                -0.24336460061101056,
                0.06784128988233928,
                -0.3892739041836897
            ],
            [
                0.012802617302034958,
                -0.4673863472257742,
                0.1619223341674271,
                -0.09373254696075212,
                0.1414045138599016,
                0.2070921279665292,
                -0.4219582489646351,
                0.5698360408157341,
                -0.535445740134482,
                0.42858040459375774,
                -0.13963853175961496,
                -0.42799516138682225,
                0.33340077550420316,
                0.26162047894853735,
                -0.15102094543593556,
                0.47980488268076477,
                -0.5470041790891808,
                0.28343045668281747,
                -0.17672229032421255,
                -0.16005541125898687
            ]
        ],
        "l3": [
            [
                0.9468189121416547,
                -0.08612716288715688,
                -0.13676319161397266,
                -0.4166586018897385,
                -0.8374660292689384,
                -1.329740394903064,
                1.2353726314833358,
                0.4678726290591349
            ],
            [
                -0.8590641132617204,
                1.2720472929051816,
                -0.747196090604845,
                -0.42644677333771097,
                0.045388770720643935,
                1.198262989731954,
                -0.07722239270144579,
                0.9528270153612403
            ]
        ]
    },
    "biases": {
        "l1": [
            [
                0.2671099695794933
            ],
            [
                0.22039431749428076
            ],
            [
                0.06660130655666265
            ],
            [
                -0.012705574914740066
            ],
            [
                -0.005492166686486422
            ],
            [
                0.5265840360728063
            ],
            [
                0.19479239517136918
            ],
            [
                0.019222285644229366
            ],
            [
                -0.016621026057600793
            ],
            [
                -0.07087268228737083
            ],
            [
                -0.029910757925970883
            ],
            [
                -0.02582288533200168
            ],
            [
                0.02765320398790049
            ],
            [
                0.16847683436647268
            ],
            [
                -0.030138096850420727
            ],
            [
                0.05421917990441489
            ],
            [
                0.06673185262694954
            ],
            [
                0.30841501423619294
            ],
            [
                -0.07083157436065844
            ],
            [
                0.06182759381965878
            ]
        ],
        "l2": [
            [
                0.25712347536176844
            ],
            [
                0.02278524201791896
            ],
            [
                0.14610705718009953
            ],
            [
                -0.020384763631139745
            ],
            [
                -0.03070309383515124
            ],
            [
                0.18109992423651633
            ],
            [
                0.22841485718774424
            ],
            [
                0.026753807012226082
            ]
        ],
        "l3": [
            [
                0.3266771644292263
            ],
            [
                -0.3246771644292269
            ]
        ]
    },
    "dataParameters": {
        "f2": {
            "mean": 14.176922807017545,
            "std": 3.5104059355078054,
            "median": 13.43
        },
        "f3": {
            "mean": 19.342877192982453,
            "std": 4.219883284173678,
            "median": 18.95
        },
        "f4": {
            "mean": 92.3280701754386,
            "std": 24.29010682505375,
            "median": 86.91
        },
        "f5": {
            "mean": 658.3712280701754,
            "std": 351.0804784351805,
            "median": 556.7
        },
        "f6": {
            "mean": 0.09759687719298248,
            "std": 0.014732575661990464,
            "median": 0.09676
        },
        "f7": {
            "mean": 0.10478175438596492,
            "std": 0.05511627664435112,
            "median": 0.08963
        },
        "f8": {
            "mean": 0.08863638140350877,
            "std": 0.08169820337791392,
            "median": 0.05929
        },
        "f9": {
            "mean": 0.04956600701754386,
            "std": 0.03988986274193449,
            "median": 0.03483
        },
        "f10": {
            "mean": 0.1821140350877193,
            "std": 0.02850372127050028,
            "median": 0.1794
        },
        "f11": {
            "mean": 0.06270614035087721,
            "std": 0.007134492528708969,
            "median": 0.06125
        },
        "f12": {
            "mean": 0.4102442105263158,
            "std": 0.2775371921716927,
            "median": 0.335
        },
        "f13": {
            "mean": 1.2309080701754387,
            "std": 0.596638449900299,
            "median": 1.081
        },
        "f14": {
            "mean": 2.8949035087719293,
            "std": 2.042133415321722,
            "median": 2.344
        },
        "f15": {
            "mean": 40.819087719298246,
            "std": 45.58153423087983,
            "median": 25.22
        },
        "f16": {
            "mean": 0.007211845614035087,
            "std": 0.0032544520412439793,
            "median": 0.006458
        },
        "f17": {
            "mean": 0.025016877192982456,
            "std": 0.018153128371287488,
            "median": 0.01966
        },
        "f18": {
            "mean": 0.030286588070175438,
            "std": 0.023240313620988412,
            "median": 0.02526
        },
        "f19": {
            "mean": 0.011495726315789474,
            "std": 0.005853151260505262,
            "median": 0.01075
        },
        "f20": {
            "mean": 0.0208244947368421,
            "std": 0.008876624597832922,
            "median": 0.01857
        },
        "f21": {
            "mean": 0.003688814736842105,
            "std": 0.002332712683462084,
            "median": 0.003121
        },
        "f22": {
            "mean": 16.27481052631579,
            "std": 4.68894649109666,
            "median": 14.99
        },
        "f23": {
            "mean": 25.708736842105264,
            "std": 6.172942819004665,
            "median": 25.5
        },
        "f24": {
            "mean": 107.46540350877193,
            "std": 32.99887168784888,
            "median": 98.0
        },
        "f25": {
            "mean": 876.0856140350877,
            "std": 549.3840105928931,
            "median": 697.7
        },
        "f26": {
            "mean": 0.1340239298245614,
            "std": 0.023977894661321376,
            "median": 0.1324
        },
        "f27": {
            "mean": 0.25341417543859646,
            "std": 0.16430998748427253,
            "median": 0.2074
        },
        "f28": {
            "mean": 0.2706077228070175,
            "std": 0.21122669458920515,
            "median": 0.231
        },
        "f29": {
            "mean": 0.11441628070175437,
            "std": 0.06623174041903937,
            "median": 0.101
        },
        "f30": {
            "mean": 0.2904852631578947,
            "std": 0.06494230478720993,
            "median": 0.2807
        },
        "f31": {
            "mean": 0.0835881754385965,
            "std": 0.018369119050390598,
            "median": 0.07953
        }
    },
    "targetColumnName": "f1",
    "targetClasses": [
        "B",
        "M"
    ]
}