{
    "network": {
        "input_layer": {
            "activation": "default",
            "neurons": 30
        },
        "hidden_layer_1": {
            "neurons": 28,
            "activation": "relu"
        },
        "hidden_layer_2": {
            "neurons": 15,
            "activation": "relu"
        },
        "hidden_layer_3": {
            "neurons": 9,
            "activation": "relu"
        },
        "hidden_layer_4": {
            "neurons": 5,
            "activation": "relu"
        },
        "output_layer": {
            "activation": "sigmoid",
            "neurons": 2
        }
    },
    "weights": {
        "l1": [
            [
                0.5098439231623852,
                -0.13558856681681933,
                0.06762448820062046,
                -0.20224577766792984,
                0.22084294641686034,
                0.18934001661235425,
                -0.09113643943093337,
                0.5097455382614533,
                0.07332813838789884,
                0.15680982382868663,
                0.22663928250917245,
                -0.01100800508441311,
                0.33865886689527447,
                0.3590953518597378,
                -0.0666334074289108,
                -0.3732597238551015,
                -0.1682536954362092,
                0.06647487864938206,
                -0.23013979594624132,
                -0.002859933792122826,
                0.19036060695398943,
                0.18365581350852384,
                0.24006060239838514,
                -0.034767508608372966,
                0.19446347141047604,
                0.20153803561528286,
                -0.21421813173438345,
                0.43618173337582133,
                0.3875348943761019,
                0.024546508003539788
            ],
            [
                0.08197009606924387,
                0.30524500404663973,
                0.04541269224969946,
                -0.33463280549774405,
                0.16748793667133643,
                -0.0580579064906187,
                0.07533615074896001,
                -0.30369252852105566,
                0.10577980647198607,
                0.11144055358058352,
                -0.1945458414654583,
                -0.312479019265295,
                -0.25721721874302295,
                -0.1399379790208065,
                0.5251426943414745,
                0.3099581738388762,
                0.39320282216898833,
                -0.15663967853614413,
                0.0805813826363944,
                -0.16619124612865677,
                0.2771394233670372,
                -0.5326194043883195,
                -0.44354324379739435,
                0.11146392313794334,
                -0.46973944051992156,
                0.14528664967917285,
                -0.05445088829040533,
                -0.16222158317055427,
                -0.24891939396070512,
                -0.006628189893312839
            ],
            [
                -0.22066342962864682,
                -0.03958513799887421,
                -0.08362499208613103,
                -0.22890890906408123,
                0.1461841772502904,
                0.33072945497415757,
                -0.09087879427756848,
                0.07416114735695233,
                -0.3162938727530723,
                -0.1595225572208285,
                -0.22124735076446087,
                -0.40149312415664273,
                0.07690638677163937,
                -0.31751651230889577,
                -0.04102963208833327,
                0.031172490773734542,
                -0.28764477942945177,
                -0.294632210894664,
                -0.09088169325073595,
                -0.02517685721375345,
                0.4469982539017013,
                0.40821734274397575,
                0.10381011948304278,
                -0.24045595195153732,
                -0.41356712189046246,
                -0.029818854630918244,
                -0.0052013205088257365,
                -0.09252206861130427,
                0.28277271225678674,
                -0.33971632167050136
            ],
            [
                0.1298603664082412,
                0.12635434468962833,
                0.2534096743987217,
                -0.10517997443467274,
                -0.10648585054615847,
                -0.12091425589496851,
                0.4449977978356199,
                -0.19133866912843142,
                0.41594605490350905,
                -0.34374902321239204,
                0.06618427636758197,
                0.032530613461900976,
                0.1052231010845714,
                0.3664721758206612,
                -0.303791280294461,
                -0.41846466937295146,
                -0.3990088410348986,
                -0.3249036263898029,
                -0.19168162312473672,
                0.30090314838535265,
                0.469778359508132,
                -0.19534579697030385,
                0.03451402754177653,
                0.4239305271242648,
                0.09586681400204176,
                0.03251942919412867,
                0.4754514362808377,
                0.1856082649970877,
                0.11703620624916311,
                -0.24417173308389223
            ],
            [
                -0.36906611080787155,
                -0.13646269317205126,
                0.33879268590935085,
                0.42342993894765624,
                0.08282649094319403,
                -0.04653798354142155,
                0.2338769935330768,
                -0.3960704302064937,
                -0.3613633830514164,
                0.14669793527296301,
                0.3007542942897103,
                0.17594818356582792,
                -0.24418587737134562,
                0.3905569264757162,
                -0.016803692289093664,
                0.3572825180709418,
                0.07964515707169535,
                -0.06190838033286049,
                0.3399363506955486,
                0.00046233044894762045,
                -0.2640509581561021,
                -0.2756645645908022,
                0.1880665642320458,
                -0.34150898348949904,
                -0.4063163267813966,
                -0.33475012344971244,
                0.22350449684915863,
                0.4178482541364288,
                0.03216299259238394,
                0.28417985486461445
            ],
            [
                0.21307521564692683,
                -0.20265560954376,
                0.07770409187687269,
                0.058979356645834105,
                -0.3346919336676482,
                0.2665901278267171,
                0.3488499956978674,
                0.1269766346968022,
                0.1072546333128284,
                0.20490084824199703,
                -0.34472402998728874,
                -0.3459819273769902,
                -0.10069401836849176,
                -0.2258496475819501,
                -0.41925133368913176,
                0.10240817585877324,
                -0.12699100899219,
                -0.28612477711621975,
                -0.3604252342344649,
                -0.18033847478584045,
                0.4798434687036415,
                0.5336270685951495,
                0.43004587691391116,
                0.07802996250246046,
                -0.11671426158047554,
                0.0424274268462442,
                0.15313471364603415,
                0.4053095526958994,
                0.05974435455345922,
                -0.38411512535392756
            ],
            [
                -0.0799978498116201,
                0.27110169488146274,
                0.2275943619299899,
                0.14392579762188557,
                0.04373018935468583,
                0.008615424309033604,
                0.42684888865656656,
                0.37107062710848226,
                0.2179212177681042,
                -0.3186581676973698,
                0.3540335137172412,
                0.21764666124623047,
                -0.23074355235799782,
                -0.364389856641587,
                0.44050468196793746,
                0.1682525758542158,
                -0.2707731750091379,
                0.11201183083341411,
                -0.1856225441809535,
                -0.08481615344297723,
                0.38969018706271225,
                0.14688551159836077,
                -0.1824571563731653,
                0.1767550902824302,
                0.02951325996047378,
                0.46927197397559783,
                0.42876975265649475,
                -0.14863133092345004,
                0.5319802404945179,
                -0.21185344650535604
            ],
            [
                -0.0507333341506541,
                0.07756464178905095,
                0.24356923141870504,
                0.012273852226030911,
                0.3908258372706293,
                -0.2204139699960002,
                0.3707790133919797,
                0.10089920488337972,
                0.18009437739552664,
                0.054078004550407455,
                -0.3912992103393856,
                0.15518332139331048,
                -0.31705532572627854,
                0.3770251821241686,
                0.3565487897254891,
                0.07461574598008444,
                0.3328080169848079,
                0.07754496476226948,
                0.18999789399970854,
                -0.42086383589981935,
                0.19457905844413945,
                0.007457312712412219,
                0.05972051853131485,
                0.11192396139571029,
                -0.16858453161367792,
                0.10431534689640352,
                0.1467954799244048,
                0.1469922031708845,
                0.42136182962837243,
                -0.13298637306677663
            ],
            [
                0.0982816155913053,
                0.1389029412324919,
                -0.41165299330279215,
                -0.007315045832490937,
                0.31219523857041037,
                0.10088783735252048,
                -0.07302892920117682,
                0.14994989467686537,
                -0.023183181751110764,
                0.3584449935550416,
                -0.4246743347063626,
                -0.39602259216137037,
                -0.11954302623209946,
                0.09586098242646295,
                0.4559094686088599,
                -0.327102408706407,
                -0.21418413747214263,
                -0.10528059129800776,
                -0.21724480392706896,
                0.15317296922765986,
                0.07750906582481626,
                -0.30787226311171595,
                0.21067408225569972,
                0.4409021924280896,
                0.060609078177815356,
                -0.25321501109818273,
                0.37962089897845597,
                0.16783455579690737,
                -0.3171016944518144,
                0.4533328545563205
            ],
            [
                -0.29439844401818993,
                -0.18768290556665967,
                0.4001705207276231,
                -0.15835157036571545,
                0.22567012062007247,
                0.28239278726251477,
                -0.235266692520778,
                -0.1777135254402693,
                0.48354719735477136,
                -0.15757968250653562,
                -0.32697213774414446,
                0.361227391391426,
                0.32673079786125203,
                0.28315817194652165,
                -0.34141292194010975,
                0.3689150521846434,
                0.06613569392863043,
                -0.023134224383177256,
                -0.14523985844118553,
                -0.15787540044713044,
                0.4704720241034203,
                0.3924843946664372,
                -0.23811903610268437,
                -0.3367935191943573,
                0.36900580741221606,
                -0.14451215854125724,
                -0.2281333075827091,
                -0.22676891548222003,
                -0.1121896370709837,
                -0.2711021743092896
            ],
            [
                -0.14177381478170997,
                -0.35176677317502825,
                -0.05032806484582936,
                0.12404701785091575,
                0.03152873502064332,
                0.10956786639491554,
                -0.08291283845791156,
                -0.1339411870712364,
                0.25130830040337426,
                0.41772081594338406,
                0.04972214616764936,
                0.40130305418017065,
                0.33800719841893717,
                -0.17768734767449104,
                0.42065164990238013,
                0.2768530022967844,
                0.35681355815672167,
                0.28964297023224705,
                -0.3033918153519345,
                -0.31883510637376705,
                0.1336628934548179,
                -0.46883163630647406,
                -0.3400352894430971,
                -0.037052123193490244,
                0.14655049144168059,
                -0.04560922023166759,
                0.3891710110647781,
                0.27202830003818934,
                -0.264605887493598,
                0.23012518354000885
            ],
            [
                0.37584003465208543,
                0.17949912637492413,
                -0.012041564531148392,
                0.49346563947741034,
                -0.3639470295495961,
                -0.08085093982487357,
                0.030617730996170392,
                0.0988457336877959,
                0.06489446348814559,
                0.03331125211123158,
                -0.14176193272602627,
                0.24963928306189248,
                -0.30589022378324937,
                0.20668982950969003,
                0.3085413463294117,
                -0.12276780539459718,
                -0.035255680953465915,
                -0.14192097411445556,
                -0.040783590771676745,
                0.12967792093376718,
                0.5235826985314733,
                0.13683290022654587,
                0.4713300030869525,
                -0.14998753654560446,
                0.49241672852722224,
                -0.29381585131918186,
                0.2696380528971486,
                0.06075781950966045,
                -0.011322879327601237,
                -0.25931716561990603
            ],
            [
                -0.15662028430131986,
                0.05882669674299676,
                -0.48246097227587514,
                -0.20610033895070787,
                0.05707603955719996,
                0.15136358625246335,
                -0.27566497019486824,
                0.33954383607882643,
                -0.1698917355455033,
                0.34212594663194906,
                -0.18612473780076105,
                -0.26362766301519003,
                -0.3813708371013875,
                -0.45399273149627245,
                -0.3503240982740735,
                0.3311923258913522,
                0.37811067002895127,
                0.30930685302895866,
                0.4385479858650452,
                -0.05011051598650893,
                -0.0062884278529901205,
                0.35970275593629625,
                0.09564921795352238,
                -0.5235482190059366,
                0.026485100103799532,
                -0.20606934788495923,
                0.01088498454850427,
                -0.02843690103511423,
                0.32518957303689605,
                0.08756672744250714
            ],
            [
                0.08460905123074643,
                0.09920556887655985,
                -0.23468843911942736,
                -0.24213923365182802,
                0.42141461549159176,
                0.1584486799128549,
                -0.07239440344048838,
                -0.2624185423693468,
                -0.28905405807302514,
                0.1835310315972376,
                0.050314897967427455,
                -0.24414995214062765,
                -0.05709891472027083,
                -0.10673264094526135,
                -0.18724616358483692,
                0.19256479761174516,
                0.10031701830015773,
                0.27105444937833734,
                -0.07009514482269978,
                -0.20539431055676943,
                -0.4708722864536391,
                -0.05833542866572129,
                0.193229619355973,
                -0.23143772114670996,
                0.40239733088440166,
                0.2153341436386741,
                -0.5396105746114095,
                -0.06032337723573578,
                -0.19074273573573883,
                -0.3587577228787809
            ],
            [
                0.2739877443420181,
                -0.5494049399496488,
                -0.2429419622285714,
                0.002616939101544744,
                0.24443332086457326,
                0.14982236490432282,
                -0.05857024873450657,
                -0.5267618266114501,
                -0.03134047743500096,
                -0.11677864496402343,
                -0.43561201898824664,
                -0.02817720207943588,
                0.3209245156255018,
                -0.09184907358219775,
                0.48946682117392903,
                -0.37947372240387023,
                -0.5703659614994046,
                0.4367618491850365,
                0.015438477314885034,
                0.05979827296676905,
                -0.6071582094981387,
                -0.14589515728677716,
                -0.16871276270893285,
                0.1417995364319154,
                -0.23991586379406749,
                -0.2619678292653912,
                0.13360446748088806,
                -0.6899648264513016,
                -0.44302501389999693,
                -0.1719463646978377
            ],
            [
                0.021990574364565158,
                0.11270442756596939,
                -0.06898410014666086,
                0.17905511118125172,
                -0.30846239428440275,
                0.004035864388908549,
                -0.096977270018454,
                0.17004492797604423,
                -0.07023051344769816,
                -0.23178713188811853,
                0.1649183123346876,
                0.27472052818204024,
                0.36122149459731767,
                0.2052422844205301,
                0.07423829878413117,
                -0.36837003883285996,
                0.20379368531514966,
                0.38892651871661255,
                0.17868075475915607,
                0.20367922156423965,
                -0.21989017572271868,
                -0.08927966525721608,
                0.055503103579465786,
                0.047230360497929204,
                0.19080966890202214,
                -0.19323650428876574,
                0.01310521707293512,
                -0.243040833505329,
                0.3235455884624499,
                -0.3554822443393104
            ],
            [
                0.1789205319345404,
                -0.03739627851347027,
                0.1281047281351315,
                -0.14711977144589541,
                -0.3407616355781627,
                0.33011709007300344,
                0.1000646453191339,
                0.3818302240462659,
                0.26906551701470444,
                0.027138355438728768,
                0.381724537285947,
                -0.1248630877719745,
                0.39098050280048485,
                -0.3872302058542136,
                0.4362158738976778,
                -0.21382134566034572,
                -0.006241433820562283,
                0.5004275304240325,
                0.3396612631670155,
                -0.1518601537752277,
                0.03482654912059137,
                -0.10694905933386943,
                -0.2256016050656875,
                0.22781863482217368,
                0.35880435337972194,
                -0.2736735549977894,
                -0.29681713819346006,
                -0.0868666814884258,
                0.015333785351086333,
                0.08519709413953416
            ],
            [
                0.48824849551444804,
                0.18078621692412072,
                0.4299926315522303,
                0.13064840515947787,
                0.3152533669246051,
                -0.08480251164040477,
                0.4777504714019974,
                0.30573197718796513,
                -0.09142550965876432,
                -0.07436729108378207,
                0.34637417130682946,
                -0.42180494991680356,
                0.28690415422271276,
                -0.07918880025796597,
                -0.13333610808227275,
                -0.010897138953852876,
                0.068142666671765,
                -0.07919266923535521,
                -0.11410152761057786,
                -0.5018068398309187,
                0.13390798720447328,
                0.09148519577680335,
                0.31598568380305203,
                0.41950751328488955,
                0.28536801283393703,
                -0.27979900405879976,
                0.2642202209231862,
                -0.19410419523369854,
                -0.17191304403784277,
                0.17924142951540192
            ],
            [
                -0.28753336199785806,
                0.239593312429149,
                -0.25626865024551126,
                0.06626556211241398,
                0.07713423699787207,
                0.3634331124046441,
                0.1445756213078486,
                0.49596369595618367,
                -0.09809553942582774,
                -0.3359687237046451,
                -0.3324530123920522,
                -0.1548099203667149,
                0.2198945869614802,
                0.12270361303277975,
                -0.45387039940155477,
                0.22280612787370274,
                -0.1057258225223058,
                -0.18076198917721903,
                0.05823393896454039,
                -0.13893776536525954,
                0.32264224498124744,
                0.4691084328978199,
                -0.013434009327051931,
                0.010531742753083466,
                -0.4286081221070189,
                0.14019918366408257,
                -0.3337876607227616,
                -0.15079204151539058,
                0.30879707010416985,
                0.3256701687797913
            ],
            [
                -0.07942869022519519,
                -0.046060940279158004,
                0.5110689466376623,
                0.3116264245624124,
                0.42254433745104797,
                -0.20621281989355347,
                -0.0969245275536889,
                0.34155565340901817,
                0.06619632142080237,
                0.09719984472414614,
                0.5626662825908689,
                0.35717604881360093,
                0.27994522592484383,
                -0.20832304929398854,
                -0.17171025793923966,
                -0.024515989606266105,
                -0.020333722009909457,
                0.19979657065552214,
                -0.21204222192601688,
                -0.13669033346720053,
                0.15242890209791735,
                0.6560459329580797,
                0.16039375813853138,
                0.4269687111682566,
                0.5684051483391931,
                0.024753713178348655,
                0.15153161784717667,
                0.5824304350766014,
                0.35206912045922767,
                -0.26695368377215517
            ],
            [
                0.3850619981198066,
                -0.0229840644618817,
                -0.4336547797853383,
                0.0664968561467302,
                0.44861070270510717,
                -0.3730421285386228,
                0.1704251625394045,
                0.038366007271693654,
                -0.36188802902895806,
                -0.2658965445320696,
                0.2627731394678354,
                -0.274097365844788,
                -0.4026450270359845,
                0.28913362843124196,
                -0.14210112726092222,
                0.15756403536445765,
                -0.12436319555443504,
                0.34986065196751565,
                0.391964801497083,
                0.32043636920258994,
                0.47778857229625527,
                -0.10339595779860901,
                -0.19911431677522853,
                0.3305009470514052,
                0.047152091096353425,
                0.07248293170095409,
                -0.3034114973962246,
                0.3274682308249029,
                0.20861563785655143,
                -0.36172566682700646
            ],
            [
                0.16690413363307519,
                -0.09889629748368699,
                0.029560125639708543,
                0.2850079050134858,
                -0.30843544463706263,
                -0.38214228644926934,
                0.08916689794913155,
                0.20014418110940457,
                -0.3835822171400057,
                -0.04729968794146048,
                -0.2115080304198998,
                0.3937377712044056,
                0.04645492248227119,
                0.39201186775873226,
                -0.2595072634140746,
                0.4681606502679957,
                0.27191931688508036,
                -0.40301413368587646,
                0.336130726120145,
                0.5005711471973711,
                -0.048051522191051625,
                0.171368804541069,
                -0.33203335748613944,
                -0.21882888067294765,
                -0.19925071154145235,
                0.10608838501415677,
                -0.12860218254049013,
                0.4214265661685418,
                -0.015621118912770151,
                -0.28614851727030943
            ],
            [
                0.23512515262171135,
                0.27924616907708566,
                0.04581615299668592,
                0.4666679107234654,
                -0.4935567167685648,
                -0.14888385764466333,
                0.1271278031424804,
                0.4767694262695688,
                0.17281543705873925,
                0.2882131183825962,
                0.13458955400558548,
                0.2501947664160451,
                0.5563399831771382,
                0.13210507109430175,
                0.5287045687181628,
                0.46784303410571215,
                0.0469429969648069,
                0.06527078385679061,
                -0.4528279225645967,
                -0.38564410452498693,
                0.44936437710475435,
                -0.24777366065594456,
                0.29272058700596104,
                -0.24732318822821056,
                -0.15236812191008972,
                0.280520713898628,
                0.14503488491209468,
                -0.29442899562894215,
                -0.35520258127111154,
                -0.31530682345212757
            ],
            [
                -0.30861696749634004,
                -0.05872111287562265,
                -0.40688139291352043,
                -0.018366573032109187,
                0.38345155652065,
                0.34801142244526617,
                0.39876929030076536,
                0.011157442301407845,
                0.12281714642308146,
                0.29295989204585027,
                -0.29426423727311024,
                -0.09449996965898863,
                0.14715085712995013,
                -0.2400424943933119,
                -0.014569869318832395,
                0.10882334295785558,
                -0.06599240427089331,
                -0.040776881913750666,
                0.2887378665720085,
                0.38114499225906745,
                -0.33324919159411426,
                -0.2807765544470358,
                -0.024944160634255336,
                -0.4202829482257281,
                -0.0033544322904666326,
                0.34339213482236064,
                -0.2729655199121851,
                -0.2543665725800274,
                -0.12043281511480121,
                -0.18327460130685397
            ],
            [
                0.29738554195643807,
                -0.038514174016707786,
                0.24621021817477468,
                0.5423620750533682,
                -0.34211461169852203,
                -0.10259475116816695,
                -0.17548700790767516,
                0.19974005164233388,
                0.20282899262055643,
                0.30060422628150013,
                0.06902516618953064,
                -0.027273149887982934,
                0.23259366355433475,
                -0.34019858057546803,
                0.44063460936113374,
                -0.1160696196675033,
                0.29477468871584017,
                0.10780713567924258,
                0.3328863181999744,
                0.18180311188603457,
                0.5350679421261785,
                -0.027661951073214678,
                -0.1087993139399891,
                0.17643558768867035,
                0.03124519383365204,
                -0.38714022828338296,
                -0.23043246506177892,
                -0.06978864633351549,
                0.4185631241654451,
                0.06247029600982026
            ],
            [
                -0.16304562012960486,
                0.24661612366208965,
                0.041447496504939466,
                0.3733655403321767,
                -0.3518859654192114,
                -0.061705794267606945,
                0.25468822098765215,
                -0.06433607533184757,
                0.4078052413576406,
                0.4693965452166987,
                -0.11113807042841355,
                0.308116298451661,
                0.3515917821628067,
                0.030425625348066723,
                0.13519852682196998,
                0.19925181802459085,
                -0.3587788445359141,
                0.22187241280655737,
                0.3262748666324287,
                -0.3886731723118446,
                -0.18865584760932336,
                -0.38662904648511054,
                -0.22102348436721556,
                0.16726623125077236,
                0.3687733015883815,
                -0.10714588749906322,
                -0.35923835003821675,
                0.17041438092553868,
                -0.2864921557679424,
                0.290873364879345
            ],
            [
                -0.36699050827037394,
                0.19979535207392288,
                0.13088125638747097,
                -0.2799596314726223,
                0.1379729826439621,
                0.33550802914945754,
                0.07576836323546014,
                0.2714283205830822,
                -0.19545604896782853,
                0.034972888433112095,
                -0.4370189888736335,
                0.09650139621172824,
                -0.04198546997611508,
                -0.1550602715547135,
                -0.33228954671755073,
                0.46117207592038845,
                -0.03864795667773572,
                0.40454349870486617,
                -0.16247094885814675,
                0.3503152685635599,
                0.057709463482919984,
                -0.18826828601610188,
                0.08523451485150811,
                -0.0774558952440089,
                -0.36129508894463597,
                0.08510152904223019,
                -0.2814281858217961,
                -0.3011147849138964,
                -0.17742191123835802,
                -0.33307916305628976
            ],
            [
                0.24919484994285743,
                0.32294448349270977,
                0.37437462952326117,
                -0.3346632931564002,
                0.2368316660728803,
                0.073599711556988,
                -0.42564328084097613,
                -0.3790709827178077,
                -0.0374452868841281,
                -0.18848507680359092,
                -0.3602637126227777,
                0.32109717601512083,
                -0.23995822458955543,
                0.13715634591829917,
                -0.05814427243277778,
                -0.31449586010927066,
                0.36525665175388883,
                -0.42549810178615405,
                0.37396042179877054,
                -0.29429019774969295,
                0.12750926060114656,
                -0.39899088475079386,
                -0.15978451691628306,
                -0.19198687792852412,
                0.19657862155146372,
                -0.27853521731489295,
                0.29597173938034405,
                0.3600718842791971,
                -0.1462937192195496,
                -0.2697271618708898
            ]
        ],
        "l2": [
            [
                -0.27592476510112246,
                -0.4395092193379385,
                -0.24200719846396407,
                -0.1367106625605055,
                0.3423973605225784,
                -0.011489510995236778,
                -0.3496080700891784,
                0.373262101954438,
                -0.3206425550060791,
                0.019293307536805523,
                -0.25006669688722827,
                0.38975372029709454,
                0.41158469202748343,
                -0.3898117901973003,
                -0.21023410242228804,
                -0.26766211684861607,
                0.3360502722804091,
                0.20751783325715412,
                0.41712310146206427,
                0.07744710798115681,
                0.46982264975078036,
                0.00560773403773624,
                -0.19721272662028902,
                0.1177873894558765,
                0.18157675893286415,
                -0.3197048129662076,
                0.05566327821483522,
                -0.05791297639850882
            ],
            [
                0.2553067320204701,
                0.01169924162014564,
                -0.37499339274263505,
                -0.43141816361541385,
                -0.17110672214863712,
                -0.45261613521166916,
                -0.04170892855156337,
                0.03221779384792395,
                -0.10818881294427693,
                0.37073811529133527,
                -0.15812176277793066,
                -0.253129487828649,
                -0.21754583723852108,
                -0.22439830208687997,
                -0.22177213765418854,
                0.26260414282234873,
                0.20120408892346026,
                0.41671404330511563,
                -0.4125215147455107,
                -0.2276660003375498,
                0.19604544076008087,
                0.015203321936793902,
                -0.30278060508926613,
                -0.4013860752076744,
                -0.3380829432356371,
                -0.14685581629684616,
                -0.06212111762761607,
                -0.06218046625223888
            ],
            [
                -0.3788831562562901,
                -0.25054874644674524,
                -0.18919445405277127,
                -0.03514719058016862,
                0.29294868358104553,
                0.03371195244239577,
                0.21958637048718144,
                -0.3297777501443615,
                -0.11491769621157621,
                -0.018645529360380803,
                0.2233628727951275,
                -0.20029712492743743,
                0.13352590916702733,
                -0.13435435628095382,
                0.2949900037664046,
                -0.22537237349193173,
                0.3614098215764641,
                0.07617395636742029,
                0.1529434242504208,
                -0.09325019635068002,
                -0.2565978835306069,
                0.2531698284499129,
                -0.2774931608220447,
                0.2628634040348307,
                0.004739246682096532,
                0.33943954010866284,
                -0.11801365713913294,
                -0.12971269282189807
            ],
            [
                -0.03869993551041951,
                0.00799418491261882,
                -0.14752377353775323,
                -0.06436680600892337,
                -0.39105227316817553,
                0.34198186094068495,
                0.32440885585338175,
                0.4752307588048996,
                -0.3276361884197185,
                -0.3657942017334973,
                -0.30660806884186453,
                -0.3060644748183745,
                0.10440521554708239,
                0.16906250177161186,
                0.22479117167955548,
                0.4072539826287049,
                0.42191303873167074,
                -0.21564457461623704,
                -0.430462098185864,
                -0.0148397172787994,
                0.07795001615298441,
                0.07248994234814633,
                0.0564236448584524,
                0.2349246967079136,
                0.23205976584433832,
                -0.44723843939791535,
                0.019413936840865623,
                0.21508702295910237
            ],
            [
                -0.008901557933189731,
                -0.04268832727577171,
                0.289537514037714,
                -0.015125455093469471,
                -0.10347307130961383,
                0.5580209470197829,
                0.01134682124146776,
                0.26488684042289284,
                0.4164441543315246,
                -0.11152878009714909,
                -0.2949670509682697,
                0.09882936094250631,
                -0.15947975351698934,
                -0.23887643618814983,
                -0.2646857519959121,
                -0.2839161697221755,
                -0.13582102871284263,
                0.3518968558814775,
                0.26608209700659835,
                0.43481757985868696,
                0.40963404255503705,
                -0.47938398250234926,
                -0.18501473852177952,
                0.27328518148710296,
                0.3367294321611457,
                -0.11596243159436273,
                -0.07070927882497015,
                -0.13335525653827088
            ],
            [
                0.025684087810208516,
                -0.21982247185065037,
                -0.08884842699838716,
                -0.09628779273756623,
                0.31810307253401854,
                -0.2310455422955015,
                0.31444480185110996,
                0.2219100100687897,
                -0.44056753120964354,
                0.3848495496039804,
                0.211442807350851,
                -0.2591901992840257,
                -0.34762351514700207,
                0.26378862020504074,
                -0.23685086264889843,
                0.19809356178021545,
                0.04454848340697488,
                -0.3598803406778591,
                0.05526610645358215,
                -0.4151310442296764,
                0.18020016404744224,
                -0.31468959450511386,
                -0.3031104283976422,
                0.32012345264330216,
                -0.2158697112728369,
                0.26744199069867186,
                0.13450909866743274,
                0.2916355395536031
            ],
            [
                0.12102050605976826,
                0.3207283589044656,
                0.1251610801544982,
                0.11249682934587235,
                -0.09421568199907497,
                -0.41752358033665293,
                -0.23693613966505583,
                -0.1815547496258813,
                -0.01882895040156975,
                -0.04021922868389971,
                -0.15294832107012493,
                0.03878693983500586,
                0.26204613198007826,
                0.31289266835539997,
                0.6858973297851989,
                -0.1682400033912935,
                0.07079549770541156,
                0.0015547920055591562,
                -0.22924815017592368,
                0.03221098266470106,
                -0.054851597508258285,
                0.25180920901942394,
                -0.3794445462873259,
                0.1591386164283356,
                -0.31771465171626634,
                0.3881571588023215,
                0.10450190075850256,
                0.5102546814536018
            ],
            [
                0.11423125904335586,
                -0.1922734918588588,
                -0.24538440377178736,
                0.5047171497617087,
                0.01830806197737296,
                0.24943803538089135,
                0.3238272539574868,
                -0.10735476044122214,
                0.540328315012556,
                -0.41305696251500923,
                -0.3627194144379502,
                0.06141174307320547,
                -0.45429517838002853,
                -0.04704089122280609,
                -0.4912013024849336,
                0.15529417088477762,
                0.3751992962070908,
                0.5586841443626349,
                -0.3687493048685516,
                -0.30325419439699747,
                0.2394793869811149,
                0.31580480921653625,
                0.322608357628509,
                0.1123538499867555,
                0.20703580530712978,
                0.28254201107313515,
                -0.35002195850588885,
                0.012843112733557623
            ],
            [
                0.15985355225212056,
                -0.2645021861553673,
                -0.02029544852841056,
                0.031107922498883073,
                0.4135587812156158,
                -0.22425252410331095,
                0.4126466469878368,
                0.07270559020409456,
                0.18681894785812547,
                -0.11063289954956995,
                0.22163932453791232,
                -0.14727033564241948,
                -0.010869534886611222,
                -0.08070231107658657,
                -0.33188318290999597,
                0.16946742811829288,
                -0.01798328479369528,
                -0.2885903464339665,
                -0.4402125313271454,
                -0.48072208467272765,
                -0.2148870999350202,
                -0.35708389219418984,
                0.2684846150088586,
                -0.04624412741432176,
                -0.09883891181864995,
                -0.002442138282423416,
                0.04601276629772738,
                -0.15740976378010088
            ],
            [
                0.11822798509363869,
                -0.2607247787276458,
                0.4247957823953657,
                0.3047089931916422,
                -0.028744140290857787,
                -0.4206498418320005,
                -0.09114774826276348,
                -0.21598304915663882,
                -0.07294820242181124,
                0.19013503602274662,
                0.09770214845982007,
                -0.28901263709238206,
                0.16817024289481633,
                0.13556243677360452,
                0.17329577131535454,
                -0.21683466243268176,
                0.05696923517615768,
                -0.17425789710814865,
                -0.45654052262384365,
                -0.3605391367375116,
                0.08211989035754608,
                0.002432487009175063,
                -0.19291219526893177,
                0.11249808655869226,
                0.20485958465603255,
                -0.23353377843726256,
                0.2534868773989758,
                0.24913212548590283
            ],
            [
                -0.36864613296413323,
                -0.1653131453832257,
                0.05876690530789001,
                -0.21881102637044553,
                -0.17022237698453313,
                -0.3992246220011721,
                -0.30365416008077234,
                -0.3378560569896082,
                -0.24763772819901342,
                -0.11272248965861949,
                -0.3748528188628444,
                -0.04144825751825949,
                -0.2125388201713806,
                0.17021000058640565,
                0.07918368949491371,
                -0.21132658563689016,
                0.4594520979925821,
                -0.32165625536181075,
                0.3811927731438836,
                -0.27781249588043794,
                0.13543116263833582,
                0.13777038971169672,
                -0.11680819825291368,
                0.19083983574367874,
                0.02398362571872125,
                0.3983295841286283,
                -0.13265564873536953,
                -0.28732161953893964
            ],
            [
                0.03076442190463081,
                0.015795937265059373,
                0.287948961622086,
                0.4932016248466799,
                0.1657176440720449,
                0.054439347854036334,
                -0.3153582287203606,
                -0.11170116390108496,
                -0.19916701780303236,
                0.22621325027698308,
                0.4095424794106229,
                0.08525479851052402,
                0.08266318336823765,
                0.0037787914305907034,
                -0.3680888881175563,
                -0.43240598539853004,
                0.23683015666117457,
                0.18740868955015827,
                0.1030586418866095,
                0.5184874947650353,
                -0.17672778111985726,
                -0.11150858269590642,
                -0.1840112268955615,
                -0.45530330029904564,
                -0.3786135683871272,
                -0.06843407348118745,
                -0.29603853691579546,
                -0.02953953785397379
            ],
            [
                0.5373466168700906,
                -0.4486812109352169,
                0.0514095656968297,
                0.44362161779772014,
                -0.17916335010161444,
                0.1867780337141777,
                0.5605289422909716,
                0.42536342938800853,
                -0.18076064472790235,
                0.1005464124462692,
                -0.3764108354741648,
                0.23241311069598994,
                -0.28531828664004616,
                -0.4878311200244605,
                -0.4132353715615057,
                0.14447124136271897,
                0.2603291190729922,
                0.5679724824173754,
                0.30692369563414185,
                0.6700559894037998,
                0.07403627502441186,
                -0.1905475242673619,
                0.3171457800183588,
                0.10394136032056771,
                -0.048286200018813605,
                0.09702166545294477,
                -0.45275001375465296,
                -0.007650267064076389
            ],
            [
                -0.41922458717625893,
                0.3200192368198474,
                0.2052791649207007,
                -0.1755575199362576,
                -0.17048042237157943,
                -0.17980804123860128,
                -0.2110945242259131,
                0.3121274041528392,
                0.12494920770513268,
                0.1847626600368381,
                0.0022426801649767293,
                0.01901227205759221,
                -0.17547416706222244,
                -0.08721135917215507,
                0.34915011442079136,
                0.39163816226639964,
                0.3611326451920505,
                0.059837040971881486,
                0.08533669578425648,
                0.12183632377930945,
                -0.43293262259760457,
                0.25096821440984524,
                0.4450392620117377,
                0.19573673443334907,
                0.07111886450445926,
                -0.11243703421858492,
                -0.15105994083117527,
                0.05074064908611151
            ],
            [
                0.46243812825521957,
                0.5818681244515098,
                -0.16107262288667648,
                -0.3046362815062473,
                0.2959298234524998,
                -0.4166725360016774,
                0.31207780248424233,
                0.1016667945939208,
                0.38317786599720344,
                -0.24932210158616933,
                0.46572201372619076,
                0.45690151329452866,
                -0.5122343969836541,
                0.23420808188956033,
                -0.06865887347514116,
                -0.15084501180362903,
                0.11910347261105839,
                0.40013336083503215,
                0.2947935066788598,
                0.07394039525330755,
                -0.0345786431256148,
                -0.3509598537969966,
                0.372461453905647,
                -0.4326298284479871,
                0.17344887288805835,
                0.09760765970642735,
                -0.19745481209332127,
                -0.41390936577154913
            ]
        ],
        "l3": [
            [
                -0.6088558638427396,
                -0.5943902045891103,
                -0.39095471008091814,
                0.15407066197948838,
                0.5640333864339618,
                -0.6373991707785372,
                -0.7343638901461487,
                0.5116710353616911,
                0.12268383907597129,
                0.07919425545056728,
                0.1527552523568653,
                0.47256832824174566,
                0.7628789239148988,
                0.29370860797541376,
                0.8106465918490282
            ],
            [
                -0.14595146947325255,
                0.3087322245033321,
                -0.5412964574063446,
                -0.5572780666837105,
                0.014314174726529917,
                0.45360889750216116,
                -0.20065050378121735,
                -0.29858702684899563,
                -0.5725515873607829,
                -0.06808485091803528,
                -0.5033927436265166,
                -0.5775586282156175,
                -0.022287393259072703,
                -0.4110800017802302,
                -0.633939357060573
            ],
            [
                -0.5334183308371683,
                0.2763147889440985,
                0.22130726826699962,
                -0.4685395518408291,
                -0.0018226216846584128,
                0.17127427746150695,
                0.3747599889145348,
                0.4271565265346431,
                -0.21949301247470052,
                -0.5811859419015102,
                -0.03610457035501931,
                0.40592448601834935,
                0.39321150893807333,
                -0.4737383385812103,
                0.050570296425125054
            ],
            [
                -0.5035503527224483,
                0.6200825021256237,
                0.04710205629951581,
                0.37632658599841606,
                -0.12225126544613611,
                0.016221264246701155,
                -0.08686331235310883,
                -0.19776717997661736,
                0.3710630776099368,
                -0.551413747576327,
                -0.3959325194859724,
                0.3802702155295213,
                0.3690889463710073,
                0.20759332613216036,
                0.2318944041588972
            ],
            [
                0.17330769122921558,
                -0.4626855203283097,
                -0.3234573361437838,
                -0.4194367485492473,
                0.025350197133974225,
                -0.10841159714423601,
                0.5237706935623027,
                0.35227178437068424,
                -0.4894078836904678,
                -0.6479158746316022,
                -0.347762424085092,
                -0.31087730537734254,
                0.003740771878263355,
                -0.4924783987350975,
                -0.27273591105252004
            ],
            [
                0.4320759192536098,
                -0.20098064980250543,
                -0.07343861988866396,
                -0.148513579268717,
                0.3658085611575181,
                0.09007936608719025,
                -0.5394472321327819,
                0.7467257728391937,
                -0.2519867168995306,
                -0.02162363762239127,
                0.21197511444248113,
                0.12167061330338519,
                0.40910218816827965,
                -0.5702514314289839,
                -0.3719345451971137
            ],
            [
                -0.22281226548726554,
                -0.08764076697324699,
                0.05587043662421367,
                -0.5155765509380367,
                0.5209073791049272,
                -0.56757329366142,
                0.8233276143534495,
                0.16306742967430324,
                0.5352273076314388,
                -0.19775215495654053,
                -0.33855713912656304,
                0.39471728758441127,
                -0.10111675897445947,
                0.5474346501970399,
                -0.5667037911350599
            ],
            [
                0.11491614905181916,
                -0.46092776425717985,
                -0.5612305582784592,
                0.1411766845424758,
                0.5710391587275081,
                -0.3810592827344269,
                -0.32163243081338966,
                -0.5607675209218826,
                0.3207723893271434,
                -0.596765156131903,
                0.04338887706270341,
                -0.2925840450366,
                -0.5001564972465622,
                0.6259361012490054,
                -0.12488509042134512
            ],
            [
                -0.1958044228494719,
                -0.5724326764099797,
                0.2784982194673456,
                -0.0012943909126782993,
                0.12511385599404973,
                -0.07710321464322048,
                -0.25727476386531933,
                -0.08275876967012365,
                -0.33785645854746194,
                -0.5368295473512356,
                -0.21893798200327838,
                0.5439036433215009,
                0.7914675169905883,
                0.29605875699696,
                -0.08667497400783135
            ]
        ],
        "l4": [
            [
                0.7303644251145228,
                -0.799648855867957,
                -0.1293728776498991,
                0.32322026582216906,
                0.18144949103749822,
                -0.040762771110682744,
                -0.552653120472217,
                0.1839611400230683,
                0.5297290649340786
            ],
            [
                0.5522275681357914,
                -0.5807785363896373,
                -0.18854995791249146,
                0.5179148555876198,
                0.27297250654873245,
                -0.7989606638966417,
                -0.4172658896174747,
                -0.6531212904411327,
                -0.43343194120546963
            ],
            [
                -0.7326756486075934,
                0.15751270905181347,
                -0.3435383456628754,
                -0.03994610080096791,
                -0.04152868672208417,
                -0.5800696824511826,
                0.8443837956069956,
                -0.5739159352534208,
                0.27415479821025657
            ],
            [
                1.066354368330061,
                0.6333321126998426,
                0.061988752722406545,
                -0.02555810282347354,
                0.25484957764894484,
                0.7368419247392912,
                0.49863717420260617,
                0.3553318271764696,
                0.8436593530934541
            ],
            [
                -0.3677763158865875,
                0.1023962435853547,
                -0.7312294642712215,
                0.17903153882863865,
                0.10078329099299643,
                0.04443678050201196,
                -0.30650971093425217,
                -0.31407681880957206,
                -0.8139688393024506
            ]
        ],
        "l5": [
            [
                -0.20357025605406753,
                -0.3181404475584128,
                1.257636854219306,
                -0.8481760940872621,
                -0.3772448766696643
            ],
            [
                0.6611596596711317,
                0.7253439056725954,
                -1.6233760400514778,
                0.6136273505556664,
                0.4833711163294902
            ]
        ]
    },
    "biases": {
        "l1": [
            [
                0.02458703701815771
            ],
            [
                0.0647274232951422
            ],
            [
                -0.05311992754130914
            ],
            [
                0.018429897160043927
            ],
            [
                -0.06008177211540611
            ],
            [
                0.09385474057391496
            ],
            [
                0.07955336453610534
            ],
            [
                -0.0506054880837329
            ],
            [
                0.09814497695866373
            ],
            [
                -0.09199919766425582
            ],
            [
                -0.09736635913547882
            ],
            [
                -0.10507465186577394
            ],
            [
                -0.03634433558495886
            ],
            [
                -0.007664604750254033
            ],
            [
                0.12948336408212616
            ],
            [
                -0.05414954916329539
            ],
            [
                -0.04954961932700705
            ],
            [
                0.02481323052019954
            ],
            [
                -0.018405714735186478
            ],
            [
                0.017983109077469365
            ],
            [
                -0.04944943178953872
            ],
            [
                0.023425985333781308
            ],
            [
                -0.1467683718924561
            ],
            [
                -0.07623481851023817
            ],
            [
                -0.06166671471634175
            ],
            [
                -0.14400446438551467
            ],
            [
                0.15154882385551557
            ],
            [
                -0.03523404597128513
            ]
        ],
        "l2": [
            [
                0.03558714349802552
            ],
            [
                -0.006135059363867688
            ],
            [
                0.0003744520534515583
            ],
            [
                -0.03782880264798643
            ],
            [
                0.15656407166560152
            ],
            [
                -0.06012844644566126
            ],
            [
                0.11222149731937733
            ],
            [
                -0.0432395168034603
            ],
            [
                -0.006570123550738089
            ],
            [
                -0.017152861792124698
            ],
            [
                -0.05283637955217321
            ],
            [
                -0.05797137079371981
            ],
            [
                -0.14555743519071535
            ],
            [
                0.12648740167611663
            ],
            [
                -0.0762071827708764
            ]
        ],
        "l3": [
            [
                0.042378436834733496
            ],
            [
                -0.02235684239365925
            ],
            [
                -0.15640907610583443
            ],
            [
                -0.11723468650993227
            ],
            [
                -0.053007664305890226
            ],
            [
                0.07830965385205264
            ],
            [
                0.18500671786237982
            ],
            [
                0.053092780840497227
            ],
            [
                0.11329044004771964
            ]
        ],
        "l4": [
            [
                0.0030712906093730546
            ],
            [
                -0.21661435587194164
            ],
            [
                1.6519938211321394
            ],
            [
                -0.4610051952605864
            ],
            [
                -0.08175573330318163
            ]
        ],
        "l5": [
            [
                1.888053720753823
            ],
            [
                -1.4351856352915329
            ]
        ]
    },
    "dataParameters": {
        "f2": {
            "mean": 13.991915789473683,
            "std": 3.4834327178698126,
            "median": 13.16
        },
        "f3": {
            "mean": 19.289894736842104,
            "std": 4.718596822657785,
            "median": 18.58
        },
        "f4": {
            "mean": 90.98494736842105,
            "std": 23.971202083137182,
            "median": 84.55
        },
        "f5": {
            "mean": 642.7768421052631,
            "std": 348.2106384899781,
            "median": 531.5
        },
        "f6": {
            "mean": 0.09568294736842106,
            "std": 0.014037750728225072,
            "median": 0.09492
        },
        "f7": {
            "mean": 0.1009157192982456,
            "std": 0.05137876432792629,
            "median": 0.08642
        },
        "f8": {
            "mean": 0.08604968666666667,
            "std": 0.08085942187644331,
            "median": 0.05774
        },
        "f9": {
            "mean": 0.046796901754385965,
            "std": 0.0381071972728291,
            "median": 0.0311
        },
        "f10": {
            "mean": 0.1801280701754386,
            "std": 0.0272938712254955,
            "median": 0.1779
        },
        "f11": {
            "mean": 0.06248515789473684,
            "std": 0.0068739724758119965,
            "median": 0.06127
        },
        "f12": {
            "mean": 0.39039087719298243,
            "std": 0.2601747474530455,
            "median": 0.3093
        },
        "f13": {
            "mean": 1.1908526315789472,
            "std": 0.557133892707365,
            "median": 1.059
        },
        "f14": {
            "mean": 2.770805964912281,
            "std": 1.8732729663367154,
            "median": 2.24
        },
        "f15": {
            "mean": 38.81188771929824,
            "std": 45.11429612905142,
            "median": 23.35
        },
        "f16": {
            "mean": 0.00685279298245614,
            "std": 0.002877305029912861,
            "median": 0.006351
        },
        "f17": {
            "mean": 0.025038929824561403,
            "std": 0.017570911344633594,
            "median": 0.01966
        },
        "f18": {
            "mean": 0.032184016491228075,
            "std": 0.035860904349109206,
            "median": 0.0247
        },
        "f19": {
            "mean": 0.011662157894736841,
            "std": 0.006519195036364886,
            "median": 0.01065
        },
        "f20": {
            "mean": 0.02054434736842105,
            "std": 0.007952263502425514,
            "median": 0.01878
        },
        "f21": {
            "mean": 0.003745238596491228,
            "std": 0.0026413997568080507,
            "median": 0.003009
        },
        "f22": {
            "mean": 16.085129824561406,
            "std": 4.9389635709955835,
            "median": 14.69
        },
        "f23": {
            "mean": 25.460596491228067,
            "std": 6.519651549974602,
            "median": 24.82
        },
        "f24": {
            "mean": 106.11473684210526,
            "std": 34.3938096658162,
            "median": 96.09
        },
        "f25": {
            "mean": 866.6350877192982,
            "std": 600.0040905644681,
            "median": 670.0
        },
        "f26": {
            "mean": 0.13074108771929824,
            "std": 0.02134487973060774,
            "median": 0.1309
        },
        "f27": {
            "mean": 0.24920592982456136,
            "std": 0.15792843099701256,
            "median": 0.2074
        },
        "f28": {
            "mean": 0.26707842807017546,
            "std": 0.21330919534868165,
            "median": 0.2216
        },
        "f29": {
            "mean": 0.1113530947368421,
            "std": 0.06592617882730019,
            "median": 0.09678
        },
        "f30": {
            "mean": 0.28863403508771934,
            "std": 0.05962729901847141,
            "median": 0.2815
        },
        "f31": {
            "mean": 0.08337943859649123,
            "std": 0.01749090626000815,
            "median": 0.079
        }
    },
    "targetColumnName": "f1",
    "targetClasses": [
        "B",
        "M"
    ]
}