{
    "network": {
        "input_layer": {
            "activation": "default",
            "neurons": 30
        },
        "hidden_layer_1": {
            "neurons": 20,
            "activation": "sigmoid"
        },
        "hidden_layer_2": {
            "neurons": 10,
            "activation": "sigmoid"
        },
        "hidden_layer_3": {
            "neurons": 8,
            "activation": "sigmoid"
        },
        "hidden_layer_4": {
            "neurons": 8,
            "activation": "sigmoid"
        },
        "output_layer": {
            "activation": "softmax",
            "neurons": 2
        }
    },
    "weights": {
        "l1": [
            [
                -1.1113078654512922,
                -1.2801042447978694,
                -1.6246474678214842,
                -1.490744884174258,
                -0.903761503006271,
                -0.9269907459071657,
                -1.2639848579170934,
                -1.3689246216403075,
                -0.1720179310919129,
                0.4542069577126042,
                -1.8062291970454065,
                -0.05409080759642538,
                -1.191555211611545,
                -1.3919264598987795,
                -0.2148905221054017,
                0.5958128098541992,
                -0.7704627449017807,
                -0.5605645045941869,
                0.16117217405990372,
                0.666994822053283,
                -1.9611909367168276,
                -1.6222225850088428,
                -1.5221807317937606,
                -1.9884813913991344,
                -1.7484787680132152,
                -0.28808701638089446,
                -1.9258894269004139,
                -1.9099403561134078,
                -1.6959428583096525,
                -0.11934286452345273
            ],
            [
                1.9883437770553005,
                2.1094407350315976,
                2.0009754931298653,
                1.4169387775075493,
                0.418570673690125,
                0.3638212211088041,
                1.7748581213037107,
                1.860380430209686,
                0.8009302078595202,
                -0.309515702286228,
                2.0778035642727763,
                -0.3256604708842608,
                1.5665172747960043,
                1.3048051824173414,
                -0.059187255370330934,
                -1.0923895675566169,
                0.22949943466823913,
                0.1467780988162717,
                -0.8108645899486346,
                -1.5307688217764284,
                2.309963287784818,
                2.5715835119858323,
                2.0492159021974112,
                1.8630049469605587,
                1.6946820673531409,
                0.9920970739557144,
                1.715758900654884,
                2.4570898858176844,
                1.5808785002892,
                0.005914755421617342
            ],
            [
                -1.4818578664812738,
                -1.504582672218642,
                -1.9490405971608131,
                -2.2320656162521164,
                -0.6640931272909323,
                -0.6998309205870178,
                -2.242039668350983,
                -2.190733392681658,
                -0.5153325552586031,
                0.2038714018151079,
                -1.554088592209392,
                -0.054769027051678444,
                -1.597724674071774,
                -1.472897571390835,
                0.20090812070926073,
                0.6568107549531095,
                -0.2294366184529652,
                -0.08780981546363789,
                -0.12292805663870743,
                0.7475897105636176,
                -2.2158257777562476,
                -2.086097817292021,
                -2.4181856636376016,
                -2.713240559979702,
                -1.5239277638930584,
                -0.8609565407941432,
                -1.8542102441179966,
                -2.7568953602940414,
                -1.2777798245492782,
                -0.6745625987344428
            ],
            [
                -1.1739095610638248,
                -1.1568772988608804,
                -0.96152024405296,
                -0.5621470970731233,
                -0.3108468440743798,
                -0.4058960368682263,
                -0.7561152648423194,
                -0.6464433001287357,
                -0.5914037111522383,
                -0.1684633170319581,
                -0.5935518687464694,
                0.009216994753512703,
                -0.8563112521231111,
                -0.4475333445391473,
                -0.011524610413879834,
                0.602120935590649,
                -0.38829716178113616,
                0.0634428468694018,
                -0.21631145368705929,
                0.18628922005364654,
                -0.7867998409744233,
                -1.340260812932674,
                -1.119255247694512,
                -1.298585564159561,
                -0.6997248829741868,
                -0.27369515502547004,
                -0.8725043844998795,
                -1.5161134856920941,
                -0.5929078752591136,
                -0.4395193326283496
            ],
            [
                1.423251642555583,
                2.03501663500877,
                1.7248763301548722,
                1.3561566192342251,
                0.5452504043852981,
                0.4862626620096748,
                1.3894897269425233,
                1.9348906746489578,
                -0.007058675326861455,
                -0.2739923814121062,
                1.476330560127975,
                -0.05872597988050054,
                1.63305506457071,
                1.4037168687342854,
                0.17377851596010724,
                -1.13472278049553,
                0.8215981497734223,
                -0.020618722603761755,
                -0.4799457327662315,
                -1.121408180805113,
                2.1922123044073127,
                2.4562663411682393,
                2.1643258430561705,
                2.2011803131495586,
                1.545450004376532,
                0.751677578056337,
                1.7199007604354646,
                1.8934285857566577,
                1.3521442018751448,
                0.3599437295763847
            ],
            [
                1.0434296818964086,
                1.0383436304553495,
                0.9549144078660786,
                0.9331679127524973,
                0.9106217353683029,
                0.5946199539189252,
                1.0796991171846853,
                0.9511750241879084,
                0.14146441421208863,
                0.07877424134867261,
                0.8094678312854664,
                -0.41998164635533725,
                1.2297925795988591,
                1.2718850430515065,
                -0.09845044249407482,
                -0.4945458673717914,
                0.577957766364757,
                -0.1601667229030724,
                -0.7373758620824918,
                -1.2594697095802592,
                0.9274406453615706,
                1.7527836492151128,
                0.7869580416274898,
                1.249749949530744,
                1.1280099469091152,
                0.09665314969261216,
                1.035976117842795,
                1.562074198137113,
                0.9036130992739352,
                -0.02984871956421571
            ],
            [
                -0.417787553012535,
                -0.9728248744630308,
                -0.8438564823537292,
                -0.5126969174494213,
                -0.12102364280266287,
                -0.5110703222871827,
                -0.6850977869663373,
                -0.6471945065699659,
                -0.10638912745071714,
                0.45043066206629706,
                -0.8068764387975572,
                -0.2495411951366653,
                -1.1310433204904633,
                -1.157936924613601,
                -0.0607358003563627,
                0.372338907059629,
                -0.4311105965826956,
                -0.44241942791642513,
                -0.23156584519096826,
                0.1354030375207468,
                -1.06048441291253,
                -0.8085600740429956,
                -0.7074015746965012,
                -0.992570394329615,
                -0.5818056206132628,
                -0.5889555732354919,
                -0.941148412008373,
                -1.3544137776603802,
                -0.2543235671029984,
                0.013423798170485291
            ],
            [
                0.23572483569929226,
                0.6460462631497983,
                -0.04738594401377654,
                0.6979035822798887,
                0.12217349276587605,
                0.375379243914109,
                0.20519559656506375,
                0.8871593332417083,
                -0.19655914857643617,
                -0.07861556051804411,
                0.13291377854306904,
                0.11649796735576909,
                0.31198824134401226,
                0.2914198293378816,
                0.022312150298071005,
                -0.31045555428600974,
                0.15125939178097597,
                0.4492279494045664,
                0.03555902581783866,
                -0.1636054627444828,
                0.7283935512665695,
                0.8878685882873228,
                0.7388512222167952,
                0.6705437502096862,
                -0.02293636578420121,
                0.31041510165417613,
                0.2333048104931384,
                0.9879662035759762,
                0.10083396381057802,
                0.08573822537945378
            ],
            [
                -0.7185367160431291,
                -0.11011083746830869,
                -0.7264130013002065,
                -0.5441786955026343,
                -0.12669938000163572,
                -0.5015209512474387,
                -0.2617518795478908,
                -0.84885724350313,
                -0.530308173793125,
                0.2035958122890657,
                -0.8114719204100492,
                -0.3365225133362184,
                -0.8726215243712477,
                -0.9120187591111526,
                0.0005828640319066998,
                0.20594871690672628,
                -0.448833491192109,
                -0.30091653908007,
                0.0693766960398397,
                0.07446635413963351,
                -0.18388394573731653,
                -0.875924151605045,
                -0.5805810414417412,
                -0.21513749098049395,
                -0.5014841195446735,
                -0.4279113607886907,
                -0.2916539237557305,
                -0.5211942860130085,
                -0.6022741253457211,
                -0.49647476699423926
            ],
            [
                1.0653512647910655,
                1.6748180268339814,
                1.3546497477641342,
                1.5526724478850016,
                1.0164736680029745,
                0.19359792915224733,
                1.3737419621291447,
                1.63057196271408,
                -0.09237844427850392,
                -0.04973232954050039,
                0.9131986600307282,
                -0.06087884986950843,
                0.8667875698370665,
                1.2643334723989714,
                0.00373674270778289,
                -0.665111799490293,
                0.03354713290146875,
                0.3468708656396616,
                0.07948482319592579,
                -0.7110012279513793,
                1.4478934882993102,
                1.5671471638023646,
                1.2835656388115164,
                1.7488289129426533,
                1.380966117715912,
                0.0991720354405921,
                1.3251535756953636,
                1.5032832505323321,
                1.4572131213693957,
                0.17662084798794342
            ],
            [
                1.8341175399812564,
                2.095609133355924,
                1.428950392698669,
                1.8649285351231126,
                0.7375800634459097,
                0.4921604077314332,
                1.3466098456041513,
                1.479190619427305,
                0.20303811768271263,
                -0.40282928318155475,
                1.4338857728904226,
                0.09192593201145696,
                1.106042482044141,
                1.903069112365935,
                -0.12303468539583472,
                -0.6922806703179931,
                0.7031959047183797,
                0.27018071412033245,
                -0.17098649442290695,
                -0.7538485549070977,
                1.7901211183882164,
                2.0188264498993904,
                1.9896161384028075,
                2.2621049954105077,
                1.1951141476031977,
                0.8322370770497198,
                1.7951022677784352,
                2.479889027137549,
                1.5482526142864457,
                0.713797159950142
            ],
            [
                -1.6841825353683788,
                -1.7432190893401172,
                -1.4407883193574924,
                -1.1740563759443041,
                -0.9073364172100546,
                -0.5031808002278869,
                -1.5271674577540562,
                -1.9954600226545207,
                -0.6893591806018511,
                0.4842555880911356,
                -1.1064254945097032,
                0.5686021293782673,
                -1.5096580329533875,
                -1.1278398985678806,
                0.28822413200195807,
                0.4402164759496226,
                -0.7615449295390084,
                -0.19793963332536033,
                0.3558336578504337,
                0.9796065977028157,
                -1.786438597613932,
                -1.7193869278996239,
                -1.508486596260359,
                -1.4521404710951558,
                -1.0829743364556932,
                -0.42881528417092707,
                -1.5685231992611017,
                -2.1495281329914864,
                -1.286016107921862,
                -0.06721663601481392
            ],
            [
                1.4534063155731498,
                1.3707987727625754,
                1.1622478705792112,
                1.4286321645294853,
                0.5541585982137129,
                0.4789064606005968,
                1.5123983539200059,
                1.335819321567372,
                0.02227757937875028,
                -0.656129764225125,
                1.5946587963701768,
                0.06065575442262652,
                0.8538362815213814,
                1.5841760031279886,
                0.08710449937979235,
                -1.2040816039814293,
                0.03264779173185278,
                0.05779041255493535,
                -0.46316671257142955,
                -0.6256518707979022,
                1.7882944158206087,
                1.7230338095035689,
                1.59401160964914,
                1.9163902115723759,
                1.1660903386185721,
                0.4317008644245265,
                1.330034697961227,
                1.892756143535123,
                1.037564972878324,
                0.504765515912232
            ],
            [
                0.1619534908857938,
                0.1746586495278419,
                0.5058372191705004,
                0.2709139372749373,
                -0.21168864234985613,
                0.1583218645526458,
                0.2666715172018866,
                0.6267277923735968,
                0.4348566593650131,
                0.3608782815875416,
                0.19457914336210666,
                0.15621092672343254,
                0.4821893554083081,
                0.017249238728057684,
                -0.014110341771429818,
                -0.540583733961721,
                0.37953724087462615,
                0.2612841879287898,
                -0.47623228090889436,
                -0.3374773305410457,
                -0.14687029109871957,
                0.7240477174282931,
                0.5421912824888456,
                -0.10714582479917145,
                0.28872155263160526,
                -0.30125581769285215,
                -0.06223152546365439,
                -0.16898055525719682,
                -0.24612437387132044,
                -0.07048413394061952
            ],
            [
                -1.3727062411825255,
                -1.279446857714391,
                -1.3401057180066323,
                -0.6651089283814376,
                -0.8227545770456536,
                0.06956240473138918,
                -1.266295553133009,
                -1.0819692971037331,
                0.06283274789135881,
                0.4676249395974475,
                -0.7635883483964446,
                -0.1614821895506128,
                -0.8622398406908789,
                -1.36176471145006,
                0.12152148335621601,
                0.30926048072196244,
                -0.5099436010900116,
                -0.37510012605812837,
                0.03426543407265168,
                0.5312945754281964,
                -1.4550662458027221,
                -1.766371794468349,
                -0.8563886942257172,
                -0.9657346756353904,
                -0.9920721335780287,
                -0.5724830366950482,
                -1.5482838787261834,
                -1.4994492973988272,
                -0.5743765639938531,
                -0.20754198330406926
            ],
            [
                1.4527563299963329,
                1.6947209214397618,
                0.7829099611681776,
                0.8841731424801781,
                0.24914110890356997,
                0.016719891182994173,
                1.0191920658048312,
                1.3479901988619023,
                0.640897403861164,
                -0.7529081157319406,
                1.3705247724552458,
                0.004308025419462578,
                1.3783337139039973,
                1.4272551815477723,
                -0.47419009713492793,
                -1.2955257921140992,
                -0.0647354957742071,
                -0.028644032796932575,
                -0.17567757785214871,
                -0.790412787562694,
                1.5305097282992195,
                2.294899405050472,
                1.8105288225347267,
                1.360693700089345,
                1.1926675559160123,
                0.45606642644350587,
                1.1320521796752983,
                1.6386273005201675,
                0.705416117062935,
                0.22221779656964716
            ],
            [
                0.565549911645063,
                0.5796710321753478,
                0.43706095600444367,
                0.2205134331104202,
                0.5809884476714241,
                -0.282195935964381,
                0.7527236805083742,
                0.043367652627345904,
                0.1494899769811711,
                0.31342952046549205,
                0.5114205291610431,
                -0.0008192643459469864,
                0.4976738087521274,
                0.11379386619320106,
                0.07844485179940382,
                0.2335103615082929,
                0.13559748986265296,
                0.30523116758477425,
                -0.10578045362173685,
                0.017612493535830703,
                0.42515237492112096,
                0.8830113859367105,
                -0.03382619651723396,
                0.03148673332948312,
                -0.03493411182313041,
                0.42710256527991697,
                0.6528045092047228,
                0.5908430826750394,
                -0.034613269210343904,
                0.3344874139029147
            ],
            [
                -0.9004089665077063,
                -1.2036401340754495,
                -0.7601633951812996,
                -1.044003306857273,
                -0.7633686953472981,
                -0.7574555015103276,
                -0.956439761293043,
                -1.216568269998678,
                -0.14760805810509278,
                -0.08850598320741208,
                -1.543333788259655,
                0.5100020594231767,
                -1.3895286372857623,
                -1.4221741011337026,
                0.4239730441626423,
                0.7831487990646937,
                -0.1387848022989303,
                -0.5869122360856528,
                0.657280046019084,
                0.30162297292258095,
                -1.3627201686518995,
                -1.502421520271804,
                -1.7949627528537424,
                -1.5598630144103303,
                -0.9176148259930166,
                -0.5949229435531014,
                -0.814846448583361,
                -1.8066500297125156,
                -0.5339126194706366,
                -0.015023380986916012
            ],
            [
                0.48876344327612015,
                0.273828466750298,
                0.4587793166894259,
                0.1615288346315285,
                -0.05870991623930171,
                -0.16319424213380815,
                0.39852542434430543,
                -0.016832852409021094,
                0.08542551443450558,
                -0.10411016222213156,
                0.5067839374713273,
                0.2695733064170349,
                0.6868986731945916,
                0.35659917576364575,
                0.3353546687256893,
                -0.8461474358724573,
                -0.27439031972502176,
                0.08386952743821086,
                -0.5980619871605093,
                -0.22826353523418982,
                0.7092567931667513,
                0.8973668004987845,
                0.8368613484158248,
                0.4761734183832413,
                0.818247614086646,
                0.40344595348234263,
                0.5402022317260918,
                0.8616574431760972,
                0.14924167897137436,
                0.43893705484855466
            ],
            [
                1.1527439297622024,
                1.1396501641567807,
                0.5294349398450761,
                0.9976746049919276,
                0.3880241755903673,
                0.18642641191867623,
                1.298806503296424,
                0.9303965272956273,
                0.34364955087823396,
                -0.12211250972245624,
                0.5925078395641795,
                -0.34832889832366487,
                0.39914930969265466,
                1.4265567613486156,
                0.024863882784368845,
                -0.5364198408617773,
                0.3135221962950908,
                -0.3621692048516738,
                0.10201518450959855,
                -0.700610166120692,
                1.5713529925994998,
                1.8860692678231283,
                0.6640394781318399,
                1.5349645403859367,
                1.0615824541116452,
                0.26468220023216105,
                1.389934789340195,
                1.1850631593228627,
                0.7297056073676725,
                0.6859582239296429
            ]
        ],
        "l2": [
            [
                0.42901938691826574,
                -0.5912679955150428,
                0.2690659159759651,
                0.5195986586931576,
                -0.05919441433552084,
                -0.4678440577543747,
                0.281934989911925,
                -0.3657070752229202,
                -0.39035071869597504,
                -0.14126194694319016,
                -0.6404165674408747,
                0.4887554942618398,
                -0.6473037642762277,
                0.15598802117523464,
                0.31416114956670466,
                -0.7112551355461667,
                0.24617845503809255,
                -0.15337671767607963,
                -0.5260323644372663,
                -0.08392869554330432
            ],
            [
                1.317077077978537,
                -1.6808191494736173,
                1.3752759514514694,
                0.5968017382967494,
                -1.4556294022512244,
                -1.0054739701550106,
                0.6044136506782615,
                -0.9534740779779519,
                0.6458321388100325,
                -0.858993876304157,
                -0.6435210168052427,
                1.2412769557834527,
                -1.6275449330690426,
                -0.504799851700813,
                0.9895447119685693,
                -1.2984572186962369,
                -0.31216943962471605,
                1.1182292149646984,
                -0.5198261983517241,
                -1.2619320168647952
            ],
            [
                1.1361589865822228,
                -1.5827180300432622,
                0.6919033521856762,
                0.6838334540807929,
                -1.3862355252739245,
                -0.7913699341702881,
                0.21476340510083172,
                -0.9023568669923476,
                0.684506863944747,
                -1.0818707551942446,
                -1.3078760267959297,
                0.949534678931211,
                -1.4129172739578968,
                -0.4825998610021885,
                0.6917780190385016,
                -0.9341527861380383,
                -0.6656796691715805,
                1.2362802963375408,
                -0.251485768283,
                -0.49692149808589675
            ],
            [
                0.31994267795576464,
                -0.47863698502289315,
                -0.40979628011002145,
                0.36233230922952697,
                0.31747809223845413,
                -0.3338710158081133,
                0.39890413803008595,
                -0.09801180652433847,
                -0.19219098809322993,
                -0.5557003609885568,
                -0.6116453929146745,
                -0.402241527261556,
                -0.5884514321199193,
                0.057373285394539925,
                -0.15751601185038092,
                -0.3577625913734153,
                0.15350391908126332,
                0.22287035007674916,
                0.1310313160314491,
                -0.6336543218804999
            ],
            [
                -0.7309617840120257,
                0.037040841965671305,
                -0.7961501398008409,
                -0.447675275475014,
                0.24081963243047952,
                0.8477409896340715,
                -0.3379243690313357,
                0.3588581759411379,
                -0.0365046188286944,
                -0.09353909447571625,
                0.6139344518224136,
                -0.5664751829970293,
                0.6188406448809092,
                0.0824042980000089,
                -0.9332172693835145,
                -0.1289903913816003,
                -0.0076847087120152716,
                -0.13642500240874755,
                0.3309082633127388,
                0.5719892627633469
            ],
            [
                0.34531477323744764,
                -0.03827319006199628,
                -0.4789379866508171,
                0.38827642588893974,
                -0.1355533591594098,
                -0.33142628263800233,
                -0.27637611291822817,
                0.32221103867415557,
                -0.370010116806966,
                0.38843285913954734,
                -0.5268644944713559,
                -0.19912250663809564,
                0.06750407693323333,
                0.3236511013432711,
                0.5031664309724208,
                0.47366675133150876,
                -0.31217449300587796,
                -0.4698883876165534,
                -0.07792229858084278,
                -0.06084452729826006
            ],
            [
                -1.011907424606849,
                0.7559250173089707,
                -1.235097514493073,
                -0.5876966860981965,
                0.6664243199464495,
                0.7722966933653832,
                -0.26821996605154796,
                -0.027911612812037207,
                -0.31779732748229444,
                1.0434774423926545,
                0.990957592351974,
                -1.1157353521344155,
                0.30187998416187645,
                0.382692379907336,
                -0.4965892591966456,
                1.0090350528486416,
                -0.019668911027316754,
                -0.9094101712751821,
                0.9749366336141341,
                0.9649412843814704
            ],
            [
                -0.16400714426146418,
                1.0887335458823466,
                -0.4345990308252216,
                -1.0992759061775983,
                0.7660449580320247,
                0.2775173009385374,
                -0.6746579999474135,
                -0.2105718837802356,
                -1.0956464980675726,
                0.5925530586966973,
                0.49751023592234583,
                -0.7530180991691671,
                0.5053388218589718,
                0.4109872971026214,
                -0.6212363743599624,
                1.042026233254061,
                -0.04847405861941819,
                -0.5003693700998015,
                0.6679117015047562,
                0.6082269783816286
            ],
            [
                0.10697169540813993,
                0.5026319761926431,
                -0.8932434998684351,
                -0.21458583635015083,
                0.831272047105143,
                0.6954643034143374,
                -0.4462341951850563,
                -0.1829490756294467,
                0.12370982660860316,
                0.6348399986513817,
                0.6694556728342769,
                -0.30384202573123376,
                0.3457253826645743,
                -4.7994768471270005e-05,
                -0.6514022042595027,
                0.44134177531592295,
                0.5954827940352998,
                -0.3681999935948662,
                0.587974787567627,
                0.4316498102273745
            ],
            [
                1.1769405587897748,
                -0.9062275928587222,
                1.204459797193612,
                0.48598907175956285,
                -1.4861990431729089,
                -1.2775041774884361,
                0.9587984712820208,
                -0.22082977215171398,
                0.022409554200609614,
                -1.3822001157714423,
                -1.252041723333239,
                0.46998568171271804,
                -0.6322095210037755,
                0.0020789155116495038,
                0.5676879250432403,
                -1.2809134247093878,
                -0.6984967297379319,
                0.8192607007108882,
                -0.7901123855479124,
                -0.9843455367199997
            ]
        ],
        "l3": [
            [
                0.7292074216998309,
                1.0820153483979922,
                1.0096916028994016,
                0.8334339444752938,
                -0.8439516518902525,
                -0.42164965944378774,
                -1.227741462542272,
                0.10015718349029817,
                -0.30447397761311296,
                0.29821690950560314
            ],
            [
                -0.8725486752793989,
                -1.7791870113039265,
                -1.2549088593327562,
                -0.19928184241921798,
                1.0332771350250702,
                -0.15537261883676162,
                1.479745568753565,
                1.606813923522145,
                0.8628950568859782,
                -1.3303133670651952
            ],
            [
                -0.6616627366074781,
                -0.32137146231833047,
                0.6756000509649125,
                -0.3744496203144594,
                -0.26958351922624685,
                -0.101842119683927,
                -0.03722353073831868,
                -0.5857120817654111,
                0.1797424431922116,
                -0.4208763200151904
            ],
            [
                0.39616982951093577,
                0.5600435035399163,
                -0.2670419624328064,
                -0.3544029864596489,
                0.5185381823173878,
                0.37373921362639284,
                -0.3944853604260293,
                -0.49031132730468446,
                -0.02030869437236295,
                0.6942973135008316
            ],
            [
                -0.11285712682288164,
                -0.4251723745275855,
                -0.7801634404654102,
                -0.8122412313039018,
                0.849559079264361,
                -0.41341367245167804,
                0.5025430019131619,
                0.5117047858601216,
                0.535643021848574,
                -0.9394130136486433
            ],
            [
                0.17335434908965958,
                0.7063345128217585,
                0.5641486216013949,
                0.06942714365638539,
                0.7002952133093882,
                0.36636785739740735,
                -0.012452864186872338,
                0.6467060563943268,
                -0.3727369270177997,
                0.5367534552495838
            ],
            [
                -0.21856601713497545,
                -1.7543138677672616,
                -1.516717624914858,
                0.36126851176275465,
                0.8422754690602737,
                -0.023801630813831045,
                1.3310044436153954,
                1.559746405388816,
                0.9115966878081254,
                -1.5352203131477795
            ],
            [
                -0.4804936520325735,
                -1.1166060581937152,
                -0.08710311530844717,
                -0.5332934290383523,
                0.15166849596678741,
                0.40968927122627463,
                0.2581205699672701,
                1.0360578944946193,
                0.043091691814581494,
                -0.341135215347631
            ]
        ],
        "l4": [
            [
                -0.13456959475958918,
                0.5648574858467668,
                -0.16952158520831964,
                0.8207078396818217,
                -0.14543928619229585,
                -0.6677449243731858,
                -0.3277644899073558,
                0.2933117084733954
            ],
            [
                -1.2597748845502086,
                1.284976142833572,
                0.10999094094577086,
                0.08145597866225446,
                0.9119460829219183,
                -0.16366335812679247,
                1.164770366271226,
                0.776866639212658
            ],
            [
                0.5115088836176523,
                -1.662676771743234,
                -0.5532044284145818,
                -0.16015712990172,
                -1.4518796053671823,
                0.281796421267816,
                -1.8813372676910403,
                -1.0189370966112201
            ],
            [
                0.3367279471697417,
                0.11651179493957319,
                -0.19688649267241126,
                -0.45308874470724175,
                -0.7559770781591328,
                0.7033960628348433,
                0.4344453310901979,
                -0.3156020439879103
            ],
            [
                0.9854601442318754,
                -1.3193718847974865,
                -0.03733992352677284,
                -0.0581743690090833,
                0.002657187698149436,
                0.6126991036224103,
                -1.238939180446647,
                -0.18025714364398596
            ],
            [
                -0.3754725631726293,
                1.0412259827171377,
                0.15798658240658606,
                -0.901692108394093,
                0.5597063915503157,
                0.06250781078454806,
                1.0314034265754561,
                0.09529638412922067
            ],
            [
                1.1619226254526749,
                -1.8266885019286094,
                0.6949809864746714,
                0.6149406284319225,
                -0.6222182720489605,
                -0.23782769367813933,
                -1.5174142888248108,
                -1.0185189858619592
            ],
            [
                0.35842437542774286,
                -1.1865238953722257,
                0.35966512197227607,
                -0.10803947508409838,
                -0.8151867502535008,
                -0.5662745733773863,
                -0.8756786778348685,
                -0.06559256633838376
            ]
        ],
        "l5": [
            [
                0.5941051311579522,
                -1.2167131031593206,
                1.193578543279551,
                0.21687132926400277,
                1.2853205817445157,
                -0.3582252234093158,
                1.6350797084755604,
                0.7466241123453049
            ],
            [
                0.8514470617016875,
                1.10627575566632,
                -1.2354022905716944,
                0.20466508584420906,
                -1.04443313245244,
                1.4444185963228962,
                -1.36725070791378,
                -0.5971538370493157
            ]
        ]
    },
    "biases": {
        "l1": [
            [
                -0.0426935427451625
            ],
            [
                -0.3620094987992466
            ],
            [
                0.016979530299797988
            ],
            [
                0.03961008941546564
            ],
            [
                -0.350807648255728
            ],
            [
                -0.2516403416173879
            ],
            [
                0.0349056481496609
            ],
            [
                -0.005808849615070023
            ],
            [
                0.04572147323320999
            ],
            [
                -0.26503136971105934
            ],
            [
                -0.31213245815207596
            ],
            [
                0.027704561730342827
            ],
            [
                -0.2367656489344476
            ],
            [
                -0.04764167239497059
            ],
            [
                0.026690486041269182
            ],
            [
                -0.2884657644714998
            ],
            [
                -0.03931116744177879
            ],
            [
                -0.015001998404493866
            ],
            [
                -0.17088422344468301
            ],
            [
                -0.239212407262072
            ]
        ],
        "l2": [
            [
                -0.00924865041821446
            ],
            [
                -0.03693171823225956
            ],
            [
                -0.0043144525518873066
            ],
            [
                -0.03309308484607356
            ],
            [
                -0.12871721253937457
            ],
            [
                0.02599075561473521
            ],
            [
                -0.2493948173259446
            ],
            [
                -0.28940667934085795
            ],
            [
                -0.14048224622194924
            ],
            [
                0.048619384856596816
            ]
        ],
        "l3": [
            [
                -0.11414414867765972
            ],
            [
                -0.21305808367533274
            ],
            [
                -0.019987879261435564
            ],
            [
                -0.00785905352457189
            ],
            [
                -0.06973884617375677
            ],
            [
                -0.011128570613613031
            ],
            [
                -0.1977811105314461
            ],
            [
                -0.032727373283856054
            ]
        ],
        "l4": [
            [
                -0.002938712031129502
            ],
            [
                -0.08352089029994265
            ],
            [
                -0.06857186817322317
            ],
            [
                -0.0007767722780809146
            ],
            [
                -0.10595514081982384
            ],
            [
                -0.04747133135773528
            ],
            [
                -0.13155223443145017
            ],
            [
                -0.030145039517670086
            ]
        ],
        "l5": [
            [
                -0.11161333857192844
            ],
            [
                0.11361333857192851
            ]
        ]
    },
    "dataParameters": {
        "f2": {
            "mean": 14.176922807017545,
            "std": 3.5104059355078054,
            "median": 13.43
        },
        "f3": {
            "mean": 19.342877192982453,
            "std": 4.219883284173678,
            "median": 18.95
        },
        "f4": {
            "mean": 92.3280701754386,
            "std": 24.29010682505375,
            "median": 86.91
        },
        "f5": {
            "mean": 658.3712280701754,
            "std": 351.0804784351805,
            "median": 556.7
        },
        "f6": {
            "mean": 0.09759687719298248,
            "std": 0.014732575661990464,
            "median": 0.09676
        },
        "f7": {
            "mean": 0.10478175438596492,
            "std": 0.05511627664435112,
            "median": 0.08963
        },
        "f8": {
            "mean": 0.08863638140350877,
            "std": 0.08169820337791392,
            "median": 0.05929
        },
        "f9": {
            "mean": 0.04956600701754386,
            "std": 0.03988986274193449,
            "median": 0.03483
        },
        "f10": {
            "mean": 0.1821140350877193,
            "std": 0.02850372127050028,
            "median": 0.1794
        },
        "f11": {
            "mean": 0.06270614035087721,
            "std": 0.007134492528708969,
            "median": 0.06125
        },
        "f12": {
            "mean": 0.4102442105263158,
            "std": 0.2775371921716927,
            "median": 0.335
        },
        "f13": {
            "mean": 1.2309080701754387,
            "std": 0.596638449900299,
            "median": 1.081
        },
        "f14": {
            "mean": 2.8949035087719293,
            "std": 2.042133415321722,
            "median": 2.344
        },
        "f15": {
            "mean": 40.819087719298246,
            "std": 45.58153423087983,
            "median": 25.22
        },
        "f16": {
            "mean": 0.007211845614035087,
            "std": 0.0032544520412439793,
            "median": 0.006458
        },
        "f17": {
            "mean": 0.025016877192982456,
            "std": 0.018153128371287488,
            "median": 0.01966
        },
        "f18": {
            "mean": 0.030286588070175438,
            "std": 0.023240313620988412,
            "median": 0.02526
        },
        "f19": {
            "mean": 0.011495726315789474,
            "std": 0.005853151260505262,
            "median": 0.01075
        },
        "f20": {
            "mean": 0.0208244947368421,
            "std": 0.008876624597832922,
            "median": 0.01857
        },
        "f21": {
            "mean": 0.003688814736842105,
            "std": 0.002332712683462084,
            "median": 0.003121
        },
        "f22": {
            "mean": 16.27481052631579,
            "std": 4.68894649109666,
            "median": 14.99
        },
        "f23": {
            "mean": 25.708736842105264,
            "std": 6.172942819004665,
            "median": 25.5
        },
        "f24": {
            "mean": 107.46540350877193,
            "std": 32.99887168784888,
            "median": 98.0
        },
        "f25": {
            "mean": 876.0856140350877,
            "std": 549.3840105928931,
            "median": 697.7
        },
        "f26": {
            "mean": 0.1340239298245614,
            "std": 0.023977894661321376,
            "median": 0.1324
        },
        "f27": {
            "mean": 0.25341417543859646,
            "std": 0.16430998748427253,
            "median": 0.2074
        },
        "f28": {
            "mean": 0.2706077228070175,
            "std": 0.21122669458920515,
            "median": 0.231
        },
        "f29": {
            "mean": 0.11441628070175437,
            "std": 0.06623174041903937,
            "median": 0.101
        },
        "f30": {
            "mean": 0.2904852631578947,
            "std": 0.06494230478720993,
            "median": 0.2807
        },
        "f31": {
            "mean": 0.0835881754385965,
            "std": 0.018369119050390598,
            "median": 0.07953
        }
    },
    "targetColumnName": "f1",
    "targetClasses": [
        "B",
        "M"
    ]
}