{
    "network": {
        "input_layer": {
            "activation": "default",
            "neurons": 30
        },
        "hidden_layer_1": {
            "neurons": 30,
            "activation": "sigmoid"
        },
        "hidden_layer_2": {
            "neurons": 20,
            "activation": "sigmoid"
        },
        "hidden_layer_3": {
            "neurons": 10,
            "activation": "sigmoid"
        },
        "hidden_layer_4": {
            "neurons": 10,
            "activation": "sigmoid"
        },
        "output_layer": {
            "activation": "softmax",
            "neurons": 2
        }
    },
    "weights": {
        "l1": [
            [
                -0.2173483719024107,
                0.4602601574493069,
                0.34840708634042905,
                0.23562336376992568,
                -0.3762349021801486,
                0.4017239629399415,
                0.15993915476717901,
                0.1163603155666938,
                0.34327063375401623,
                -0.39080280240059034,
                -0.08659977102503699,
                -0.036505976419501186,
                -0.27148139329130283,
                -0.263906991043968,
                -0.21220660558460328,
                -0.21156107859343007,
                0.295482774620294,
                -0.0417350458097655,
                0.2214466577242571,
                0.3583244990281743,
                0.12050950932103471,
                -0.3022827248803291,
                0.33915427289294175,
                -0.22402895620065824,
                0.37936898872598873,
                0.4608280496141665,
                -0.08047541653110457,
                -0.08018335767132526,
                0.4159901008756037,
                0.2406057867412341
            ],
            [
                0.6284768891260866,
                0.38049491015215103,
                0.19101135222322235,
                0.2060251704126166,
                0.43676310082694125,
                0.484188178082377,
                0.4645890582164256,
                0.0434909330560763,
                -0.25833352454455405,
                0.14187157305007064,
                0.3392079841949283,
                0.317190751054889,
                0.505507857126515,
                -0.06862983721827488,
                -0.01348183016502188,
                0.011156307183031289,
                -0.20362722384220494,
                0.009548284226314601,
                0.0503973584417463,
                0.055284365315673954,
                0.010230346571740984,
                0.7875603541106883,
                0.7676403078308126,
                0.4364902719185858,
                0.33016984501003943,
                0.055806640839745125,
                0.4664010514560448,
                0.767787873388463,
                0.4992531311173218,
                -0.16491874952507973
            ],
            [
                -0.7184878499720838,
                -0.8278347591383901,
                -0.9573319062203428,
                -0.38966947298107785,
                -0.24059222035717415,
                -0.560435715175836,
                -0.6570453578956569,
                -0.8934161172020191,
                0.11937625553368271,
                0.7835670561097376,
                -1.3770113734410776,
                -0.09738537323356088,
                -0.8951070688987509,
                -0.796195100642019,
                0.3367759590178776,
                0.5909597823317275,
                -0.04957505197827289,
                -0.3746936910092233,
                0.28667245929158824,
                0.34894267638711324,
                -0.6096961037431942,
                -1.231457361352999,
                -1.0928622013983211,
                -1.2234614688219103,
                -0.6163008873323151,
                -0.5720255400940131,
                -1.1792935772655504,
                -1.05685001624841,
                -0.8470446329480674,
                0.11657514083568973
            ],
            [
                -0.7406658241918868,
                -0.20138033284808515,
                -0.9555251779117111,
                -0.5913877538323388,
                -0.24522663743023018,
                0.1986106505317089,
                -1.0103359052050402,
                -0.522525796550396,
                0.10485404123402829,
                0.500486325313681,
                -0.8917987675826266,
                0.3309529558973253,
                -1.002594551026981,
                -0.6726235707669795,
                0.2569746591440966,
                0.7505529264365749,
                0.1431994707231563,
                -0.539444295279323,
                -0.023037411449168158,
                0.3030009342142318,
                -0.437885246122536,
                -0.747488286287929,
                -0.4464236945523551,
                -0.9603250851861289,
                -0.8751927008176561,
                0.1941799358007193,
                -0.9724599695197724,
                -0.3666723917667184,
                -0.5156752294027378,
                0.12045545420001169
            ],
            [
                -1.1473307757352618,
                -0.5868966183040183,
                -0.5432979570559435,
                -0.32643315054877675,
                -0.29753010333286356,
                -0.6896498361931505,
                -1.105704969345402,
                -0.8810471259897418,
                0.11081568063580699,
                0.2381544972003071,
                -0.4253881136760221,
                0.44524516373517525,
                -0.7272047443330847,
                -1.1340494462135684,
                -0.12474127333683199,
                0.08203616842853723,
                0.11771104199219377,
                -0.06738890040327214,
                0.3813799773759573,
                0.8362031961401131,
                -0.7730336178563193,
                -0.8367813459865031,
                -1.1368742921534072,
                -1.0766812431399746,
                -0.845496174970108,
                -0.4835529517034201,
                -0.9864653570468653,
                -1.1076708466535519,
                -0.731343605192087,
                -0.45143942346954896
            ],
            [
                -0.6552929310623659,
                -0.33151661274681493,
                -0.46860187394790676,
                0.11192955146514587,
                -0.1630858017629988,
                0.33317184517457665,
                -0.44146766634176765,
                -0.3303266430310779,
                -0.3997092810443824,
                -0.015839125753615686,
                -0.15471271122417737,
                0.42281688585691657,
                -0.04502202678632284,
                -0.6107040437759957,
                -0.06232891844102961,
                -0.08594746217867562,
                -0.28493850961388223,
                -0.4037856603247818,
                0.4211131129589991,
                0.12031902693132324,
                -0.644725354868442,
                0.05366236563506902,
                0.06074929677418526,
                -0.7707740964688934,
                0.0889908188627104,
                -0.25373638447075236,
                -0.16132390897226231,
                -0.017806200538826044,
                -0.6267526493100871,
                -0.010491949259900634
            ],
            [
                0.29357876902482816,
                0.5025801392405519,
                0.28779468221971594,
                0.364542493853713,
                0.3940316246979652,
                -0.3064370694737945,
                0.4858505272656893,
                -0.05279038134823911,
                0.08856522527135491,
                -0.4788083513179373,
                -0.010757327416281721,
                -0.16841773384650852,
                0.5788283579199066,
                0.304499701028027,
                -0.13334798852561092,
                0.10128709747053574,
                0.4295026761135165,
                0.28361044079629744,
                0.037458334431757584,
                -0.06617319214063844,
                0.26141100919847154,
                0.25763273441618184,
                0.4819611514544846,
                0.06640568980757804,
                0.6220942689509159,
                -0.10793597017793707,
                0.4004962674168587,
                0.6805917744407654,
                -0.07153833655331268,
                -0.14686904974106177
            ],
            [
                0.6704391419667295,
                1.140294987774764,
                0.7764626357188056,
                0.954588757529263,
                0.6478926372234236,
                0.5231883467342306,
                0.9345942699580823,
                1.0350419892121054,
                -0.015354325271400602,
                0.029723532450705244,
                0.5349455008267164,
                -0.12830397474964986,
                0.883063286067451,
                0.9529523417567556,
                -0.23606185997635418,
                -0.7314041728756232,
                0.3323123177107332,
                0.14737481076333525,
                -0.3750754123542647,
                -0.5307179070391724,
                0.5759078799319284,
                1.3107978432166552,
                0.8593312798424593,
                0.6548498682334017,
                0.906795384198299,
                -0.017078207570325382,
                0.9317160642103097,
                0.7221694608546843,
                0.14688177897081428,
                0.08524460087755248
            ],
            [
                -0.09975356364365433,
                -0.37847898372570987,
                -0.10257400454713413,
                -0.4759703709417227,
                0.24762210791217704,
                0.26200198784392154,
                -0.16367653447919994,
                -0.21071950761940378,
                -0.37445727047556704,
                0.377880892129026,
                -0.6661861912010507,
                -0.08917588576061489,
                -0.736766578416945,
                -0.4953132404842683,
                -0.22014567438250135,
                0.4331415473353163,
                0.12338368741901984,
                -0.2587915379847013,
                0.3985082209521406,
                0.5620043181786728,
                -0.719270688914211,
                -0.8289465364130494,
                -0.5622482163466311,
                -0.21816769867542604,
                0.13135130532427383,
                -0.05388759642671694,
                0.010360962473100446,
                -0.5293047138405802,
                -0.38506666335809175,
                0.0801121979509717
            ],
            [
                0.21327911853976608,
                0.46000484645312567,
                0.35766694816022143,
                0.04487870501725948,
                -0.01202842380532015,
                0.45827362404552446,
                0.2589607528147221,
                0.4286053170784548,
                -0.2993010383765929,
                -0.10959267929192053,
                0.6188650032848376,
                0.038037252331382686,
                0.034865611538267706,
                0.280712296987383,
                -0.21966144115944558,
                -0.5922523412828341,
                0.4381501772370325,
                0.542925266205008,
                0.02014101564316512,
                -0.5903724527814053,
                0.35530274287687114,
                0.49628197657663964,
                0.465459966805305,
                0.04538975852172248,
                0.5847101275327163,
                0.195584427191929,
                0.16081126202308427,
                0.11260935390774925,
                0.27912426209303437,
                0.3515425727077556
            ],
            [
                -0.2547928894234126,
                -0.06060601270827598,
                0.1554504470578759,
                0.39685816528833606,
                -0.03491907166637202,
                -0.2810570764357269,
                -0.1539920109906535,
                -0.06816998929850164,
                -0.12904459908775895,
                0.3306684898718731,
                -0.016678767868886887,
                0.37476935848957343,
                0.3377280186316264,
                0.43918328324403405,
                -0.361044393514403,
                0.12554566009798115,
                0.38270402697980604,
                -0.26481398424018526,
                -0.18351465719675178,
                -0.3712586615986516,
                -0.24071607414546708,
                -0.07613168851393229,
                0.19627288341126578,
                0.252286871108802,
                -0.22707533476469055,
                0.22813642578310792,
                -0.12448758442337209,
                0.3381111187365762,
                0.073000089125608,
                0.09372110435708053
            ],
            [
                0.14360898083864368,
                0.8603527570315639,
                0.7664957415676485,
                0.6555017103043953,
                0.03336831839199737,
                -0.3854513485884647,
                0.34581237807144416,
                0.47159370170382797,
                0.09612067539404096,
                -0.17169276271116848,
                0.853858655736684,
                -0.18722207384175213,
                -0.09807768817786905,
                0.27869594713431484,
                -0.5117323426370404,
                -0.41108964056848746,
                0.21915882920290353,
                0.19365216146753092,
                -0.47881935911785267,
                0.023855815228753244,
                0.07568899363790191,
                0.900056911591023,
                0.7356265054038583,
                0.6562621133698716,
                -0.01628040306452606,
                0.09834671645133532,
                0.6640101433641683,
                0.37894950851604087,
                0.44108934293415064,
                -0.22521509288013955
            ],
            [
                -0.15548045624565826,
                -0.49087166636867774,
                -0.6143193359150191,
                -0.4255126413959872,
                -0.2315535748977988,
                0.23509633551977083,
                -0.47993665083577086,
                -0.672238113268145,
                0.2398580770863885,
                0.18019616417437795,
                -0.533059932498721,
                0.16631255491023397,
                -0.4063280107132315,
                -0.5620369733026892,
                -0.20037764086770665,
                0.6780251139722354,
                0.21003921437536185,
                0.0941432453018963,
                0.5101870992229263,
                0.08897110263053361,
                -0.6457800557757799,
                -0.6309966368763352,
                -0.17233613842129275,
                -0.10019263241182647,
                -0.021284418592403157,
                0.03716372107490465,
                -0.1667738728353171,
                -0.18817786913447707,
                -0.6269923589201475,
                0.019194090400099773
            ],
            [
                -0.2941919089780127,
                0.0870608584074948,
                -0.23236033800542258,
                -0.547799402947508,
                0.1704528896520641,
                -0.26304694832855835,
                -0.35445912143517416,
                0.03828640244930642,
                0.414299981219698,
                0.40600810856400554,
                -0.10030699823540164,
                -0.05101626311803907,
                -0.003995144988714563,
                -0.23146330146946212,
                0.31292511446518656,
                0.05420172997093668,
                -0.313995624023153,
                -0.08042136020855019,
                0.4703841922946556,
                0.6388919151084523,
                -0.1392499042867437,
                -0.46958350688410516,
                -0.21961942778332708,
                -0.26245029523189267,
                -0.013885406680486542,
                -0.4803664815804033,
                -0.1558562508327992,
                -0.34722139475317043,
                -0.6019697719588986,
                -0.2538210653804199
            ],
            [
                -0.20264611163446442,
                -0.5751787323858287,
                -0.5467376114838167,
                -0.7458633327695062,
                -0.3253662880595576,
                -0.1734499068777233,
                -0.6029149741332677,
                -0.790279397085931,
                -0.17417344357824968,
                0.1565420157673645,
                -0.5934524669885296,
                -0.1893251208299978,
                0.10661978564687062,
                -0.5075265624462092,
                0.3495885758453798,
                -0.0967940699362001,
                -0.2487325885101305,
                -0.1301386470852442,
                -0.003983057510510376,
                -0.10689234657087379,
                -0.43573554854190455,
                -0.8869047154490785,
                -0.7657299858847809,
                -0.08976603154151308,
                -0.39210386863816193,
                -0.26193570795731075,
                -0.04853697500203563,
                -0.8929437297236197,
                -0.08522093046896219,
                0.0275145180236203
            ],
            [
                -0.8673452770048813,
                -0.7134754430536562,
                -0.43968215877089595,
                -0.552978490998686,
                -0.560608202414176,
                -0.3971596138989945,
                -0.7669519775758695,
                -0.7132678697417814,
                -0.40227583832118136,
                0.38456855217725494,
                -0.931986107413678,
                0.2140118955610038,
                -0.2139369206477112,
                -0.8138529796308716,
                -0.26424034694386794,
                0.8034061724808059,
                -0.5073117528330904,
                -0.21107083912678926,
                0.24287106513037854,
                0.445260986723883,
                -1.2650265623485728,
                -1.1814160312865076,
                -0.9327333153701483,
                -1.2639131416307179,
                -1.0877538811637133,
                0.18839578530432835,
                -0.8355428831375717,
                -0.7844720866762047,
                -0.8477458790374749,
                -0.349938868141987
            ],
            [
                0.10434720923685739,
                -0.2324462546373726,
                -0.016700916604477548,
                -0.018611574910563946,
                -0.055001016343509145,
                -0.31892573292808446,
                0.054631731148151834,
                0.2665434668837506,
                0.23054156605245188,
                -0.1969603697822072,
                -0.13483183973147042,
                0.07736611858970507,
                0.4502856056078578,
                0.37143738322076936,
                0.23750200998153925,
                -0.41640858100176187,
                0.0462852874206539,
                -0.08215301478332639,
                0.3062009562946039,
                -0.22563409960968228,
                0.579196332538816,
                0.5872720754886873,
                0.5271334704424241,
                0.3091581100062848,
                0.20031327628914514,
                0.23263062520534566,
                0.16794852696291024,
                -0.07837015159352499,
                0.5236693929135293,
                0.2471398206184227
            ],
            [
                0.29218316795056926,
                0.48158412548321,
                0.7814781604213243,
                0.5161017874851547,
                -0.16814784975288044,
                0.4840143347635506,
                0.6622840931343237,
                0.6248688653857074,
                0.36025707318388706,
                -0.018083990519270177,
                0.8008502438813743,
                0.15775061057251757,
                0.15951584084863332,
                0.11663449276581733,
                0.2860253612711587,
                -0.18770469350887434,
                -0.1206675021035504,
                0.4251157072042539,
                -0.6276054286110403,
                -0.08422770239662378,
                0.618382734318051,
                0.39068244311740774,
                0.2778707631904953,
                0.550144146615911,
                0.03309412289547694,
                -0.26071888824145983,
                0.2926818255212751,
                0.9766565731842898,
                0.0959062671769902,
                -0.029375052925769873
            ],
            [
                0.2643107342323305,
                -0.006174463033383813,
                -0.05502790846063258,
                0.05781212270780535,
                0.3199579545054014,
                0.4636541274662924,
                0.5861246465892687,
                0.29778175110751565,
                -0.12212293484648006,
                0.05847067866653877,
                0.3433571115701536,
                -0.097523243424831,
                0.4873235910455221,
                0.34458225369984113,
                -0.09232400102369913,
                -0.6305037442706299,
                0.17998064254163187,
                0.6448503217702176,
                -0.0747696615646837,
                -0.8196425613874431,
                0.9372921607295613,
                0.7924152539277289,
                0.6184017525008314,
                0.5904574342198743,
                0.8189223645385438,
                0.17143069416309611,
                0.5428478987390131,
                0.9352826567954988,
                0.14426531810142573,
                -0.11868937158637893
            ],
            [
                -0.20111608089746932,
                0.0642070617567831,
                -0.5453681535624368,
                -0.28323742097797316,
                0.2546045688807651,
                -0.4809200168948403,
                0.09770475095708446,
                -0.7519212494528631,
                -0.15626601627535555,
                0.05832357232878188,
                -0.4520778346383325,
                0.24250869484318088,
                -0.2685497257223017,
                -0.5772632196871393,
                0.016793364682690264,
                0.05041569055040322,
                -0.05128989167090782,
                0.1996758808598017,
                0.21139068732282815,
                0.4110182778177286,
                -0.29084503750854024,
                -0.1667967838298906,
                -0.06780866014133761,
                -0.7332523176852882,
                -0.5909248114884008,
                0.16358423986296283,
                -0.27952318759732614,
                -0.34716775215595713,
                -0.29534493512003873,
                -0.04880970734243882
            ],
            [
                0.02501714759724725,
                0.29944179980715985,
                0.21948943692655098,
                -0.373900121423538,
                -0.12607989420296276,
                0.08746759611625483,
                -0.32106655509278814,
                0.40483600984619245,
                -0.07914901437926032,
                -0.37065664386947567,
                -0.17990437228626818,
                -0.45453608487903846,
                0.35110444750763903,
                -0.335048993118885,
                -0.11336696965267429,
                -0.12538957887112837,
                -0.27793348093587705,
                -0.3750580885436408,
                0.4094649036340136,
                -0.4690413574878142,
                -0.31626628681760743,
                0.26240778934943215,
                0.2509555500295288,
                0.394268086442552,
                0.2645651934734389,
                -0.2566337909797608,
                0.4440063420746388,
                -0.03462707962101468,
                0.25466679229463124,
                -0.39419857297461036
            ],
            [
                0.09130991175751713,
                -0.5864541842425575,
                -0.5389782497675789,
                -0.4961276159102277,
                -0.3888783574028698,
                -0.35924322674879666,
                -0.17009749642333968,
                -0.23379670263576446,
                -0.06618702875043724,
                0.019808894871540857,
                0.025501373613628517,
                0.3604801938052666,
                -0.2627374916699537,
                -0.5084106202855878,
                -0.24380799378669574,
                0.4747519881272926,
                -0.15075120278122714,
                0.2122678589524782,
                0.48496082033231896,
                0.1869584544378292,
                -0.2192906938169785,
                -0.5804712875706713,
                -0.3062459800495256,
                -0.7087620184543727,
                -0.7369398107069199,
                0.16295310904079982,
                -0.25750351174502867,
                -0.32302463659650754,
                -0.5022879815372259,
                -0.00715624549208758
            ],
            [
                -0.09774010569411183,
                -0.42612657374368956,
                -0.33204450392634255,
                -0.5786890473455072,
                -0.2955272069347926,
                -0.41754139907020904,
                -0.415254531169497,
                -0.29432259173800285,
                0.4229132183482859,
                -0.2835824338026567,
                0.12792779146787156,
                0.00558964466759237,
                -0.28197508614707234,
                -0.520348115563278,
                0.2791104570957247,
                0.21698583385545472,
                -0.04100800534939232,
                0.33739344745831656,
                0.23480722124257533,
                0.03157086597097786,
                -0.0021567040728686184,
                -0.05222880704158923,
                -0.2472603863796704,
                0.07635216995189338,
                -0.27838603903217857,
                0.24095902401034655,
                -0.5113716948613396,
                -0.3226798760364141,
                -0.6110770183593665,
                0.028882231680039512
            ],
            [
                -0.517010571542495,
                -0.3465536956895839,
                0.25297539698781685,
                -0.2565599967491405,
                -0.47264793995762383,
                -0.31392833518220037,
                0.055506324116783044,
                0.019401701157070978,
                -0.37638975831268334,
                0.14335185837900466,
                -0.2101925606817005,
                -0.07788144279365572,
                0.028134794281579906,
                -0.0695439901171716,
                0.17480670427510006,
                0.1562066798217135,
                -0.12104224797154829,
                -0.15151799727378884,
                0.02822991587440162,
                0.2641453704931982,
                -0.5951342211905484,
                -0.33691630966819763,
                -0.3534108531926221,
                -0.4940289824925924,
                0.2597004175364134,
                0.4118387785045245,
                -0.1149762302067144,
                -0.14348519206934635,
                -0.014595230914429274,
                -0.400303585278341
            ],
            [
                -0.21100131861323065,
                -0.34694401489430077,
                0.017140327835342674,
                -0.25756980558121,
                0.03347667743377457,
                0.10257897675336147,
                -0.3712462404432925,
                -0.12722550136008062,
                0.18463092475753745,
                -0.233251530610416,
                -0.13943926197238146,
                0.14559886608093833,
                -0.04805507916350385,
                -0.2929395125077277,
                -0.08565798121312777,
                0.20497760523169112,
                0.09771418665191912,
                -0.22295696117824462,
                0.16605801292750938,
                -0.23310927940172863,
                -0.1554399661451636,
                -0.058790866712431854,
                0.33502786452162414,
                -0.02568375646297238,
                0.2942063916487331,
                -0.061642931269994636,
                -0.3006617350459769,
                0.006248217141700454,
                0.34463856798520554,
                0.37530651795781067
            ],
            [
                0.778476541400956,
                0.26644208132751096,
                0.33143173662607506,
                0.577437981214919,
                -0.13819519654114004,
                0.07112376566596323,
                0.5536138182855501,
                0.6714615436948788,
                -0.14325440296808636,
                -0.05686961828574343,
                0.9421763154104668,
                -0.3400473063928259,
                0.35182056736260553,
                0.8403851588282583,
                -0.5041647648940203,
                -0.08683202938197336,
                0.4868217498720771,
                0.3734716520396534,
                -0.6831381870812471,
                -0.573237074057224,
                0.4396363538966915,
                0.927640812874819,
                0.6952987204666239,
                0.7580047681427549,
                0.28750969213938743,
                -0.17087153772801178,
                0.4818013632122346,
                0.34038551498745284,
                0.6097908584724235,
                -0.024197124509700782
            ],
            [
                0.023900479575485436,
                -0.005590146401283294,
                -0.35214467977488056,
                -0.4359558625789432,
                0.028686836628696144,
                -0.41424513082372055,
                0.29556985553717174,
                -0.0991851200951871,
                0.10485204641638084,
                -0.12072517116310807,
                -0.6379076539108663,
                -0.050756064535351836,
                0.29259418124382897,
                -0.2448263416156317,
                -0.23640538299704042,
                0.20858385709571917,
                -0.06409180328738702,
                0.08944956479168378,
                0.15901073307896588,
                -0.081137911351506,
                -0.21536623142053363,
                0.04835061962332795,
                -0.1234149188165274,
                -0.3246328195692341,
                -0.2721699947972587,
                0.16111523139031209,
                -0.4888478139449978,
                -0.638652367029452,
                0.0430171372815756,
                -0.03600151283674359
            ],
            [
                -0.6001109503596247,
                -0.4180337274324489,
                -0.9277369698054141,
                -0.36752160351630636,
                -0.3612851126680731,
                0.16148008727934213,
                -0.5018938310562915,
                -0.9217297856197357,
                -0.21947609978410623,
                0.3362242088500545,
                -1.115288989122138,
                0.28326169173475196,
                -0.94358579876747,
                -0.7210616696322081,
                0.04789369983283268,
                0.7507933474486057,
                -0.37716705358855745,
                -0.24033514894395275,
                0.4658433745904116,
                0.9617015311055115,
                -0.3323869420619355,
                -1.219798887898829,
                -0.6809201483810119,
                -1.058091368566125,
                -0.7207260215319871,
                -0.053408272136711066,
                -0.6325451254034449,
                -0.4047130429142707,
                -0.6780299886781174,
                -0.27587483717125993
            ],
            [
                0.03125770883651931,
                0.5179180320631517,
                0.5404402956858351,
                0.5385101928270584,
                0.30546735767549416,
                0.3914127320921799,
                -0.003990869989417724,
                0.5662818346631788,
                0.15951419672979936,
                0.1454379136744175,
                0.7548849132659509,
                -0.12629249240599666,
                -0.012052606044289711,
                0.16215103207524723,
                -0.24823891727344338,
                -0.16889248679800822,
                -0.260727129248957,
                0.10392439372236355,
                -0.3501739918578827,
                -0.1482531917638714,
                0.4418648020917601,
                0.8485485693280719,
                0.5837835259837935,
                0.44810988477100355,
                0.6986599248911216,
                0.35281463386417317,
                -0.05675494908650015,
                0.7707744987427142,
                0.47773385432747023,
                0.27767094113533913
            ],
            [
                -0.925789797061111,
                -0.8755055144202287,
                -0.881695340628754,
                -0.5361115054834602,
                -0.08556346464937674,
                -0.30136885169485017,
                -1.0131001308807452,
                -0.35808952427383883,
                -0.5077672349657991,
                0.06865534681280311,
                -0.40051938249699315,
                0.21741893174512789,
                -0.8275800237949622,
                -0.36844170556434996,
                0.5199674877873477,
                0.7155506626807572,
                -0.2363197887452357,
                -0.47315404431115643,
                0.26034649762338186,
                0.8668907437478256,
                -0.528272013609061,
                -0.85845349423622,
                -0.9849404402988359,
                -0.6493799794716184,
                -0.8687039691967718,
                -0.00340541698694718,
                -0.5779726519695366,
                -0.6067941110836513,
                -0.4962052585352655,
                -0.12837602501961923
            ]
        ],
        "l2": [
            [
                -0.23337197084860553,
                0.305208982526203,
                0.6221110791564625,
                -0.2722520090025787,
                0.14364500009611172,
                -0.002594512692494727,
                -0.2819652420029707,
                0.00638387084306647,
                -0.14888818350015284,
                -0.11833629617564027,
                -0.39834774226291797,
                -0.502217365663954,
                0.602513191450923,
                0.16317299567166266,
                -0.3210877078056301,
                -0.010863940452795335,
                -0.021373786285901582,
                -0.5349964912266069,
                -0.17261717939370808,
                0.11286736890115394,
                0.057126172144839116,
                -0.12401099319652523,
                0.29662775987821155,
                0.429276423091761,
                0.41850701157403447,
                0.024086584009065222,
                0.07229789272951598,
                0.49052877429054675,
                0.2217937656878041,
                0.3370501762391273
            ],
            [
                0.32937784135175235,
                0.3945613158482914,
                0.42855277527502184,
                0.3769111393315708,
                -0.15864796030453923,
                -0.08376867024167815,
                0.28560055769297377,
                0.07873270663270522,
                0.2582241767134362,
                0.4622675735643517,
                0.3454903153458516,
                0.1309272490139219,
                -0.30751724795646007,
                0.028555983154431776,
                0.3106657156758569,
                0.21416216861072837,
                0.3112618037410057,
                0.38265779875824524,
                -0.3706185689670687,
                0.2771031865595184,
                0.2153586602703731,
                -0.2120737287178311,
                0.3967618822535174,
                -0.4135557854898552,
                -0.05500353430766979,
                0.05161555024046276,
                -0.34321127471987595,
                0.07488628415275556,
                0.11936768535095271,
                0.1677623248327166
            ],
            [
                -0.36126795372929166,
                -0.38019108077743113,
                0.09524902044473212,
                0.15635204802478916,
                0.17719109181429832,
                0.3496761940942861,
                -0.09228688559666051,
                0.069738164657606,
                0.13642962959944638,
                -0.11946738804663037,
                -0.2649180406785167,
                -0.43025325903926553,
                -0.2100142348469738,
                0.2503401580511935,
                0.29149790135471115,
                0.11341308559189733,
                -0.35599397811020334,
                -0.4030102021910625,
                0.061238211631389546,
                0.4071690829250644,
                0.4076105757998283,
                0.012748142021884408,
                0.42626248418525214,
                -0.03964387002043943,
                -0.10723513951769557,
                0.09651970728185211,
                0.3515758715646619,
                -0.22071668417789256,
                -0.4042188167614235,
                -0.14674364624327396
            ],
            [
                0.23803075930062675,
                0.28360817132360167,
                0.1543999453508964,
                0.03956396134412933,
                0.2638255091004863,
                0.2857856837940065,
                0.3447310727469826,
                0.44464971058045966,
                -0.40383361711091637,
                -0.0772026505899062,
                0.06573676237734193,
                0.3605165630716106,
                -0.18622604185390024,
                -0.4260368132209606,
                -0.29920436467566813,
                -0.09550514104929676,
                -0.30338233851685287,
                -0.3479624151330896,
                0.49116759336448057,
                0.13582533719767292,
                0.13201959154192014,
                -0.39950995429867536,
                0.2570800022709093,
                -0.32762765059040083,
                -0.2776439366443854,
                0.16979043489999932,
                -0.2409317550054688,
                -0.08652430654916589,
                -0.02057519526188805,
                0.10285710590603575
            ],
            [
                0.11897587487408569,
                -0.633054157568814,
                0.6373134264272936,
                0.23519268810641403,
                0.7524605240788285,
                0.48648118761119663,
                -0.41733485841677415,
                -0.678685505407734,
                0.40385857583017676,
                -0.07956666694865122,
                -0.3965921047575995,
                -0.19621972397708692,
                -0.0001279905992965224,
                0.38303608064030764,
                0.10021363906719986,
                0.6248535040081332,
                -0.29489768882097134,
                -0.030327625213727036,
                -0.8586789314423737,
                0.3314660322948319,
                -0.252074992617136,
                -0.11506215848608684,
                0.07327956198367046,
                -0.0593693450249144,
                0.24398884929852294,
                -0.5014101653811774,
                0.16756950336672516,
                0.24734076304387012,
                -0.7401750359491219,
                -0.0386488957450132
            ],
            [
                -0.265116719070091,
                0.020359549650308235,
                -0.5015017248637167,
                -0.7751110633237435,
                -0.5703330263165401,
                -0.37405093435107173,
                0.5972251859673453,
                0.6539207371668646,
                -0.4487845325300906,
                -0.08585870580798086,
                0.408121385063876,
                0.7388440569793444,
                -0.8764188938434726,
                -0.6045245756948523,
                -0.10306309551851228,
                -0.934628985879852,
                -0.19103874048768665,
                0.4760463205924552,
                0.5459049547086422,
                -0.09615891643226228,
                0.44354173776248257,
                -0.5624922533258191,
                -0.631199182911068,
                0.08755093177962622,
                -0.22406719395609592,
                0.5972343042983309,
                -0.43353132451491205,
                -1.0177424429606075,
                0.5579507691675111,
                -0.6911358325768944
            ],
            [
                0.272457385367641,
                0.10381750354154376,
                -0.3068833956629836,
                -0.3956712417044869,
                -0.09684626126498427,
                0.32985724086970675,
                0.2655458454347294,
                -0.12752046135363382,
                0.13642508916574736,
                0.12902344384377012,
                0.08060897965093702,
                -0.2870798554564627,
                -0.5511136817803426,
                0.03637661513148083,
                -0.549366319956795,
                -0.524557055955289,
                0.14404103760595233,
                -0.204925820905996,
                0.030190935569295974,
                0.20834837310687557,
                0.40455137196565355,
                -0.30369041464813445,
                0.30640808869920033,
                0.0854184105781338,
                0.1906595791190022,
                0.49589962197681775,
                -0.410944641259964,
                -0.09387477825206916,
                -0.08002565533956363,
                0.09955829470209941
            ],
            [
                0.06647698263102639,
                -0.4738949284115509,
                0.28806040787525267,
                0.008036625074932116,
                0.6051280722732225,
                0.35380458905000434,
                -0.4335055900719357,
                -0.592648606400972,
                -0.07752336950336615,
                -0.684780759288072,
                -0.3934968320727277,
                -0.5854596938232494,
                0.251021658889416,
                0.46011271302491774,
                0.41261201817995885,
                0.26270152452151657,
                -0.33692920835453566,
                -0.35172945409522877,
                -0.6695664473174421,
                0.36772082458228694,
                -0.4813220587468326,
                0.27450073011396636,
                -0.10761401321921722,
                -0.005009011670967869,
                0.3884111283223393,
                -0.3351091336706971,
                0.024589913034157418,
                0.14757779835817877,
                -0.03877810249979474,
                0.11609284663621489
            ],
            [
                0.17172436175774727,
                -0.01608914053173615,
                -0.5138539007214867,
                -0.5821751234921586,
                -0.5516983707273249,
                -0.2915605240760324,
                -0.07282638239230763,
                0.003528834642754781,
                -0.5458357709639166,
                -0.08386193658549909,
                -0.08323857545726779,
                0.3067803270046902,
                -0.30991121961096296,
                -0.3300760676747589,
                -0.3184561958823376,
                -0.13585805032765033,
                -0.10320434282583998,
                0.3034022785316896,
                0.5347301900557189,
                -0.4117417383282281,
                -0.09961425685026139,
                -0.23543863916176969,
                -0.5024965384116741,
                -0.3467333444348703,
                0.36685614589954296,
                0.667912939358472,
                0.2952546095260678,
                -0.7147025642353758,
                0.3084102639258351,
                -0.7208327573982201
            ],
            [
                0.02753726575256398,
                -0.3716337883902496,
                0.6578429261636322,
                0.6685304764027916,
                0.4354813789227862,
                0.3454552899893619,
                0.1941486663032315,
                -0.8086737849150117,
                0.07925843794287675,
                -0.5000716038087212,
                0.12570449144741833,
                -0.2708462702969178,
                0.12143918127156002,
                -0.07763558779762166,
                -0.12674865847400857,
                0.4732913870249769,
                0.02143766582832952,
                -0.564498796724242,
                -0.7338999789653092,
                -0.06258577895673936,
                -0.027371327282219388,
                0.11127408004332089,
                -0.10974531128671561,
                -0.08574438552402648,
                -0.053580702557389545,
                -0.0639483724679857,
                0.41051340053518925,
                0.46060200342984375,
                -0.4744337462734271,
                0.7227732273043115
            ],
            [
                0.05916669245293744,
                0.22101323560397337,
                -0.36637270011022843,
                0.06788064955154079,
                0.30247480530326537,
                -0.2445330281615861,
                -0.2784485930750125,
                -0.35062569606850674,
                0.04159151326029203,
                0.1574221670019624,
                -0.43804622112419583,
                -0.397889285490099,
                0.5199160499460002,
                -0.09985405037383262,
                -0.19386228988321652,
                0.1701593007160445,
                0.15212663850917788,
                -0.1288798815028673,
                -0.5019493578637406,
                -0.030440016346352895,
                -0.46692998302817934,
                0.29982844258235014,
                0.21822874048646465,
                -0.16458464561509592,
                -0.26235823049042734,
                -0.22308397498505936,
                0.3356602019957631,
                0.4582160116370386,
                -0.3569732997240801,
                0.06578852413091017
            ],
            [
                0.5070680760430502,
                0.5187826001461229,
                -1.1739956369273103,
                -1.1663906328881708,
                -1.1395444137621598,
                -0.74599898715938,
                0.7232561632347504,
                1.0606029275937232,
                -1.0803828469176293,
                0.7162169392122857,
                -0.014397397923992953,
                0.5372854242547995,
                -0.8592394778955667,
                -0.16830762953682046,
                -0.6124382060677521,
                -1.2107086873680337,
                0.7208391434629247,
                0.4125673655935168,
                0.18403298689232214,
                -0.6374818338981639,
                -0.3240565589142711,
                -0.8065271812920416,
                -0.1794786508046106,
                -0.38160910623180455,
                0.2414688859936806,
                0.8012536074499845,
                -0.30054260083975853,
                -1.0918148099344993,
                0.4200732489804638,
                -1.139602077735848
            ],
            [
                -0.2717619287421358,
                -0.08004738230432462,
                -0.563942594873467,
                -0.3006567360519924,
                0.01763226371696535,
                -0.49373934466814146,
                -0.11415564288365987,
                0.5018728870631295,
                -0.3584577669442583,
                0.4106685259944812,
                -0.16530717796755323,
                0.5416856684977028,
                -0.5916718411647582,
                0.1727407092911512,
                0.016567550470182744,
                -0.5301885829630623,
                -0.09601367689612748,
                -0.03128385452191502,
                -0.11867642884124105,
                -0.06308206536494305,
                0.29488025235309623,
                -0.21532843328902057,
                -0.4605670150634318,
                -0.08091192803422778,
                0.004047695701229706,
                0.5693437430439756,
                -0.4754870307841259,
                -0.6338747069528077,
                -0.05035457644617797,
                -0.1372579587515301
            ],
            [
                0.16024967808954538,
                -0.05217598891616632,
                -0.23308527663333015,
                -0.009757001612741796,
                -0.42367492614791114,
                0.2268672418913601,
                -0.17988866385976415,
                -0.14541139337476083,
                -0.08951009285092747,
                0.3365786542918184,
                -0.13164746347626086,
                -0.4075933730967365,
                -0.3672481910262533,
                0.285035485716468,
                0.12125652752189674,
                0.01898048327342342,
                -0.12648794804744853,
                -0.3011581557986014,
                -0.11515600080883272,
                0.05650800938332003,
                -0.12856121355061897,
                0.1915209973395372,
                -0.4427441832676167,
                -0.0162417192283376,
                -0.23497975619293843,
                -0.07111666858021265,
                0.29827165300009173,
                -0.38026551311161605,
                -0.02673813174161198,
                -0.08084934136643268
            ],
            [
                0.15197715069388776,
                0.14441756090499305,
                -0.7900599504911335,
                -0.8239643077276994,
                -0.43128289554157523,
                0.13909928572048127,
                -0.1453263207103702,
                0.7012885597150095,
                -0.5376522468743583,
                0.5272442207187266,
                -0.39911698219670405,
                0.6846341553563505,
                -0.04544343378870661,
                -0.5094964914224903,
                -0.5016395548582077,
                -0.8132007417736726,
                0.01586230608542249,
                0.18666154312302802,
                0.21134476879431216,
                -0.4128626346688553,
                0.2477653236155446,
                -0.652558370363419,
                -0.3029654691816153,
                -0.3895113276271833,
                0.10404829810086459,
                -0.012309230498222017,
                -0.49396594792643034,
                -0.8558129774006078,
                0.6149334678408261,
                -0.5299476820602889
            ],
            [
                -0.37118432659255146,
                -0.34306493282604766,
                0.09590879889253556,
                -0.4582699324319552,
                -0.17831068457168914,
                0.13164706067227405,
                0.3047402407540353,
                0.5861519303511425,
                0.11118539967342297,
                -0.06314520927038463,
                0.18099656642214454,
                0.445514044746066,
                -0.47728477440787165,
                -0.4290696037361662,
                -0.32982006882986875,
                -0.05727053223094437,
                0.2114886373937209,
                0.27666766801417747,
                0.3531814722081641,
                -0.2834643503212516,
                -0.11095777291730712,
                -0.059534553874085086,
                -0.2971369143504053,
                -0.43385642777859645,
                0.04214757060288089,
                0.4641064903369799,
                0.16348021281519304,
                -0.31412701430533574,
                -0.22743541839956352,
                -0.560574868967001
            ],
            [
                0.36205622112897895,
                -0.033260769301216894,
                -0.39626540950807876,
                -0.41448982325391703,
                0.13205254418815437,
                0.38740609742746585,
                0.3872588059691637,
                -0.19266065427303639,
                -0.24208697853895988,
                0.43874870281226275,
                -0.011652788929018821,
                -0.20435048575884743,
                -0.32827003574494973,
                0.29495087111890256,
                -0.04225005801198235,
                0.2022225204987418,
                -0.39542050420174324,
                -0.4139619090891622,
                -0.21214303539577614,
                0.038726788056564806,
                0.40314719179977104,
                -0.27940927695680684,
                -0.23624285274142515,
                -0.04088597359706876,
                0.42357890559571626,
                0.42131401220616915,
                0.032999312878700976,
                0.3010690093275999,
                -0.17479166676958366,
                -0.30392263538991227
            ],
            [
                0.05079915347764589,
                -0.724921204454814,
                0.8049516884808728,
                0.735042935238459,
                0.6673471375679542,
                -0.041414758672552954,
                -0.04000552435423411,
                -0.6498316465088055,
                0.44949771260264704,
                -0.8094089616752106,
                -0.08263649230096108,
                -0.12245419265289285,
                -0.02085448259123173,
                0.10371790426452132,
                0.4640879718281286,
                0.8080255038506439,
                -0.7395659189591463,
                -0.5594083790696677,
                -0.5156231103682312,
                0.5067337818816497,
                -0.048844743908003294,
                0.5005211971837701,
                0.45025162432754473,
                0.5135791579297063,
                0.2850126765371184,
                -0.748392087658282,
                -0.30286640725926706,
                0.3617980403556708,
                -0.3258701152861557,
                0.5715671334646579
            ],
            [
                0.28448096322423655,
                0.02523316172467709,
                0.3065719447491482,
                -0.12487777524380099,
                0.4712262304479301,
                -0.10685597895792769,
                -0.11876838091729353,
                -0.2590459532573028,
                0.018169548987557366,
                -0.16621533463397228,
                0.2254795632724248,
                -0.3368707836100757,
                0.12086957945708746,
                0.1668451086237762,
                -0.26150036959490136,
                -0.02175535140933032,
                -0.029289123398981223,
                -0.5755586416405232,
                -0.5529362978019028,
                0.17504422197233976,
                0.34437655098225345,
                -0.03522174047738924,
                -0.18088474229208135,
                -0.2316902986310973,
                0.43314985660894134,
                -0.17758179017335451,
                -0.26923217055413384,
                0.27385397894322894,
                -0.3704462117093238,
                0.2641017273310094
            ],
            [
                -0.02846545829760881,
                0.2786793775588266,
                0.05196009425485875,
                -0.3020323185635978,
                0.09843668372441251,
                -0.30042159393801954,
                0.46671595806315586,
                -0.14518617884952978,
                0.1975659517423285,
                0.04802397531276573,
                -0.40197918194887255,
                0.09730036150242118,
                -0.4850678511992465,
                -0.0052986308792468935,
                -0.5015572327520023,
                0.14395097101754445,
                0.30802991083105247,
                0.3490183814567647,
                0.4737051904795836,
                -0.3034683816144865,
                0.3287335892891068,
                -0.38900380533243667,
                -0.2600356083116538,
                -0.49994094215496065,
                -0.43728132473680814,
                0.1094299206373278,
                -0.2876307017861643,
                -0.6652158767077702,
                0.3095285635672684,
                -0.3962464712603383
            ]
        ],
        "l3": [
            [
                -0.805925711076932,
                -0.2218149356623251,
                -0.3494726419604479,
                0.12176760813981029,
                -1.0033366542733937,
                1.1780821292272294,
                0.2607516476316262,
                -0.6740205681237151,
                0.23669948047823147,
                -0.7914929394882052,
                -0.1560363921090506,
                1.2392198625173392,
                0.7685943642119538,
                0.34542521870040843,
                0.7600297131134701,
                0.25588925900541504,
                0.4311863793510667,
                -1.079647774196714,
                -0.3263397315478192,
                -0.008884077160355079
            ],
            [
                0.6003284211670926,
                -0.3275197094885915,
                -0.18454369472854595,
                0.1254673719955001,
                0.127248985822703,
                -0.31282702348373687,
                0.45176015248942997,
                0.4210085912238556,
                0.007352551485722924,
                0.15298981696165104,
                0.20563206330060474,
                0.1613531832471493,
                -0.1976039201434248,
                -0.45357089616705576,
                0.09634515387992958,
                -0.13641959999913536,
                -0.3925089855111706,
                0.08469045859825647,
                0.4435838028805617,
                -0.444929591710275
            ],
            [
                -0.45338994841175684,
                0.46131843886146884,
                -0.5863885809161343,
                -0.20491121714716753,
                -0.14153193325768926,
                -0.3384359150526594,
                0.4896032106997048,
                0.25017434560924007,
                0.4015431038877929,
                0.21249956361361327,
                -0.5061311471431058,
                0.3330733240475267,
                0.5360204223534568,
                0.24130569849618502,
                0.20622933335198543,
                -0.4013407220052636,
                -0.015233339309496904,
                0.019056866128941367,
                0.42263025432462337,
                0.30692368376864676
            ],
            [
                0.39482482336864927,
                0.08623426101497256,
                -0.1361617594847603,
                -0.1077046877323701,
                -0.4618015686976861,
                0.46076082010344516,
                -0.26279919088248355,
                -0.32080042777377,
                0.20522051433143604,
                -0.021344630538736784,
                0.29193412123376333,
                0.6329754867620243,
                0.2722887025653559,
                -0.1316807555923722,
                0.587045924770129,
                0.608385729258809,
                -0.1401464306605664,
                -0.15026309557700618,
                -0.0052665801694032075,
                0.6412194611712265
            ],
            [
                -0.6321895465747464,
                -0.21660921647920298,
                -0.28097959056372346,
                0.4623003405195685,
                -0.42033527913095337,
                -0.1257286352717386,
                0.5502466769606695,
                -0.7124305735875334,
                0.5377096423139053,
                -0.06627715693278852,
                -0.46378559874569186,
                0.17480276446502316,
                0.50538617211882,
                -0.5551883830928257,
                0.6188779479010554,
                0.41339546246588715,
                -0.3837892790417423,
                -0.5034099313374162,
                -0.23187935516349983,
                0.5188267974912524
            ],
            [
                0.48396708585279363,
                0.42024265846505665,
                -0.18846297820512828,
                -0.14573984507922735,
                0.38055371502654073,
                -0.8104197050381312,
                -0.11500523185673572,
                0.6598453755023034,
                -0.7899077905348405,
                -0.09417418956782281,
                0.1825425902742535,
                -0.8130111375596778,
                0.22654612547274955,
                -0.35922045423693344,
                -0.38087326083345624,
                -0.19465683477066834,
                -0.2024558732785303,
                0.30554051772175445,
                -0.06261560730093872,
                -0.23359414355377064
            ],
            [
                -0.27654532461971215,
                -0.43823118732371746,
                -0.403735950973417,
                -0.20242906420773496,
                -0.17080939323479985,
                -0.01100820105181842,
                -0.12104345208567417,
                0.102914980194352,
                0.14365731351334746,
                -0.8573078602627964,
                -0.39893552882555267,
                1.007617443384801,
                0.5624565171121495,
                -0.08289531070989362,
                0.8256283671307493,
                0.07035577244546755,
                -0.17182860571676026,
                -0.8191554270909934,
                -0.16925451996975002,
                0.382865590179169
            ],
            [
                -0.1861968616898472,
                -0.5734844623814309,
                0.09364820696389875,
                -0.7078641768224289,
                1.0683636286863984,
                -1.3213404884467819,
                -0.8398984228959262,
                0.8308124989736754,
                -1.1068018330470257,
                1.1055305447035986,
                0.3302557771578055,
                -1.5513942465229065,
                -0.20482487744305797,
                0.08808900151915613,
                -0.8572404483018822,
                -0.9492847221681239,
                -0.04860921547434992,
                1.066973738973436,
                0.6429155497667951,
                -0.6134761154200185
            ],
            [
                0.4385661632945319,
                0.533788002219529,
                0.018268846337828604,
                0.40043174435697765,
                0.025146266348687524,
                0.18123773763480847,
                0.2483331365566483,
                0.1522708833343964,
                0.338568745079842,
                0.5498030980423376,
                -0.3938291797431267,
                0.3680657691352992,
                0.03670346883842957,
                -0.029403842333544036,
                0.12907908104165286,
                0.5094421219642075,
                -0.15740414945494513,
                0.5616061565810077,
                0.21000839092919382,
                0.3769673603753182
            ],
            [
                0.3620893454524572,
                -0.3880726796412835,
                0.23925714769190093,
                -0.44240304069019804,
                -0.24320437994772576,
                -0.6504408715096006,
                0.042690272649355585,
                -0.046009948891409545,
                0.3425400787080456,
                0.28214046416474287,
                0.44688293681191643,
                -0.675528724486662,
                -0.17363078857637854,
                -0.024766848627175073,
                0.15586776482032605,
                0.3846224312990219,
                -0.22585548671645114,
                0.18706109102163823,
                0.5637349235745199,
                -0.5505386658117881
            ]
        ],
        "l4": [
            [
                0.9006064437965154,
                -0.6714779596910523,
                0.12737570719688676,
                -0.31556884690058695,
                0.8635366445763135,
                -0.9610247652470203,
                0.8816193382861309,
                -1.1776215412689124,
                -0.7878897141087655,
                -0.2219700145733675
            ],
            [
                0.49818458104737323,
                -0.7344275209821339,
                -0.16923678252832533,
                -0.6713912047684168,
                -0.2815877025011928,
                -0.30240121372873996,
                -0.5258717659653861,
                0.43814653748844046,
                -0.4075246012192109,
                -0.02865610591972497
            ],
            [
                0.719648485217745,
                0.23654021763965724,
                0.18384176119750748,
                -0.1427862748694096,
                0.6701370155650991,
                0.286239098693712,
                0.6294589384183448,
                0.3063254444995776,
                0.04978298110132832,
                -0.4295207981924652
            ],
            [
                -0.8640143828322684,
                -0.4252317070988735,
                0.09307424862852864,
                -0.6329632872145577,
                0.25429729337499235,
                1.0300119678742263,
                -0.4453663372556621,
                1.2972701304849708,
                -0.7605911074338083,
                -0.0043239635369264435
            ],
            [
                -0.21314059480702247,
                0.548242764768926,
                -0.29310072027579914,
                -0.5681420481145015,
                -0.7532995130976693,
                -0.3225115038547985,
                -0.38173879337632083,
                1.1794307918021345,
                0.533121901848461,
                0.8227302992734791
            ],
            [
                0.6248627577227234,
                -0.16381894230996483,
                0.5447522139456099,
                0.181596817688693,
                0.8191433415769749,
                0.21336787322934245,
                0.32721625554129286,
                -0.04304893289418942,
                0.6547873828671216,
                -0.6749377436606626
            ],
            [
                0.32179483228273775,
                -0.7250333292560044,
                0.20208030247639877,
                0.419975696589472,
                0.6992399423431821,
                -0.35716251406233795,
                -0.459960487448473,
                0.2800626800395758,
                0.15523399171073324,
                -0.27568313254520843
            ],
            [
                -1.7575150606164116,
                -0.3164335849557358,
                -0.31724986143288153,
                -0.5958704321798259,
                -0.35493388681343224,
                0.41941648950979415,
                -1.257137922874307,
                1.695253462780678,
                0.1716674021207145,
                0.36261378484388307
            ],
            [
                0.5372722063610992,
                -0.8348402444245119,
                0.6150569102632887,
                0.7050506657569878,
                -0.18903096284160867,
                -0.7099995307359842,
                0.44376031137374056,
                -1.2758809936821034,
                0.31965761084229394,
                0.4771396129493587
            ],
            [
                0.8391646950088586,
                -0.5840237205190425,
                -0.5707503313618315,
                0.5338827169486418,
                1.047046177909247,
                -1.0095039913506072,
                -0.46962687235173,
                0.0727201902531338,
                0.48009251883680787,
                -0.5731652720027471
            ]
        ],
        "l5": [
            [
                -0.6736729417978902,
                -0.476161367193476,
                0.09652472064621642,
                1.7074887389427074,
                1.4581972915241423,
                -0.4916251251802368,
                0.11422890160845757,
                2.0936834305832024,
                -1.2669983380459628,
                -1.0057829705235446
            ],
            [
                1.4462363158788278,
                -0.6817902628272245,
                0.7236844585349591,
                -0.41417391209907617,
                -0.5572042639782271,
                0.3350740661661123,
                0.6543205793645495,
                -1.448436643214071,
                0.6118482889335052,
                0.6710560794925093
            ]
        ]
    },
    "biases": {
        "l1": [
            [
                -0.016393072687782156
            ],
            [
                0.005968446458074737
            ],
            [
                -0.1060561389695298
            ],
            [
                -0.08032652010083863
            ],
            [
                -0.0982623517311203
            ],
            [
                -0.00908717753686176
            ],
            [
                -0.03335184795653491
            ],
            [
                -0.08340532930101771
            ],
            [
                -0.0308461114337012
            ],
            [
                -0.02467439307320794
            ],
            [
                0.0103924608344695
            ],
            [
                -0.05637647600829058
            ],
            [
                -0.029949780501255654
            ],
            [
                -0.026363480224069667
            ],
            [
                -0.023172052432168043
            ],
            [
                -0.09410192960400389
            ],
            [
                -0.005267679066615648
            ],
            [
                -0.01741458518086419
            ],
            [
                -0.02323207350152336
            ],
            [
                -0.027268508118782613
            ],
            [
                0.0006436489096510171
            ],
            [
                -0.032500528031010736
            ],
            [
                -0.001831613308982601
            ],
            [
                -0.011191128845234575
            ],
            [
                -0.02226413103375471
            ],
            [
                -0.054407959397914006
            ],
            [
                0.0037373053835945197
            ],
            [
                -0.09092971591217447
            ],
            [
                -0.024685970350367847
            ],
            [
                -0.0762621614188915
            ]
        ],
        "l2": [
            [
                0.016409748464512413
            ],
            [
                0.022258302708990676
            ],
            [
                0.0011914685757449073
            ],
            [
                0.013575370407011617
            ],
            [
                -0.06680475482247909
            ],
            [
                -0.04675339637033669
            ],
            [
                0.014701730629058708
            ],
            [
                -0.04836335237461792
            ],
            [
                0.006509982086224159
            ],
            [
                -0.08657102084194328
            ],
            [
                -0.014873189135602897
            ],
            [
                -0.09913907630527523
            ],
            [
                -0.04547647704803104
            ],
            [
                -0.008945521687452421
            ],
            [
                -0.04650935068739727
            ],
            [
                -0.0005406158229743026
            ],
            [
                -0.008345619301447171
            ],
            [
                -0.10637507812240653
            ],
            [
                -0.03146666102802278
            ],
            [
                -0.009189581584081731
            ]
        ],
        "l3": [
            [
                -0.12000107317087023
            ],
            [
                0.031662118245431844
            ],
            [
                -0.005638126639352945
            ],
            [
                -0.0288473899098029
            ],
            [
                -0.05408233216569479
            ],
            [
                -0.02166299336112575
            ],
            [
                -0.012598800366973152
            ],
            [
                -0.19753840541265666
            ],
            [
                -0.01384218871224054
            ],
            [
                -0.022964603994137318
            ]
        ],
        "l4": [
            [
                -0.0544650613693076
            ],
            [
                -0.004380734209514088
            ],
            [
                -0.022187010495685368
            ],
            [
                -0.0386696573880468
            ],
            [
                -0.048478852693721104
            ],
            [
                -0.02954981371283043
            ],
            [
                -0.0145601143059882
            ],
            [
                -0.1070452636096737
            ],
            [
                -0.07428256477373
            ],
            [
                -0.06689287672573313
            ]
        ],
        "l5": [
            [
                0.15157464633816006
            ],
            [
                -0.1495746463381601
            ]
        ]
    },
    "dataParameters": {
        "f2": {
            "mean": 14.176922807017545,
            "std": 3.5104059355078054,
            "median": 13.43
        },
        "f3": {
            "mean": 19.342877192982453,
            "std": 4.219883284173678,
            "median": 18.95
        },
        "f4": {
            "mean": 92.3280701754386,
            "std": 24.29010682505375,
            "median": 86.91
        },
        "f5": {
            "mean": 658.3712280701754,
            "std": 351.0804784351805,
            "median": 556.7
        },
        "f6": {
            "mean": 0.09759687719298248,
            "std": 0.014732575661990464,
            "median": 0.09676
        },
        "f7": {
            "mean": 0.10478175438596492,
            "std": 0.05511627664435112,
            "median": 0.08963
        },
        "f8": {
            "mean": 0.08863638140350877,
            "std": 0.08169820337791392,
            "median": 0.05929
        },
        "f9": {
            "mean": 0.04956600701754386,
            "std": 0.03988986274193449,
            "median": 0.03483
        },
        "f10": {
            "mean": 0.1821140350877193,
            "std": 0.02850372127050028,
            "median": 0.1794
        },
        "f11": {
            "mean": 0.06270614035087721,
            "std": 0.007134492528708969,
            "median": 0.06125
        },
        "f12": {
            "mean": 0.4102442105263158,
            "std": 0.2775371921716927,
            "median": 0.335
        },
        "f13": {
            "mean": 1.2309080701754387,
            "std": 0.596638449900299,
            "median": 1.081
        },
        "f14": {
            "mean": 2.8949035087719293,
            "std": 2.042133415321722,
            "median": 2.344
        },
        "f15": {
            "mean": 40.819087719298246,
            "std": 45.58153423087983,
            "median": 25.22
        },
        "f16": {
            "mean": 0.007211845614035087,
            "std": 0.0032544520412439793,
            "median": 0.006458
        },
        "f17": {
            "mean": 0.025016877192982456,
            "std": 0.018153128371287488,
            "median": 0.01966
        },
        "f18": {
            "mean": 0.030286588070175438,
            "std": 0.023240313620988412,
            "median": 0.02526
        },
        "f19": {
            "mean": 0.011495726315789474,
            "std": 0.005853151260505262,
            "median": 0.01075
        },
        "f20": {
            "mean": 0.0208244947368421,
            "std": 0.008876624597832922,
            "median": 0.01857
        },
        "f21": {
            "mean": 0.003688814736842105,
            "std": 0.002332712683462084,
            "median": 0.003121
        },
        "f22": {
            "mean": 16.27481052631579,
            "std": 4.68894649109666,
            "median": 14.99
        },
        "f23": {
            "mean": 25.708736842105264,
            "std": 6.172942819004665,
            "median": 25.5
        },
        "f24": {
            "mean": 107.46540350877193,
            "std": 32.99887168784888,
            "median": 98.0
        },
        "f25": {
            "mean": 876.0856140350877,
            "std": 549.3840105928931,
            "median": 697.7
        },
        "f26": {
            "mean": 0.1340239298245614,
            "std": 0.023977894661321376,
            "median": 0.1324
        },
        "f27": {
            "mean": 0.25341417543859646,
            "std": 0.16430998748427253,
            "median": 0.2074
        },
        "f28": {
            "mean": 0.2706077228070175,
            "std": 0.21122669458920515,
            "median": 0.231
        },
        "f29": {
            "mean": 0.11441628070175437,
            "std": 0.06623174041903937,
            "median": 0.101
        },
        "f30": {
            "mean": 0.2904852631578947,
            "std": 0.06494230478720993,
            "median": 0.2807
        },
        "f31": {
            "mean": 0.0835881754385965,
            "std": 0.018369119050390598,
            "median": 0.07953
        }
    },
    "targetColumnName": "f1",
    "targetClasses": [
        "B",
        "M"
    ]
}