{
    "network": {
        "input_layer": {
            "activation": "default",
            "neurons": 30
        },
        "hidden_layer_1": {
            "neurons": 30,
            "activation": "sigmoid"
        },
        "hidden_layer_2": {
            "neurons": 20,
            "activation": "sigmoid"
        },
        "hidden_layer_3": {
            "neurons": 10,
            "activation": "sigmoid"
        },
        "hidden_layer_4": {
            "neurons": 10,
            "activation": "sigmoid"
        },
        "output_layer": {
            "activation": "softmax",
            "neurons": 2
        }
    },
    "weights": {
        "l1": [
            [
                0.5280052449967939,
                1.0488985766135148,
                1.2904196424312866,
                1.2281916370885517,
                1.0743368087019802,
                0.06461695594165184,
                0.8866955383689372,
                1.339251053894968,
                0.15050529290572215,
                -0.34499726449682916,
                1.3119914836903557,
                -0.5789803865822765,
                1.152263890146981,
                1.1030210021010995,
                -0.8551041917036494,
                -1.2474411047209577,
                0.4611353578570316,
                0.9910816315880138,
                -0.597517411473979,
                -1.6352452553158563,
                1.6847570128930265,
                1.7144275044915693,
                1.2128703359107054,
                1.7205052675685957,
                1.3649893475585972,
                0.010382325217037327,
                1.0602441774852265,
                1.9774625806921982,
                1.4827444481243701,
                -0.09174574356010586
            ],
            [
                -1.1546846634305759,
                -1.3212006840153525,
                -1.0545251654159065,
                -0.3997058675763028,
                -0.1338543160471529,
                -0.4326342836456081,
                -1.0805788291525702,
                -0.8428032399922357,
                0.03268186246828155,
                0.5658779847659176,
                -0.9712569143185097,
                0.07157655433171688,
                -0.8706745593322297,
                -0.8821541310130753,
                0.05025147987690455,
                0.8087358476414349,
                -0.06976135478212778,
                -1.0228760524355283,
                0.3793892418788049,
                1.1935884254232236,
                -1.0472644566250726,
                -1.2066346898440754,
                -1.0912646280732972,
                -1.2017544818566137,
                -0.7640629521174953,
                0.009536295762549043,
                -0.7027054600200917,
                -1.5933201083924406,
                -1.009331576012743,
                0.0367367565515205
            ],
            [
                -0.8564121402382705,
                -1.0549878886994672,
                -1.0802457357449493,
                -1.2163602500878747,
                -0.6445795084981234,
                -0.2681647329023647,
                -1.490458655139384,
                -1.6289048018119312,
                0.2159900773809058,
                0.6185200785989254,
                -1.7172948948927402,
                0.4225946046417338,
                -0.8653521928877108,
                -1.5909354414388803,
                0.5546154437031188,
                1.180173926547442,
                -0.1833902295318722,
                -1.1750186810759808,
                0.703152085144815,
                1.4880478018970007,
                -1.2005887488115694,
                -1.3738628768388665,
                -1.4378314519988298,
                -1.4219688999069946,
                -1.077621568841356,
                -0.1893713986916907,
                -1.0622589727797482,
                -1.9705135009080204,
                -1.1365002607226211,
                -0.5387064348881936
            ],
            [
                -0.9346033612303578,
                -0.33903285069262806,
                -0.43489359251523074,
                -0.4358878009419027,
                -0.033153057792480546,
                0.009091939080370917,
                -0.03623793061434305,
                -0.6618630399788993,
                -0.02281043938779289,
                0.08403220871090607,
                -0.27892051886160707,
                -0.18422626752806515,
                0.05573470350844809,
                -0.3704025816290499,
                0.011672623794339169,
                0.5977660066342511,
                -0.26842486350650074,
                0.05185755268134609,
                0.3775340362720657,
                0.5591331457310357,
                -0.895526525323837,
                -0.76941625892779,
                -0.5683058394171066,
                -0.47540103671902273,
                -0.20381319090271577,
                -0.45239449381018015,
                -0.21997509985537494,
                -0.5911858896344491,
                -0.5137345012888375,
                -0.09430221222085779
            ],
            [
                -1.3242643676039876,
                -1.470533627969728,
                -0.5396678063737205,
                -1.083505438795587,
                -0.8435675134281873,
                -0.022856846137920037,
                -1.0247405862479853,
                -0.7077900900888593,
                0.06002620047433686,
                0.4053640951526845,
                -1.1449561316690295,
                -0.20805949878038824,
                -0.8349399898485877,
                -0.8575022706429601,
                0.5439903262548252,
                0.9959831526652966,
                -0.4143156073331429,
                -0.1549724358699999,
                0.7910810326114737,
                0.5915971232798849,
                -0.8754835663504229,
                -1.4235528401984199,
                -1.3091034876821221,
                -1.1157369078766404,
                -0.8410057860852724,
                0.39027513888504023,
                -0.8820584283833602,
                -1.3071311582559695,
                -0.4826794151456482,
                0.4220335584098237
            ],
            [
                -0.5314738264169525,
                -0.3361166026755432,
                -0.6503790543252406,
                -0.11827116499327198,
                -0.013179457120104527,
                -0.23338825635592375,
                -0.7754469753703923,
                -0.8865821311516633,
                0.5141956418726041,
                0.7543033987270059,
                -0.791394549429837,
                -0.034120737331733465,
                -0.34307042453581926,
                -0.6606717593905834,
                -0.11569981295961883,
                0.3989490813850974,
                -0.37117872100650245,
                -0.3696547590801367,
                0.20695506156715404,
                0.8348657662452375,
                -0.8219228456587846,
                -0.7867498426201771,
                -0.8878158623393761,
                -0.5130136264063602,
                -0.9254137228332661,
                0.016238665066968506,
                -0.6096784251410595,
                -0.6748984445500112,
                -0.3600243441219238,
                0.23142307615940025
            ],
            [
                -0.8526416075149164,
                -0.8675933765608765,
                -0.9029606147484441,
                -1.0323155313227264,
                -1.1091847268635757,
                -0.7451925522544315,
                -0.4519758963096705,
                -0.875820050654284,
                0.06145323182501663,
                0.17554480985293627,
                -1.0015276162508233,
                0.6990946788317545,
                -0.7503886027095545,
                -0.3534281028015007,
                -0.14567480758133144,
                0.5428375629866745,
                -0.4519695313027515,
                -0.8920344057146063,
                0.549745481047182,
                1.2436762888415573,
                -1.5240448297840739,
                -1.4289163279198744,
                -0.8993648295715301,
                -0.5712205172394601,
                -0.7617704724718702,
                0.019763663446769216,
                -0.9220981364032153,
                -1.3474479874856264,
                -0.2593415819856566,
                -0.06974260290841154
            ],
            [
                0.8140683910397759,
                1.2470853036703435,
                0.8986617150025519,
                0.6179030794772616,
                0.5441604304772858,
                0.2722803550908203,
                0.5082229378984491,
                1.1888263420666116,
                -0.006530946126246249,
                -0.6427532276157746,
                0.8534889382360666,
                -0.7015724809570625,
                0.5441623486485904,
                0.5634036751777179,
                -0.19859259566623147,
                -0.45440517204081793,
                0.9392167125483838,
                0.8681253811799798,
                0.12249705212174807,
                -0.9108266091047973,
                0.8117830167607273,
                1.5560925165361659,
                1.4385537687744123,
                0.7338837933883523,
                0.5825936232318563,
                0.22286723553925417,
                0.8056093381069546,
                1.2533743451982569,
                0.8645461015137983,
                0.12255484233753396
            ],
            [
                0.5198078088393684,
                0.5389527009249877,
                0.4666792653905537,
                1.0326702290354042,
                -0.02490222924510623,
                0.12525903924327814,
                0.6567602108116226,
                0.8223680880095003,
                0.151352088191852,
                -0.3628320498311113,
                0.5624092740148975,
                0.22505716805588785,
                0.7949767164297827,
                0.8056833742466233,
                -0.19448759245483122,
                -0.7272306169293925,
                0.5026336510195563,
                0.578598567933682,
                -0.6752423677968814,
                -1.0726557183794936,
                0.8399189560196666,
                1.2749751619027394,
                1.0232029419228776,
                1.0309861890856429,
                1.031758581282042,
                0.562800591567748,
                0.3049198382308345,
                1.244985136140259,
                0.7611942790593763,
                0.772273552488627
            ],
            [
                -0.6400763850783731,
                -1.0980488610440535,
                -1.1614171804659155,
                -0.8863953764242487,
                -0.540504571139242,
                -0.05102220533139694,
                -0.6219801973156747,
                -1.0637033478788724,
                -0.22614795963000897,
                0.4739730795011173,
                -1.3155622360782668,
                0.36115377900809353,
                -1.244943904745982,
                -0.8090375341374211,
                -0.10679155582185118,
                0.6148544764340678,
                -0.40836707334755784,
                -0.6737068445726211,
                0.5073141467976608,
                0.7441375718560738,
                -0.4653347957004264,
                -0.9761348644896616,
                -1.1133659535219678,
                -1.1934032817435691,
                -0.7310545150990428,
                -0.3787853208319629,
                -0.7586597029955595,
                -1.006577829050108,
                -0.7660620301394812,
                -0.12873819499971978
            ],
            [
                -0.35451003272323195,
                -0.2132458599394103,
                -0.02149930304166737,
                -0.179187203362144,
                -0.33883184953816164,
                0.1612456924498574,
                -0.6022292458536944,
                -0.22786920068175118,
                0.14447495726645956,
                0.11005875574357524,
                -0.5079395455648936,
                -0.1331598772648837,
                -0.7831295321551831,
                -0.4078471534574921,
                0.02890302365551095,
                0.07686743664323098,
                -0.5697617997992647,
                -0.5672463255220708,
                -0.04592749724574408,
                0.8365061919816004,
                -0.8454529638330394,
                -0.2627071900397398,
                -0.17569641247848133,
                -0.3109737274999908,
                -0.4348500505353181,
                -0.2670632122971099,
                -0.5861142985814166,
                -0.4317076517057407,
                -0.4444820451253146,
                0.06340265407938751
            ],
            [
                -0.8204947491347853,
                -0.4186489076770141,
                -0.5311923926231155,
                -1.0692557747095282,
                -0.2531763187171097,
                -0.56355295397333,
                -0.8515864309461947,
                -1.0020402559614567,
                -0.3987183438898544,
                0.4188405065938518,
                -0.28954267173483067,
                -0.4342193181407761,
                -0.6526261592664301,
                -0.5266866342625587,
                0.46680402232480017,
                0.29045047838760457,
                -0.27976024182007586,
                -0.2511320061794893,
                0.20192921371107428,
                0.14278355321883066,
                -0.8261888235224224,
                -0.8817245715035197,
                -0.9485830649078973,
                -0.7595119370818136,
                -0.8765400969712915,
                0.01834771968866209,
                -0.5903076125458672,
                -0.9225411655718442,
                -1.198370488722284,
                0.12928530212348147
            ],
            [
                -0.8394222439275498,
                -1.4554159535839852,
                -0.5215963607742752,
                -0.8561588895011343,
                -0.41739264222292866,
                -0.02182913355115546,
                -0.7353432920934914,
                -1.0081207728587829,
                -0.524358699762962,
                0.8098587929353227,
                -0.3387812743025725,
                0.39874465162869,
                0.02064695273672287,
                -0.5940131086207592,
                0.5698195647331302,
                0.8307676713216747,
                -0.24815142953311486,
                -0.4143805455117208,
                0.4764950621523711,
                1.092108475081959,
                -0.8403578212907447,
                -0.9443138762638579,
                -1.1530461526901268,
                -1.5469784163395315,
                -1.6981053345557613,
                -0.23613538000034062,
                -0.7416669836497322,
                -1.413156864425908,
                -1.2722371891945394,
                -0.05862813836643294
            ],
            [
                -1.1054464293194974,
                -0.7874975434612964,
                -1.0980732628599938,
                -0.8628290253094026,
                -1.070885316860213,
                -0.6335617294908872,
                -0.6390613395019127,
                -0.8985985449588646,
                -0.1818859398545801,
                0.7495312901067841,
                -1.4276077974918258,
                0.43343234541960207,
                -1.172512319350174,
                -0.49557191971765685,
                0.19033398459666942,
                0.4319580518027617,
                -0.18828885416625676,
                -0.6821878159347184,
                0.925620262123332,
                1.3202187018768106,
                -1.2474486001330698,
                -1.493045918175039,
                -1.127759872851516,
                -0.9508523167364569,
                -0.5478948845069226,
                -0.024448264491469304,
                -0.714074498298431,
                -2.0232652027046787,
                -0.6894647919127371,
                0.16490243185270775
            ],
            [
                1.1162475634663125,
                1.0449821438785971,
                1.4135643499324222,
                1.111265525113739,
                0.5500717534263041,
                0.25062748199346285,
                0.862159424413218,
                1.1785050483374917,
                0.25098140250019435,
                -0.588919879980946,
                0.7579764130979483,
                -0.45272458397550736,
                0.8893744436185619,
                1.291349623296699,
                -0.6401482920403331,
                -0.6569702638266671,
                0.3376386228675246,
                0.3257725301370187,
                -0.30256045393707676,
                -0.619635932926448,
                1.389485819627795,
                1.651460691388536,
                1.2581851344577193,
                1.5913248204900454,
                1.1486472681926572,
                0.4144288413949692,
                1.1547740204991046,
                1.3045269224031675,
                0.6096254287869972,
                -0.30539888616846356
            ],
            [
                0.04661502130319039,
                0.2863696492755996,
                -0.5264951303749678,
                0.21423735481436623,
                0.03126688073830638,
                0.07989822951300314,
                -0.5485468582553199,
                0.0011647399255571155,
                0.017610821295170186,
                0.623739686744427,
                -0.2969361647619217,
                0.18776636650913073,
                -0.12133139015277089,
                -0.0021322728059424284,
                0.16228964294619203,
                -0.35930799338164293,
                0.10128407071064206,
                -0.14817951752487224,
                0.13305610731297138,
                -0.24670275625868307,
                0.07006439203245074,
                0.152132147212923,
                0.19635246699316583,
                -0.46208385061548435,
                -0.18412788857715828,
                -0.37519194872799316,
                -0.46613002669054904,
                -0.35407936827417524,
                -0.5971817263302417,
                -0.28386800333964346
            ],
            [
                1.2988703642776398,
                2.2644275012179493,
                1.1189367777246095,
                1.0070633296640157,
                0.6645526775218948,
                0.27972238987492126,
                1.3297245316361395,
                1.568332102115322,
                0.17371923330638658,
                -0.6692206296343899,
                1.6750003987344995,
                -0.39863935653424387,
                1.4257169930597489,
                0.8910004611181619,
                -0.3816237126560469,
                -1.1164276972888836,
                0.5663619599919713,
                0.7949018990841127,
                -0.8370560023266365,
                -1.7066687803676053,
                1.6823164293881125,
                1.8283783251451862,
                1.4913797542802991,
                1.9804706868631532,
                1.0440634498703047,
                0.7215303766833758,
                1.7570419243444861,
                2.182100671294174,
                1.5924827349913513,
                0.21332857915979622
            ],
            [
                -0.5289551886779187,
                -0.510090149392878,
                -0.699749818105623,
                -0.9652567078055659,
                -0.7399467686547861,
                -0.18272020847691936,
                -0.7357287086524618,
                -0.9991698237922488,
                0.025802439066448295,
                0.4105399064643613,
                -0.42787631330697884,
                0.06726040321091083,
                -0.41230712272047476,
                -0.4819864339778571,
                0.041988470221517964,
                0.36276270424760954,
                -0.3098248174755836,
                -0.2753204690170146,
                0.32269899764273857,
                0.6849997742886307,
                -0.7465434007191931,
                -0.7867438288347234,
                -0.6140735731197985,
                -0.6399127968850652,
                -0.7967141177060807,
                0.09403088426973852,
                -0.751988085485061,
                -1.000277285338356,
                -0.6359020861750326,
                -0.1963188694009187
            ],
            [
                -0.5825845500651188,
                -0.5766604431979169,
                -0.209816980673025,
                -1.1704480754530358,
                -0.4819394559002154,
                -0.23686484658795462,
                -0.5409082677310486,
                -1.1801799127416144,
                -0.07100672301374487,
                0.49288835969999995,
                -0.6352812682585164,
                0.2456282031666952,
                -0.6351985256955447,
                -0.9961799959280494,
                0.21341215231558833,
                1.0342089325173656,
                -0.654510588655999,
                -0.10995481747811599,
                0.2958240070003357,
                0.8272063550607087,
                -0.6906592416366937,
                -1.077916929583353,
                -1.0028814468182037,
                -1.0716525574564169,
                -0.4198886351102729,
                -0.28244498094755444,
                -0.4565212803855674,
                -1.2418653654063285,
                -1.0897782363244466,
                -0.3850137421227561
            ],
            [
                0.19810095458959723,
                0.696843931884524,
                0.7831862029759058,
                0.3610055138606001,
                0.500921452980389,
                -0.17507902680186285,
                0.3220132903013599,
                0.4387230632450267,
                0.22730309934046725,
                -0.09702488135311015,
                0.6117779058692631,
                -0.3411119087755966,
                0.6019972664338626,
                0.2603469411576805,
                -0.27215316316457017,
                -0.3657919513753127,
                0.5755524629557147,
                0.0945871553510487,
                -0.6950164627477516,
                -0.8435091072701472,
                0.8872224025070509,
                0.9145558176657287,
                0.8528437249706441,
                0.47328470834699304,
                0.8455502084866997,
                0.1195981442528875,
                0.6028608741546073,
                1.0312609409019269,
                0.8606695747013634,
                -0.13112782266629439
            ],
            [
                -0.6143627568159534,
                -0.34652756556453795,
                -0.048681004774625454,
                -0.2550971117990611,
                0.20723889554054525,
                -0.30718872481047604,
                -0.01848070044842172,
                -0.09543817542427879,
                0.2505646161508182,
                0.48304887677491665,
                -0.571575342374241,
                0.7026009746456171,
                0.13545756518754754,
                -0.0269158348434958,
                0.03510296173314156,
                0.1283636432854757,
                -0.1949799374451953,
                -0.22371532423685336,
                0.06918087891701773,
                0.5443593322100848,
                -0.4348839627330195,
                -0.7680584032313111,
                -0.6229571144712469,
                -0.6089076205383285,
                -0.44255542443215223,
                0.2668411813370458,
                -0.29500067453152956,
                -0.3696913401909537,
                -0.491625983003154,
                -0.26124722829315183
            ],
            [
                -0.8324799551735154,
                -0.380795091231865,
                -0.37754172809135084,
                -0.9792175632266982,
                -0.3677722306943725,
                -0.03405748393211496,
                -0.47976146047723217,
                -0.8745842875860005,
                0.33634312292268204,
                0.3713015693118118,
                -0.8842822577321479,
                0.056651201351308834,
                -0.46821999480599696,
                -0.9148912083642894,
                0.14958299542397552,
                0.8359381887239549,
                -0.8497726626896999,
                -0.2611596903603343,
                0.452743910587367,
                0.48651391530533866,
                -1.1575132997315352,
                -1.3791256428203942,
                -0.7336330288221996,
                -0.6908358683501167,
                -0.8756605637031358,
                -0.663715382122519,
                -0.514118850556657,
                -0.6853617230164821,
                -0.7932577038369167,
                0.3288853392563825
            ],
            [
                -0.8374110626977391,
                -0.8395759520116689,
                -0.8421250746137476,
                -1.3968827301591336,
                -0.2773319330602361,
                -0.3164427514285396,
                -1.1243356395108655,
                -1.1189286683998463,
                0.10521526028673281,
                0.3279479501317158,
                -1.698178303179938,
                0.36194518904835987,
                -0.8313993272286915,
                -1.3559297511212913,
                0.23925119623343508,
                0.5649976197383404,
                0.0073712864489470795,
                -0.3737765637177371,
                0.22666691157190608,
                1.346850040449336,
                -1.794491500988828,
                -1.7708307556448724,
                -1.1798108218194432,
                -1.5666711115723935,
                -0.7119319681107287,
                -0.5551609093546434,
                -1.0442040300600006,
                -1.6326414581427255,
                -1.0756422094120879,
                0.0780792016868823
            ],
            [
                -1.2697532943193246,
                -0.9674456356726414,
                -1.5114193969532044,
                -1.5234079845928212,
                -1.0182770417289506,
                -0.6508762882148857,
                -1.1883917820715912,
                -1.4638755100948202,
                -0.5882616453826984,
                0.9784665565131394,
                -1.976526743225964,
                0.14965711956963537,
                -1.2186841855963972,
                -1.3409269930442218,
                0.22831165883702703,
                0.9641594588967848,
                -0.6870760096130885,
                -0.8652235565104621,
                0.7157192260363212,
                0.9560556701389635,
                -1.826500011901301,
                -2.151365449436256,
                -1.9805745642585741,
                -1.639140296711888,
                -1.1099503664080184,
                -0.5899942055902545,
                -1.6672238590003994,
                -2.374642001669061,
                -1.2295110685822492,
                0.22666737177767407
            ],
            [
                0.18545768950144437,
                0.802388056014496,
                0.35683212032076467,
                0.3719706893980387,
                0.46731520950126876,
                -0.07049731474632633,
                0.731142099976783,
                0.9060239370857944,
                0.019953476252764432,
                -0.37058898120460665,
                0.9819174424587057,
                -0.5897831681128441,
                0.6585854804817844,
                0.9667254324483577,
                0.14891133609035997,
                -1.168191378441368,
                0.6810622336915431,
                0.6169338311608431,
                -0.6162635521948631,
                -1.2188444242627388,
                0.9400350698877508,
                1.364946955849342,
                0.78238309831819,
                0.6401316266091658,
                1.0576991940374108,
                0.08057840194078035,
                0.7671439427182661,
                0.8262789410494832,
                0.8967652013647233,
                -0.1930817047880537
            ],
            [
                0.36192059988259334,
                0.7770291071988956,
                0.5592460103112173,
                0.563413783076901,
                -0.020835741159149462,
                0.35463780983476634,
                0.6779440659857896,
                0.7821210616868544,
                0.16628652475975464,
                -0.47482870728473214,
                0.31203638988264987,
                -0.39902192205212644,
                0.03458721643537934,
                0.530672349401645,
                -0.07843557216470314,
                -0.0020117541817418873,
                0.7204331563863359,
                0.2602573909867892,
                -0.3390759365234349,
                -0.5160925546793094,
                0.5528927259318545,
                0.8257548120018559,
                0.3949276768256291,
                0.5481447532961108,
                -0.09108000201563125,
                0.07294214260803858,
                0.6182020232515986,
                0.6679861744545627,
                0.4064440409332064,
                0.2681887019020662
            ],
            [
                1.3100296094437567,
                1.1855129629161256,
                1.1086950028437732,
                0.8430781481494416,
                0.18341114260527747,
                0.0016680859353047468,
                1.0854710846309303,
                0.8379677237279526,
                0.2006985195466076,
                -0.8381061483712119,
                0.8679240336576657,
                -0.06631191003247285,
                0.9279898918858266,
                0.868777400665713,
                -0.5874769827907296,
                -0.6514490913725177,
                0.5667437873816089,
                0.4585055184607373,
                -0.584460582710929,
                -0.5437557253938796,
                1.329691859163519,
                1.333688028786095,
                1.3785951103831655,
                1.1748509468572508,
                0.748231832326115,
                0.02967741437695912,
                1.0638226648289912,
                1.3829170406304587,
                0.6806458437043785,
                0.5504999373888998
            ],
            [
                -0.43762043118276606,
                -0.9185543448879451,
                -0.8241212919963674,
                -0.20696584128906356,
                -0.13979612192794583,
                -0.2623968276000883,
                -0.15918731571353778,
                -0.43264173038739645,
                0.13934080094306284,
                0.16473646294043012,
                -0.8283320185977361,
                -0.08911803950345698,
                -0.5056545927565853,
                -0.5675212566166851,
                -0.05711385616264959,
                0.57286905241101,
                -0.39738831499942756,
                -0.2718817625420019,
                0.5350331396587619,
                0.758413696079908,
                -0.6323763879723345,
                -0.9679503137697727,
                -0.22088744990576098,
                -0.8699279751864244,
                -0.011630379512965139,
                -0.007795277622711133,
                -0.4517240360183127,
                -0.2614534029152819,
                -0.17456303817029037,
                0.123371944156102
            ],
            [
                0.7904226243946273,
                0.89788076603125,
                0.5703093539365803,
                0.5390070669408521,
                0.6469428193074747,
                0.036262175788551565,
                0.8192301344386831,
                0.5713152624510376,
                0.22765020049288706,
                -0.39337581003905425,
                0.8559655923597131,
                0.271825632876133,
                0.3330864598542893,
                0.9054531088774249,
                0.0664743637370831,
                -0.5563203476089615,
                -0.38675636087328796,
                0.4386209495013634,
                -0.6442732419937075,
                -1.067219501641562,
                0.7689289801319699,
                1.2096781202467992,
                0.9150983759979858,
                0.4329643434306679,
                1.0081113184412271,
                0.21411362070824103,
                0.7274111990582839,
                1.0017151221466605,
                0.5293616799574665,
                0.24908232386172838
            ],
            [
                -0.045410457515407704,
                -0.14528182176638604,
                -0.09868861166549568,
                -0.2560208564385209,
                0.11692561889486293,
                -0.040609333801929076,
                0.40611694337749243,
                -0.3360864367761674,
                -0.1672399022186664,
                0.8582297832172479,
                0.13586278069244193,
                0.2570556878747954,
                -0.01931007515362667,
                -0.47545901065235935,
                0.38422174009619303,
                -0.15468145246890658,
                -0.000908652961804646,
                -0.06525003984626346,
                -0.09428052251468891,
                0.592099609517398,
                -0.8002531338620468,
                0.08942747474337294,
                -0.4933273223776724,
                -0.7943216439457693,
                0.27667676786051043,
                0.7691484698948478,
                -0.6647806168629986,
                -0.4811158864906441,
                -0.6512969581346714,
                -0.17658351481422246
            ]
        ],
        "l2": [
            [
                0.2431291819092743,
                -0.12112835255953869,
                -0.3030375347675106,
                -0.4707170531029998,
                0.011145360143438057,
                -0.05134896511626013,
                -0.2374517426570099,
                0.09750930923859162,
                0.1664204776709534,
                0.18545437421974023,
                0.2298327487217254,
                -0.048196662096596676,
                -0.24023016567716943,
                -0.37007865573969817,
                0.020911387035201574,
                0.38843637327931957,
                0.05958634945281551,
                -0.06949079441242845,
                0.08661807256166888,
                0.7274973926641832,
                -0.35295159157020123,
                -0.4407534232186305,
                -0.23609153471883035,
                -0.5030242934854074,
                0.17653605811609824,
                -0.2861366969805904,
                0.2802607619782544,
                -0.002017355187402996,
                0.28005389902848227,
                0.20239770624966083
            ],
            [
                -1.2180245532273382,
                0.7628169675289738,
                1.0184303056958535,
                0.4485931235965279,
                0.699470352482837,
                0.7224931271592738,
                0.6980830821051222,
                -0.8782540662883548,
                -0.645062498139819,
                0.5853455501202433,
                0.39892018964407516,
                0.5303517597455377,
                0.7517775726238721,
                0.9000322253371831,
                -0.8166106942018916,
                0.191002385504604,
                -0.7632289720627333,
                0.5868995884670828,
                0.9521725913317531,
                -0.8904655869757074,
                0.3656046148359023,
                0.8007040889325282,
                0.6588175205984929,
                1.1809388577928233,
                -1.6228024575069757,
                -0.553937005732738,
                -0.6045083399229363,
                0.3717364792249222,
                -1.196738761930389,
                0.4953073945305536
            ],
            [
                -0.16699318205303898,
                0.006913321635867731,
                0.3449350205210798,
                -0.15878274756020713,
                0.15584039672540717,
                0.0926111854681601,
                -0.240227830485233,
                -0.22067239657874826,
                0.14182231999733777,
                0.356579152774451,
                0.02366135383196252,
                0.07305103694065766,
                0.5188653079566425,
                -0.14168239005244881,
                -0.25341838499405,
                0.38803550431248135,
                -0.1087113951960971,
                0.1824694156399115,
                -0.3192805022214361,
                -0.04348712719199688,
                0.0914658103460197,
                -0.11471593126238283,
                0.08890462212813223,
                0.06109636503975646,
                0.13032103702984316,
                -0.056053787264769686,
                -0.11616148783438102,
                0.6475285221920976,
                -0.20905183904223712,
                -0.19938647615412652
            ],
            [
                0.39961491285561873,
                0.09103290560468544,
                -0.25236662697584616,
                -0.5125867705782668,
                0.2539037163001659,
                -0.13919201243649734,
                -0.4075303397813632,
                0.3580293958859636,
                0.10911902098707635,
                -0.24952324144596988,
                -0.16577848873232962,
                -0.3900749909357147,
                0.3793362780786426,
                -0.022710734510053135,
                0.18889377871016258,
                -0.6104994294016864,
                0.1942020052217429,
                0.21663311994342743,
                0.22540906265087654,
                -0.17600917977739677,
                0.09202031858610059,
                -0.333629937359673,
                0.02683067027197207,
                -0.39224843003071386,
                0.20938822005461208,
                -0.27408545725913847,
                0.5204806603839632,
                -0.16810864827848698,
                0.31091464132292285,
                -0.5053650394134854
            ],
            [
                -0.608419053277861,
                0.5811040036390887,
                0.872903361769456,
                0.49423165449869727,
                0.6832682687531857,
                0.2841699810475201,
                0.542290888671074,
                -0.468787805302953,
                -0.6414633803233382,
                0.5579253690849427,
                0.155554082245683,
                0.5065373355283664,
                0.9972823953757041,
                0.24463336896892854,
                -0.3803049263255373,
                0.2956513618318636,
                -0.02120929625484074,
                0.6981346103957234,
                0.4280005273767428,
                -0.209983601861097,
                0.243293750494019,
                0.08311055067440391,
                0.9212778727180019,
                0.5730362064781854,
                -0.6702665667028769,
                -0.28075685513897686,
                -0.5338002142401265,
                0.3255361159581449,
                -0.073124022645594,
                0.1411489154061009
            ],
            [
                -0.51954148834674,
                0.2294055733768233,
                0.19051988997883268,
                -0.14734741110460955,
                0.4969944671013497,
                0.37158314503560425,
                0.1603755289737492,
                0.05937501270693414,
                -0.2873016946468837,
                0.313164299854431,
                0.2029645821001665,
                -0.1763021994135601,
                0.23579341123581196,
                0.4317057772406594,
                -0.30609861111286796,
                0.40611172349816704,
                0.31488938392852817,
                0.2951682272475953,
                0.03550422627187355,
                -0.3608356279756344,
                0.17331764553523915,
                0.6515504765303191,
                0.38519535822412926,
                0.7191922410633244,
                -0.6876330714282278,
                -0.1949730442615839,
                -0.11647699994149698,
                0.46083261156245187,
                -0.17415629021192303,
                -0.007429562398084655
            ],
            [
                0.1587265619859836,
                0.0025569511185778823,
                0.32163673147151667,
                0.04433800416246405,
                -0.1689263925968565,
                -0.27630420792977645,
                -0.08777658557248018,
                -0.03463279162970859,
                -0.29922061472786693,
                0.10879425321613773,
                0.002905084074228574,
                0.6771983878963054,
                -0.040848975444048106,
                -0.32141559807756737,
                -0.10537542384394231,
                0.04976259969497932,
                0.3770516089629785,
                0.07948339083177917,
                -0.19425710421800005,
                0.13108489725488742,
                0.07816980490812031,
                0.06791941342912224,
                0.03899628020954152,
                -0.14460798168422065,
                -0.17140960696684976,
                -0.20674281190209168,
                -0.15410690249736708,
                -0.06671832319812283,
                -0.4717542752809929,
                0.430775765281708
            ],
            [
                0.13361973694647736,
                0.599874887957146,
                0.3173496231168896,
                -0.19748468361865942,
                0.0001689341028562161,
                0.09813862172138849,
                0.259134788962083,
                0.024779025672214808,
                0.24687525401142282,
                -0.02604745715078526,
                0.10450810464738061,
                0.43120611374705353,
                0.1803341593431394,
                -0.0013805002196157338,
                -0.09118011305370378,
                0.27726501560508643,
                0.3077649318438208,
                -0.021918113361699704,
                0.018823904000733867,
                -0.05963396719444009,
                -0.05550723912470804,
                -0.3915691454312685,
                0.42740191715570214,
                0.2230716132541037,
                -0.11923877983045653,
                -0.03153099784449368,
                0.23453620057079527,
                -0.09792002852622814,
                0.09995471675548753,
                0.17885610675357366
            ],
            [
                0.37838078011758725,
                -0.22426955740226723,
                -0.13133892666995076,
                0.07960531646634147,
                -0.2629064274869535,
                -0.446043314899701,
                -0.56360324401328,
                0.32628784177042874,
                0.1181426608317968,
                0.02714288027295503,
                -0.539676011261907,
                -0.17547416661410245,
                -0.16317928836008377,
                -0.01668306972141806,
                0.2560281473344463,
                0.05520760444682511,
                0.22734048816557556,
                -0.0029117732640813747,
                -0.5425067138537875,
                -0.17421456039053107,
                -0.4520433463622557,
                0.354565203460974,
                -0.35981887821395986,
                -0.017353090967951283,
                0.3721220206839071,
                -0.0413430053380389,
                0.06639885426802529,
                -0.34795826187659296,
                0.4211871564731911,
                -0.305793152771679
            ],
            [
                0.43846967264215264,
                -0.6523527384922628,
                -0.21693024649671017,
                -0.4290915096391964,
                -0.29074272778392907,
                -0.08268001102302903,
                -0.010876929372412946,
                0.07958711618448612,
                0.2546378090811184,
                -0.24368738908516668,
                -0.09985056264014001,
                -0.051890910218824145,
                -0.5885039229713567,
                -0.3779055445024287,
                0.30012393579604135,
                0.2623994674788756,
                0.5406549829897923,
                -0.0531966725594761,
                -0.39245225735322503,
                0.640276346310744,
                -0.4123889979237075,
                -0.44902980944138005,
                0.19815700264238353,
                0.24278828250310866,
                0.23587738502514252,
                0.24937019017101864,
                -0.24252402612023138,
                -0.5567327630898089,
                0.45484421466431835,
                -0.27364541408659543
            ],
            [
                0.14911086793959882,
                -0.43987677578915774,
                -0.39572223911914817,
                -0.6786288469092627,
                -0.7762098563557658,
                -0.19373140436573788,
                0.17689889716491206,
                -0.11471292829241861,
                -0.06417521376960762,
                -0.10239185504245804,
                -0.2210015511430924,
                -0.26923226423190494,
                -0.175969282744847,
                -0.46369591895507845,
                0.4838136138750075,
                -0.267555578561045,
                0.35865879685325686,
                -0.45302575530817507,
                -0.456273556783223,
                0.3496655059563515,
                -0.3890281044568112,
                -0.6851500218324761,
                -0.4921137393303123,
                -0.5555870076862893,
                0.74596935822813,
                0.6086788194191594,
                0.59764255047226,
                -0.1292605573009062,
                -0.4046626336678111,
                -0.07563535713361748
            ],
            [
                0.6494019105823008,
                -0.24036496929328074,
                -0.5063390635279656,
                0.01818999121747885,
                -0.18368382890894316,
                -0.014770056459845488,
                -0.06679826823813546,
                -0.11249223508124911,
                0.17302946325337226,
                -0.11930588146976277,
                -0.08696328246945262,
                -0.5562910531532468,
                -0.34242253016240326,
                -0.4067552373379782,
                0.2874112040727362,
                -0.16005859565309188,
                0.4254826355169071,
                0.10482954482423881,
                -0.2973427170769284,
                0.014270024691011133,
                -0.09538273367774754,
                -0.30445386464486274,
                -0.4559741103126009,
                -0.013477862828378016,
                0.06216565907327893,
                0.3279466500319089,
                0.130938346866861,
                -0.025453832093058074,
                0.11242800292654623,
                0.02769670610339922
            ],
            [
                -1.592164727902565,
                0.6914186745025969,
                0.8518070646160625,
                0.2345601496593958,
                0.7136386521034377,
                0.5536396864277177,
                0.9361172624104529,
                -0.6401041648284282,
                -0.18078435440942478,
                0.9080808271546339,
                0.21512774529204456,
                0.1434553441319461,
                0.5714307500554896,
                0.655717907304303,
                -0.5393861232660253,
                0.02325600774146755,
                -1.61287448284901,
                0.7149478980202182,
                0.22103575931087888,
                -0.8106037627974912,
                0.24475013750210434,
                0.36633423613972166,
                1.2391865180922266,
                1.077810730562025,
                -0.8840713633872546,
                -0.2852775391403454,
                -0.6241398686049284,
                0.13971055319238904,
                -0.5130869140063824,
                0.4734730584835173
            ],
            [
                -0.5150395532196046,
                0.3045560706046814,
                0.4507458759491689,
                0.3041162391992223,
                -0.014294024279356022,
                0.5154304880566192,
                0.27977774927495014,
                -0.23106704314506,
                -0.2803930521125231,
                0.12673464635645354,
                0.6506989274524013,
                0.0963453517096132,
                0.30682021505183993,
                0.4651085029449682,
                0.3025929495182618,
                -0.17310644034347694,
                -0.436702257181236,
                0.39302403256368723,
                -0.08882732887972584,
                -0.47332551511935445,
                0.22950885826229758,
                0.14695611069437445,
                0.2535775068989657,
                -0.3163124274744343,
                -0.44340892411586974,
                0.11467032646231219,
                0.0441274544001155,
                0.4103396715623345,
                -0.08496635220401401,
                0.1899578470345833
            ],
            [
                1.1406107356603836,
                -1.2738569204068217,
                -1.624139022409948,
                -1.1520513105243295,
                -1.1429539529480492,
                -1.0716281066490172,
                -0.9384430139377452,
                0.7857320411323242,
                1.1267210278550683,
                -0.9887651701158996,
                -0.7637706643320654,
                -0.7303227711635172,
                -1.1382880721150421,
                -1.2228962894000757,
                0.9550533833385852,
                0.011010265315345604,
                1.3357636055871585,
                -0.6066676433880261,
                -1.0204717907309413,
                0.9926074598215352,
                -0.6578301518618908,
                -1.010379243987447,
                -1.1469858682838028,
                -0.9557658054255269,
                0.4459957057853577,
                0.6476993789963564,
                1.01904679221834,
                -0.6207125106987826,
                1.0242581582453596,
                -0.45539413444658794
            ],
            [
                0.08458129559707343,
                -0.5282832661274285,
                -0.4937065333367816,
                0.07342537563070457,
                -0.14440607118039964,
                -0.36610338870199827,
                -0.2896237571959859,
                0.545210824090192,
                0.43918257549114625,
                -0.28158579113064336,
                -0.4147971602339607,
                -0.38233351223745365,
                -0.3757312857026914,
                -0.915784161207592,
                -0.3464536389032467,
                -0.2254571973438617,
                0.14833014759834673,
                0.04367669229049415,
                -0.1518576218842823,
                0.18916427933146918,
                -0.14003039943860052,
                -0.12128887693060268,
                -0.3895964680360373,
                -0.050486690627162406,
                0.27470162140563487,
                0.5913956637038024,
                0.14636812350837974,
                -0.09289529902832899,
                0.1400156135650261,
                -0.2320201128120206
            ],
            [
                0.061114432678489386,
                -0.23291370883684606,
                0.6225149058884671,
                0.07191303417443913,
                0.5235968696941034,
                0.03407295490379072,
                -0.1552283013887461,
                -0.16534022597906178,
                0.1256517721295056,
                -0.10934392587226086,
                -0.03266997003384603,
                0.16636632017987635,
                0.16187315830072707,
                0.4699820675942692,
                -0.0016348777886978376,
                -0.8590325739485368,
                -0.06715968263846779,
                0.2637129026364189,
                0.4228229682910121,
                0.16972501299780324,
                0.15262752692547865,
                0.12590241842446384,
                0.2453888411135475,
                0.17477868086611184,
                0.0004887136465655691,
                0.37720347694216927,
                0.06308248506250977,
                0.7813958883647999,
                -0.27930292819736335,
                0.07667325239405547
            ],
            [
                0.46882620548840287,
                -0.18671734283756675,
                -0.5952361226914652,
                -0.30645175493722665,
                -0.8068079539334218,
                -0.16321297565987153,
                -0.5926845030041945,
                0.08985832310430736,
                0.1468512554105002,
                -0.7937105075051568,
                -0.5388977631071633,
                -0.20629787296892907,
                -1.1727840201051778,
                -0.3634182875158951,
                0.588785690144411,
                -0.2494404971654352,
                0.5917470742558033,
                -0.4581558733726074,
                -0.8158004733626072,
                0.5878783817817078,
                -0.2139686444921664,
                -0.6713477867527036,
                -0.3591425130236535,
                -0.24660491517174685,
                0.7529765576585787,
                -0.173042963021532,
                0.27427312420022065,
                -0.9852797608339079,
                0.7072164094393357,
                -0.14951542918961142
            ],
            [
                0.3835801633785122,
                -0.5354988203574969,
                -0.3220516162953638,
                -0.0651523993946765,
                -0.73223745452744,
                -0.7757513152906746,
                -0.6449722064048162,
                0.41782316475912173,
                0.36236007465174613,
                -0.6031965550439917,
                -0.25582253621590767,
                -0.5456161691083579,
                -0.6402269157602261,
                -0.2616680423564943,
                0.6452228951653725,
                0.1679791906927687,
                0.575463218506871,
                -0.3021156757474606,
                -0.7098221830228915,
                0.2974667614981519,
                -0.9355654379618873,
                -0.6671367638569434,
                -0.22344968579977206,
                -1.3250397765925097,
                0.8524264357681992,
                0.3549526917992091,
                0.4164345007013491,
                -0.5566976635211723,
                0.2623959337764942,
                0.037686925392634164
            ],
            [
                -0.9293468795763385,
                0.45889120618812285,
                0.616677067491706,
                -0.014356017425066559,
                0.15911009745566407,
                0.29461554497988535,
                0.2856131833275011,
                -0.35968405023687644,
                -1.0204221026662244,
                -0.01110237264610669,
                0.3171782312037585,
                -0.10495524457871346,
                0.5278319677413824,
                0.6946737283176903,
                -0.2425890444714075,
                0.3563232878857987,
                -1.1603606406285851,
                0.8879583342322018,
                0.6258498914836942,
                0.17355768729014975,
                0.19903183472577346,
                0.04228541475275625,
                0.6238983599323928,
                0.4317091127078129,
                -0.5315182556665785,
                -0.1211687099304776,
                -0.5310883355033796,
                0.24928914573754,
                -0.46341117390767367,
                0.3271131851659084
            ]
        ],
        "l3": [
            [
                -0.22545008298041339,
                0.006201861881102499,
                -0.41732259807278754,
                -0.2990568588675007,
                -0.09188517768294284,
                0.17649159657548902,
                0.12211202459063245,
                -0.06981518123562762,
                0.09231519824338191,
                0.13718809090643178,
                0.23434818848953398,
                -0.25678716724499356,
                -0.33496424146449755,
                -0.3202588384310645,
                0.17740022001610772,
                -0.4665942236079047,
                -0.015816393833882773,
                -0.6016268991385756,
                -0.039137416228151305,
                -0.04317809543957479
            ],
            [
                -0.32374617354519813,
                1.5059967039940991,
                0.18028322503129274,
                -0.591304831279631,
                0.2634696013031558,
                0.40302576313306604,
                -0.3695021132280515,
                0.11355451685678039,
                -0.02144607937040594,
                -0.7324602371530794,
                -0.5985723858352734,
                -0.31023586269933234,
                0.6528250533973082,
                0.8775958562054541,
                -1.2331127986674664,
                -0.7252385956474325,
                -0.20603755447109756,
                -1.425800951575049,
                -1.0018901375849723,
                0.7770391337684935
            ],
            [
                -0.3103583660732378,
                0.10175885872389674,
                -0.1037949870768898,
                0.2290488792495484,
                0.16341980402090409,
                0.0011672893878527449,
                0.07277903058011193,
                0.1777944561283288,
                0.4730191568001503,
                -0.5496143171362307,
                -0.49677282259475,
                -0.17288251836266302,
                0.5738764480022414,
                0.05974469305365425,
                -0.619204319260618,
                -0.15660019696585384,
                0.500791918609226,
                -0.5258789296748657,
                -0.46186566331537016,
                -0.27865449066534226
            ],
            [
                -0.7402267858168965,
                0.12696388008789888,
                -0.2684327343084833,
                -0.5375339543269841,
                0.643129630376323,
                0.6813613619288009,
                -0.1274085940904703,
                -0.5644265588106703,
                -0.5890857618357205,
                -0.40473051528970444,
                -0.4524529031619474,
                -0.8026010555644763,
                1.002941477616771,
                0.3175506727410839,
                -1.3934061251438026,
                -0.2457488560582836,
                0.8043608802856846,
                -0.7632933627579975,
                -0.5472284414085459,
                0.4733930598614849
            ],
            [
                -0.4159613188973895,
                1.3443923998312832,
                0.44341484714934876,
                -0.3656954128535202,
                0.6246651910125002,
                0.718507558140199,
                0.3522400999107178,
                -0.233378973786937,
                -0.7628812282649076,
                -0.3523845010850828,
                -0.5665595196429161,
                -0.983459097244012,
                1.1775303210526784,
                0.35327519149732434,
                -0.928343348487927,
                -0.5175646258511206,
                -0.1321765843125727,
                -0.5181971042668239,
                -0.9218096641057237,
                0.9645176149124258
            ],
            [
                0.550380446092868,
                -0.1280744282228309,
                0.1483578805527164,
                0.34516089904672087,
                0.003235814733675243,
                -0.23259520347280713,
                0.05076857134661424,
                -0.5394414656681157,
                0.061887627714444095,
                0.8083015768220442,
                0.3510345111003931,
                -0.011319629981040392,
                -0.06439911199974147,
                -0.27059765894061233,
                0.8022726380390082,
                -0.2585329059475521,
                -0.38840563886102597,
                0.31466622607774486,
                0.0943591265769307,
                -0.6069610272563953
            ],
            [
                0.07366547907010662,
                -1.0788244681365737,
                -0.33874905182093856,
                0.4770216556697067,
                -0.8070213325528817,
                -0.2840105398185475,
                -0.11190194668510865,
                -0.15190715960624324,
                -0.17495312510987102,
                0.4447424376447716,
                -0.07796971426184773,
                0.02378441069822583,
                -0.9157517969143976,
                -0.011019754378866415,
                0.4209902566332957,
                0.43632275122717107,
                0.08158130025806365,
                0.3488462098369313,
                0.4409778496965578,
                -0.4052518048204538
            ],
            [
                0.14520698805503715,
                0.6259116820929571,
                0.03978179872729854,
                -0.1757427465109541,
                -0.48096043812737754,
                0.1501954713254626,
                0.124516627704271,
                -0.389247408453807,
                -0.30721996045127253,
                -0.24647089023892182,
                0.04791478284496315,
                -0.2347613219395525,
                0.1920330802504215,
                0.19369833173864756,
                0.2705745179537647,
                -0.03785305604695526,
                -0.14638535325372162,
                0.14416590320283298,
                -0.04383740338996238,
                -0.16370074708585888
            ],
            [
                -0.09344432055500816,
                0.4251815672788006,
                0.23170751583540056,
                -0.12503731247620453,
                0.08682971227934014,
                -0.41634639638029103,
                -0.06317894644643875,
                -0.019389192058814654,
                -0.21269100996432008,
                -0.04423223983136808,
                -0.028905196547751512,
                -0.2658664741499942,
                0.09999288518437008,
                0.588059701801084,
                0.10775645661991677,
                -0.16003865311805543,
                0.08835700016931611,
                -0.590557320700158,
                -0.43088148864625125,
                0.390812575921801
            ],
            [
                0.06185980142344565,
                -1.0264491234878435,
                -0.2272550274179664,
                -0.2814661873259804,
                -1.189623960164725,
                -0.3128328182684637,
                -0.4449286486773686,
                -0.5581571486363603,
                0.853370659568095,
                0.2912360793300148,
                0.68897471592524,
                -0.06278238433512844,
                -1.434912438942541,
                -0.29930338259239325,
                1.253986460967888,
                0.3701167653890453,
                -0.5247406811229263,
                0.17544176331285333,
                0.5499993818634008,
                -1.1925548347973738
            ]
        ],
        "l4": [
            [
                -0.3944971685017091,
                -0.40020016192538876,
                -0.20669696316509606,
                0.9519254172358576,
                0.4449348709423935,
                0.1732412275854953,
                -0.3822176672522794,
                0.05703190101695526,
                -0.23201237946094302,
                0.36469370013670843
            ],
            [
                0.3106768508275589,
                0.11225897764360267,
                -0.22612525328561398,
                0.25982046995251684,
                0.5721891120435026,
                0.6011489725007023,
                -0.6268815519532797,
                -0.042345513716632005,
                0.1329728615219564,
                0.32132403696568673
            ],
            [
                -0.5567129659468342,
                -0.2733494067659648,
                -0.17071990521552508,
                0.3343080672977928,
                -0.4455123723657939,
                -0.5348053594769273,
                0.8791117718744208,
                -0.09055763044748937,
                0.0051810477600239225,
                0.3172524191175262
            ],
            [
                0.5951430617304723,
                -2.329365908183622,
                -0.6636295502671178,
                -1.479692154069602,
                -1.766287716027223,
                0.6200602172994258,
                0.7480183483596389,
                -0.3523939092716993,
                -1.0949035450154845,
                1.678571050602027
            ],
            [
                -0.4206668782745767,
                -0.7796356628707641,
                0.136931644830509,
                0.009722119503829457,
                0.6337705023677198,
                0.05318379926650036,
                -0.1731619314554343,
                -0.9862212332945199,
                0.17595106185736292,
                0.5728123174459703
            ],
            [
                -0.7445966265190157,
                0.39425136643324593,
                -0.3860435509637885,
                -0.11207208005171453,
                -0.08651885614231053,
                -0.5144807714250562,
                0.013522156550901145,
                0.38019393991069383,
                -0.026768650265943456,
                0.5546972248267243
            ],
            [
                0.22494772413298866,
                1.1069817166123765,
                0.8578601841511064,
                0.36784537318613164,
                0.4130494083920326,
                -0.043392935913193605,
                -0.9367941060109979,
                -0.7078753713252606,
                0.08203008291911834,
                0.055847126498007445
            ],
            [
                0.29908323671172704,
                0.9207113411842331,
                0.24860711765527554,
                0.8510721825928891,
                1.484909610419019,
                -0.7079196964811171,
                -0.9696943474074838,
                0.10081002301197431,
                0.01228074069239168,
                -1.598334443716055
            ],
            [
                0.12612872527387697,
                -0.08509013542084352,
                0.5319178526386836,
                0.014327578623029625,
                -0.2809961952232269,
                -0.30206301035670285,
                0.21592131689455685,
                -1.0711486323609394,
                -0.2681879214064717,
                0.2931615322358916
            ],
            [
                -0.7930234397244688,
                -0.7300581704318063,
                -0.667401195209225,
                -0.8324143842164979,
                -0.7294940472001376,
                0.6160156826826388,
                0.3836529138181514,
                0.16964815908409409,
                0.028398528507217823,
                0.5836217933203751
            ]
        ],
        "l5": [
            [
                0.3146481283420682,
                0.4438569079643014,
                -1.4863106555378665,
                -2.169853841041858,
                0.4130411084324376,
                0.442547398992731,
                0.3783062191657828,
                1.5777108821865926,
                -0.10923902568362608,
                -1.1931108293407084
            ],
            [
                -0.21468346784483022,
                0.04139646067226287,
                -0.7841325820254185,
                1.879966038950005,
                0.3788754592674233,
                0.2800698222744739,
                -1.1061407755258246,
                -1.7503935569215496,
                0.2702026086344327,
                0.9943654676475384
            ]
        ]
    },
    "biases": {
        "l1": [
            [
                -0.1563794399793785
            ],
            [
                -0.11797931136098425
            ],
            [
                -0.16491060109344502
            ],
            [
                -0.02651801580427473
            ],
            [
                -0.11442568418563835
            ],
            [
                -0.06640894658316131
            ],
            [
                -0.10333460156247404
            ],
            [
                -0.01758841993824666
            ],
            [
                -0.07129292131363485
            ],
            [
                -0.08981324846959392
            ],
            [
                -0.01026855965583511
            ],
            [
                -0.036861217286428945
            ],
            [
                -0.13402124125611609
            ],
            [
                -0.12752123316662548
            ],
            [
                -0.05100820003869041
            ],
            [
                -0.0287432511251405
            ],
            [
                -0.11696019898973475
            ],
            [
                -0.09063104517723354
            ],
            [
                -0.07757826614108673
            ],
            [
                -0.08542540776867952
            ],
            [
                -0.01831702539709523
            ],
            [
                -0.07529673705052663
            ],
            [
                -0.17060380494221897
            ],
            [
                -0.20960019947739375
            ],
            [
                -0.1263154296336212
            ],
            [
                -0.01139654230982215
            ],
            [
                -0.035972159662273955
            ],
            [
                -0.03578733376188814
            ],
            [
                -0.08266795474599994
            ],
            [
                -0.02561787887481707
            ]
        ],
        "l2": [
            [
                -0.009332443581820789
            ],
            [
                -0.20025686523060562
            ],
            [
                -0.006282131439438053
            ],
            [
                0.011138528365677164
            ],
            [
                -0.0674028914912701
            ],
            [
                -0.049384598893585124
            ],
            [
                0.003331213149446619
            ],
            [
                0.025960048700544792
            ],
            [
                -0.023578690141181264
            ],
            [
                -0.03534654931446713
            ],
            [
                -0.021734080515036776
            ],
            [
                0.013522332180818759
            ],
            [
                -0.1756666571666227
            ],
            [
                -0.03237851313450642
            ],
            [
                -0.0932304072440203
            ],
            [
                -0.009755380020239178
            ],
            [
                0.007448587427911716
            ],
            [
                -0.026474438361007328
            ],
            [
                -0.02588376910498744
            ],
            [
                -0.09469110788576181
            ]
        ],
        "l3": [
            [
                -0.022580115659555543
            ],
            [
                -0.11909157117286898
            ],
            [
                -0.011681495219180634
            ],
            [
                -0.06482994776079555
            ],
            [
                -0.18509199713433067
            ],
            [
                -0.02956857441909613
            ],
            [
                -0.024252030253903014
            ],
            [
                0.012429492959361077
            ],
            [
                0.014775801261977356
            ],
            [
                -0.05959608000958792
            ]
        ],
        "l4": [
            [
                -0.012057497266403445
            ],
            [
                -0.008369322417319256
            ],
            [
                -0.0026598296571640184
            ],
            [
                -0.09980342651204324
            ],
            [
                -0.004425007727120388
            ],
            [
                -0.005982248423834378
            ],
            [
                -0.04412757680771511
            ],
            [
                -0.1794904132863884
            ],
            [
                -0.0017121573879068333
            ],
            [
                -0.035283436831349275
            ]
        ],
        "l5": [
            [
                -0.07359967248148182
            ],
            [
                0.07559967248148186
            ]
        ]
    },
    "dataParameters": {
        "f2": {
            "mean": 14.176922807017545,
            "std": 3.5104059355078054,
            "median": 13.43
        },
        "f3": {
            "mean": 19.342877192982453,
            "std": 4.219883284173678,
            "median": 18.95
        },
        "f4": {
            "mean": 92.3280701754386,
            "std": 24.29010682505375,
            "median": 86.91
        },
        "f5": {
            "mean": 658.3712280701754,
            "std": 351.0804784351805,
            "median": 556.7
        },
        "f6": {
            "mean": 0.09759687719298248,
            "std": 0.014732575661990464,
            "median": 0.09676
        },
        "f7": {
            "mean": 0.10478175438596492,
            "std": 0.05511627664435112,
            "median": 0.08963
        },
        "f8": {
            "mean": 0.08863638140350877,
            "std": 0.08169820337791392,
            "median": 0.05929
        },
        "f9": {
            "mean": 0.04956600701754386,
            "std": 0.03988986274193449,
            "median": 0.03483
        },
        "f10": {
            "mean": 0.1821140350877193,
            "std": 0.02850372127050028,
            "median": 0.1794
        },
        "f11": {
            "mean": 0.06270614035087721,
            "std": 0.007134492528708969,
            "median": 0.06125
        },
        "f12": {
            "mean": 0.4102442105263158,
            "std": 0.2775371921716927,
            "median": 0.335
        },
        "f13": {
            "mean": 1.2309080701754387,
            "std": 0.596638449900299,
            "median": 1.081
        },
        "f14": {
            "mean": 2.8949035087719293,
            "std": 2.042133415321722,
            "median": 2.344
        },
        "f15": {
            "mean": 40.819087719298246,
            "std": 45.58153423087983,
            "median": 25.22
        },
        "f16": {
            "mean": 0.007211845614035087,
            "std": 0.0032544520412439793,
            "median": 0.006458
        },
        "f17": {
            "mean": 0.025016877192982456,
            "std": 0.018153128371287488,
            "median": 0.01966
        },
        "f18": {
            "mean": 0.030286588070175438,
            "std": 0.023240313620988412,
            "median": 0.02526
        },
        "f19": {
            "mean": 0.011495726315789474,
            "std": 0.005853151260505262,
            "median": 0.01075
        },
        "f20": {
            "mean": 0.0208244947368421,
            "std": 0.008876624597832922,
            "median": 0.01857
        },
        "f21": {
            "mean": 0.003688814736842105,
            "std": 0.002332712683462084,
            "median": 0.003121
        },
        "f22": {
            "mean": 16.27481052631579,
            "std": 4.68894649109666,
            "median": 14.99
        },
        "f23": {
            "mean": 25.708736842105264,
            "std": 6.172942819004665,
            "median": 25.5
        },
        "f24": {
            "mean": 107.46540350877193,
            "std": 32.99887168784888,
            "median": 98.0
        },
        "f25": {
            "mean": 876.0856140350877,
            "std": 549.3840105928931,
            "median": 697.7
        },
        "f26": {
            "mean": 0.1340239298245614,
            "std": 0.023977894661321376,
            "median": 0.1324
        },
        "f27": {
            "mean": 0.25341417543859646,
            "std": 0.16430998748427253,
            "median": 0.2074
        },
        "f28": {
            "mean": 0.2706077228070175,
            "std": 0.21122669458920515,
            "median": 0.231
        },
        "f29": {
            "mean": 0.11441628070175437,
            "std": 0.06623174041903937,
            "median": 0.101
        },
        "f30": {
            "mean": 0.2904852631578947,
            "std": 0.06494230478720993,
            "median": 0.2807
        },
        "f31": {
            "mean": 0.0835881754385965,
            "std": 0.018369119050390598,
            "median": 0.07953
        }
    },
    "targetColumnName": "f1",
    "targetClasses": [
        "B",
        "M"
    ]
}