{
    "model": {
        "network_1": {
            "input_layer": {
                "activation": "default"
            },
            "hidden_layer_1": {
                "neurons": 20,
                "activation": "sigmoid",
                "weights_init": "heUniform"
            },
            "hidden_layer_2": {
                "neurons": 10,
                "activation": "sigmoid",
                "weights_init": "heUniform"
            },
            "hidden_layer_3": {
                "neurons": 8,
                "activation": "sigmoid",
                "weights_init": "heUniform"
            },
            "hidden_layer_4": {
                "neurons": 8,
                "activation": "sigmoid",
                "weights_init": "heUniform"
            },
            "output_layer": {
                "activation": "softmax",
                "weights_init": "heUniform"
            }
        },
        "model_fit": {
            "network": "network_1",
            "loss": "binaryCrossEntropy",
            "learning_rate": 0.08,
            "batch_size": 32,
            "epochs": 120
        }
    },
    "weights": {
        "l1": [
            [
                -0.4120263926194875,
                -0.549953750541394,
                -0.5667717086202435,
                -0.839443267279352,
                -0.37508353653347115,
                -0.5210107897850578,
                -0.6464649332346319,
                -0.4410569790817167,
                0.11014593421091204,
                0.13249231104819695,
                -0.8480154663481371,
                -0.02706466624719761,
                -0.055877692229368725,
                -0.42213865372252934,
                -0.34277207786796715,
                -0.14022789309142644,
                0.2836035355604833,
                0.20993920544166464,
                0.3323666747960734,
                0.16015423597112052,
                -0.6437837153331178,
                -0.8502267900697337,
                -0.568364225091953,
                -0.8575450834261227,
                -0.42557842996681344,
                0.10028585791315708,
                -0.21733040303467668,
                -0.6398777027379906,
                0.12031705106232399,
                -0.04263472601205013
            ],
            [
                -1.0093336667703796,
                -0.6938962155650245,
                -1.156407691130212,
                -1.1713266669333433,
                -0.3907137803910805,
                -0.4873846925665236,
                -0.7085414708282212,
                -1.0834077794754333,
                -0.5580381062606058,
                0.2763889470953752,
                -0.5113351183580737,
                0.319392418470825,
                -0.5965399295819152,
                -0.6584055312829645,
                0.05884796961905271,
                -0.1465075857463434,
                -0.5311048308269931,
                -0.4032405232574816,
                0.008280893068497738,
                0.7600375528641681,
                -1.2722220175241847,
                -0.5246565020300636,
                -1.2498220159848017,
                -1.1927128582503568,
                -0.6369470503954664,
                -0.6390600815045804,
                -0.6512793126055948,
                -0.4799853426078578,
                -0.952409975289705,
                0.16160969480011736
            ],
            [
                -0.3536947978298534,
                0.01662064197433711,
                -0.45878261245335883,
                0.3240710726627399,
                0.4094242886628263,
                0.39681704283304453,
                -0.38676964939870717,
                -0.398528181784827,
                0.1842224994859904,
                -0.11102775271831436,
                -0.33664306415847944,
                0.3602142768950451,
                -0.43911228088821314,
                0.23890041670044257,
                0.3977370292650781,
                -0.30251371964835094,
                0.1708414674520609,
                0.21042430081004582,
                0.10990688170659094,
                0.11580336714974944,
                -0.4325443721958325,
                0.24684149406929431,
                -0.26790827424386887,
                0.13717407234576495,
                -0.1983881386683945,
                0.04409873585861507,
                0.18091916528515445,
                0.03231450480981744,
                -0.33182695503799103,
                -0.3967070422171611
            ],
            [
                0.10507364071412686,
                0.4999220236739262,
                0.10278757470107502,
                0.1501118743163285,
                0.10211779739029847,
                0.28697022954679136,
                0.3730145936266324,
                0.07237733978027629,
                0.31043871050717714,
                -0.40233811487806037,
                0.1908896491058662,
                0.32038577001391105,
                0.4274935723567413,
                0.4461985908719889,
                -0.08422035777141226,
                0.06336222931005445,
                -0.1736907674323037,
                0.24454577143796782,
                0.23390200354551646,
                0.005544219095698146,
                0.6894541848199673,
                0.6441726170047642,
                0.2860588849455596,
                0.17859823808714997,
                -0.004096734755095965,
                0.258083962282054,
                0.6392849014660278,
                0.4964486331430047,
                0.7339467089479681,
                -0.3375326339224247
            ],
            [
                -0.3976198803126533,
                -0.16447403067217178,
                0.12560830883473698,
                0.24116862027054098,
                -0.18181369920442514,
                0.10797528242590766,
                0.14137015608681172,
                -0.5069241658413426,
                0.3441698046720111,
                0.18011008308405568,
                -0.0837928713249179,
                -0.20926951118650217,
                -0.4370402327691905,
                0.12074909092160893,
                -0.07907020117317828,
                0.06705530465333798,
                -0.3346211315105857,
                -0.4300978994632668,
                0.16017208805913763,
                0.10578006332066908,
                -0.16932410600874112,
                -0.1137083118470945,
                -0.2464272903377096,
                -0.24648839353012972,
                -0.4325228807745343,
                0.2389901176262859,
                -0.18356513472832026,
                0.17263341566195753,
                0.2963550987135058,
                -0.14041413494345595
            ],
            [
                -0.44567929877135837,
                -0.04101526598169911,
                -0.42142009551004583,
                -0.637039342512857,
                0.22940483395568767,
                0.05130255027283799,
                -0.6980309476155682,
                -0.27224733236529625,
                -0.5489714562214617,
                0.0878538164958885,
                -0.7054766513005445,
                0.18304561065200708,
                -0.29337479181434967,
                -0.237544997882741,
                0.22956054419284097,
                0.4630881835995736,
                -0.0533873769863669,
                0.10938756990989125,
                0.46246467528093044,
                0.597646863411222,
                -0.5848104351007356,
                -0.5389537433698579,
                -0.5007268400694074,
                -0.2261240870975363,
                -0.43693703150060714,
                -0.16487007630577494,
                -0.6553014649370991,
                -0.3749682576505771,
                -0.6605743017701586,
                -0.44590659457234716
            ],
            [
                -0.043624014512797155,
                0.43209249587341086,
                0.34090706316677455,
                0.5381173009502088,
                0.42086646839585135,
                0.024241527220097467,
                0.472503032524362,
                0.29939070881995955,
                0.04580013852268751,
                -0.10644357961677313,
                0.18513875716479739,
                -0.3402385961792033,
                0.41742473982120687,
                0.6400776762846784,
                -0.42700021346397515,
                -0.19909509914543477,
                0.2802897385140857,
                0.38064098062219953,
                -0.3715893184453638,
                -0.17442808036826934,
                -0.02198235731922551,
                -0.0033260725246917525,
                0.22146921879462633,
                0.4253387244535756,
                0.32466343090663163,
                0.48424774861756154,
                0.19038179340109532,
                0.003719674328832605,
                -0.05427531079461133,
                0.44019475546331815
            ],
            [
                0.7680193810903404,
                0.6950222992981856,
                -0.03403237491951521,
                0.30312675544387985,
                0.21626083778662653,
                0.09050879460937879,
                0.052235491598224014,
                0.6231534239904891,
                0.24387003848704278,
                0.19715142771834088,
                0.06918357538677244,
                -0.1881611431648992,
                0.5275861960122346,
                0.05120516106842746,
                -0.22742391583299856,
                -0.3425551735257141,
                0.5510412212580634,
                0.21620620677253716,
                -0.5130715245240371,
                -0.16903237657576045,
                0.688195070639691,
                0.4519928983123419,
                0.01674724394622242,
                0.7780618125946528,
                0.055624614607874996,
                0.5014571906516333,
                0.13473613544198215,
                0.540085986673196,
                0.04227138548780787,
                0.09172699771543223
            ],
            [
                0.028734019782155347,
                0.17122572150413212,
                -0.2639369388531234,
                -0.22826333233458268,
                -0.12074647711801335,
                -0.018909777726018182,
                0.051547452623492196,
                0.20515029772844134,
                -0.29429260419854203,
                0.05022320131733859,
                -0.2220792408186967,
                -0.3265441378961748,
                -0.0007484580324082589,
                0.4717176351537611,
                0.2046089545679234,
                -0.3930609507622929,
                -0.15046009218778472,
                0.37413107571514626,
                -0.10856317907165215,
                0.20493640119634698,
                0.2653802579626255,
                0.5851194948651072,
                0.521402607130509,
                0.5575047248124284,
                0.4087180636250622,
                -0.12381271958036984,
                0.3763194402814251,
                0.0119908624142809,
                0.005884760812794058,
                0.014645317450302548
            ],
            [
                0.6722648023875498,
                0.5216585749515572,
                0.5307887102406998,
                0.26477902886339,
                0.6616766688051923,
                -0.1582509309758041,
                0.7790626505743272,
                0.5132597077876679,
                -0.056938098093455854,
                -0.05594255167716188,
                0.47850107047284757,
                0.08837726263874383,
                0.5988724840451565,
                0.513633326490303,
                -0.30243061027756046,
                -0.5204300647436122,
                -0.20720260888087924,
                0.02700405156772206,
                -0.013115884277094429,
                -0.48961281879880836,
                0.8654148225847191,
                0.40367503546057265,
                0.31457308734589273,
                0.441545139806864,
                0.7868458556957344,
                0.012239091046580004,
                0.2203216294797931,
                0.9077383241307614,
                0.6736645631176501,
                0.4110926483031364
            ],
            [
                -0.984778753862915,
                -0.40899166183176405,
                -0.5803558137192988,
                -0.7960358927393997,
                -0.39393515013069175,
                -0.014826079614963713,
                -0.8800126214406434,
                -0.413089367893735,
                -0.49516307868949105,
                0.14699350671965217,
                -0.87531173228802,
                0.05538545029394821,
                -0.13917991574857294,
                -0.7792172158755643,
                -0.3859802665439845,
                -0.1536706730527341,
                -0.29950765846470073,
                -0.24755982713606123,
                0.15328230537986062,
                0.24603607474723008,
                -0.459752800895855,
                -0.32623786416349654,
                -0.5634650281901756,
                -0.9208038983681289,
                -0.015185268575423986,
                -0.6589952693744152,
                -0.7856113647919274,
                -0.9301769994984603,
                -0.11530899960502822,
                -0.35730501409563775
            ],
            [
                0.5767559642368146,
                0.49654376605649897,
                0.565232341704569,
                0.18991233253684564,
                0.10023804706414262,
                0.2928543671101743,
                0.7033383514579119,
                0.8775489124189079,
                -0.007151397801314025,
                0.1696245021227894,
                0.36183365642386267,
                0.3553438538175544,
                0.6596666749800147,
                0.7500645205107669,
                0.3048319896670018,
                0.2956041842211705,
                0.10519948983762696,
                0.6641798312510345,
                -0.23564356302440279,
                -0.042827103727694056,
                0.8083262901695525,
                0.5741293575499772,
                0.6883685028658207,
                0.9548769331759003,
                0.21378738875424919,
                0.6094311721776504,
                0.7171413876687307,
                0.7125389050287813,
                0.12379862253509231,
                -0.285847535594553
            ],
            [
                0.7939959876036016,
                0.15428724711478148,
                0.8924490498580367,
                0.888839288476289,
                0.05507368151038218,
                -0.09296226840910231,
                0.7527199565580102,
                0.6765386208067155,
                0.014728015735074151,
                -0.2985865545936595,
                0.32729457961541847,
                0.4835279116899545,
                0.5477273077033692,
                0.525618440173944,
                -0.4856598121614476,
                -0.35623966090226733,
                0.3971235018716042,
                0.20765752025117076,
                -0.5353317169286205,
                -0.2968448467630475,
                0.9567943076586939,
                0.9448371637560085,
                0.38081753197533524,
                0.3715548272654303,
                0.47741940599532484,
                0.5183416315118082,
                0.6761032099514948,
                0.8910609339312239,
                0.22934943113902376,
                0.09725628110017742
            ],
            [
                0.4009926259254139,
                0.39111030824579096,
                0.8136402587739469,
                0.8770225068122578,
                0.1769451816859461,
                -0.15615628152027702,
                0.2423932428064294,
                0.5224368148022811,
                -0.007490986543612896,
                -0.4815696288955823,
                0.8771327840909086,
                -0.10261175703551947,
                0.10696816834729612,
                0.4426491646699469,
                -0.31350225918963176,
                0.13336684236952875,
                0.13697316052231215,
                0.04903657181085984,
                0.1211587661961176,
                -0.3356078810783108,
                0.7658655076884209,
                0.48211367286703216,
                0.2840447927927568,
                0.5903119520816124,
                0.7097561350509212,
                0.5397399414142253,
                0.7061434930677954,
                0.9222574609033956,
                0.11043673488697396,
                -0.13772533681939847
            ],
            [
                -0.20395983772977275,
                0.38977614531486515,
                -0.45866598422658067,
                0.3386095240595047,
                -0.254582382231633,
                0.2107649811363426,
                0.06847195191207461,
                0.34957579319233095,
                0.2961790841053676,
                -0.3255036224776986,
                -0.10192419226702727,
                0.38377705642946097,
                0.07318070221277681,
                -0.09724948563524616,
                0.170589167139258,
                0.1917420298096014,
                -0.2685348599818323,
                -0.25695452874837615,
                0.40157712513395355,
                -0.2434166553515575,
                -0.30764072702567585,
                -0.3536691343823175,
                -0.189323785125043,
                -0.48360839838658604,
                -0.34566733636589064,
                0.20051405151093238,
                -0.31410768942896045,
                -0.4631962053415984,
                -0.3039165501504581,
                -0.20120490272406572
            ],
            [
                -0.15082086884539544,
                0.030862530937797856,
                0.09247405001687617,
                -0.02667224418359155,
                -0.2833334098597497,
                0.2865639891237984,
                -0.43680662263065445,
                -0.28476861179048896,
                -0.037304249385005046,
                0.2724717755097907,
                -0.24887530084018042,
                -0.09132721760079654,
                0.19494635040075065,
                0.2510096750078391,
                0.1972614343503444,
                0.2306913198554031,
                -0.23904288178777777,
                -0.01270128429922652,
                0.3000310917437936,
                0.2760729598521456,
                -0.33507153934898887,
                0.1668382785093232,
                -0.1304271008522556,
                -0.1501654021647072,
                -0.47180511725641777,
                0.10934073471908715,
                0.1018796577147957,
                -0.3435975778158751,
                0.23782128067774463,
                -0.127170128226805
            ],
            [
                0.2109158770848036,
                -0.21946673720547488,
                -0.3876055759357302,
                -0.3034900849700634,
                0.19920341538895212,
                0.23617630210628474,
                -0.2091491969357408,
                0.04420533510499553,
                0.04837263611917253,
                0.24366577410476542,
                -0.056150720128206634,
                -0.20254938003119483,
                -0.31866148156595114,
                0.1437440549600909,
                0.28707841784782057,
                0.45495236714394277,
                -0.02560480848220607,
                -0.18934790234580937,
                0.2933399188539992,
                -0.17828704701740114,
                -0.16277816048407606,
                -0.04875165028566482,
                0.2819264577113937,
                -0.19887743879482067,
                -0.13292161978343864,
                0.07838646324047328,
                0.4220810915103652,
                0.24722418725651094,
                -0.38913274133823117,
                -0.05601865231998903
            ],
            [
                -0.6516412071302456,
                -0.781796889148971,
                0.018661880238031284,
                -0.2829636735493376,
                -0.6634416534091511,
                -0.18641072879979959,
                -0.4819168061574725,
                -0.11954609126543549,
                -0.35213677570552576,
                0.3403636385081159,
                -0.4394659275597295,
                -0.4627395686855901,
                -0.34140634651641427,
                -0.5257090731538185,
                -0.2640181037625383,
                -0.1228130463238162,
                0.3255964161726281,
                0.1085662915039401,
                -0.20984956462524482,
                0.29005196666506955,
                -0.8706446561650931,
                -0.8803831854293475,
                -0.5902802665182117,
                -0.7302184761724876,
                -0.2118031579453915,
                -0.3406824367696824,
                0.020267847166430847,
                -0.8422112974346849,
                -0.018900172926068503,
                0.07889585837591781
            ],
            [
                -0.0045240813098157045,
                -0.2700937823327822,
                0.20313327235964693,
                -0.12833040540197152,
                0.17988957389385632,
                -0.2833928806744409,
                -0.45576026087355803,
                0.3694202670227497,
                0.19266961130076954,
                0.25444278041654655,
                -0.20836929895285433,
                -0.24312068726814257,
                0.01895336707915348,
                -0.4168998107529399,
                -0.06478135250170891,
                0.15302433864811296,
                -0.2589819152326317,
                -0.31601935823996163,
                -0.39224689482556757,
                0.053705634751186226,
                0.41132665794486967,
                0.41405064975646017,
                0.3363263240247623,
                0.21936470153133655,
                -0.17959230962450554,
                0.2939617572959913,
                -0.3080506416565574,
                0.2587478577401845,
                -0.19361275386707616,
                -0.09097442712168827
            ],
            [
                0.5837704156434427,
                0.7498717087162339,
                0.10611179793045677,
                0.09495845913347702,
                0.34660020347492393,
                0.26113263905630363,
                0.781141847781695,
                0.3280225088073095,
                0.3837793996016475,
                -0.1009344870553815,
                0.4847213237490189,
                0.04117291309461095,
                0.31699530221267086,
                0.5457370319757334,
                -0.47660325068911785,
                -0.2294837733659181,
                0.021854585404375883,
                0.20585104457781236,
                0.15832284859220752,
                0.029066900802950626,
                0.8802476171474148,
                0.7937433598256994,
                0.6218704689519968,
                0.47062802925268615,
                0.2640213956508693,
                -0.21528944105261066,
                0.5624777883802738,
                0.7847215350686699,
                0.1303052188077919,
                -0.26057077395700995
            ]
        ],
        "l2": [
            [
                -0.2560759337308997,
                -0.7098959057960794,
                -0.3007692193937226,
                0.1783633352053492,
                -0.4365775368785593,
                -0.6843198289797089,
                0.7010960518456414,
                0.28650473027015827,
                -0.25083125224685204,
                0.5970904737951857,
                -0.7272952329574529,
                0.8476556252760177,
                0.5151879720135869,
                0.3780453698289534,
                0.2588858096449534,
                0.05952896469287866,
                -0.12676506693869366,
                -0.03597275249695955,
                -0.28006983750662223,
                0.2706754302937648
            ],
            [
                -0.06482946037011031,
                0.3550934623144384,
                -0.17683011686230934,
                -0.557655749095907,
                0.48633479009556213,
                -0.43006623742665906,
                0.3939049437539856,
                -0.22566059059870464,
                0.2885128441103069,
                0.2615237252917981,
                0.48701416960321775,
                -0.3326606352333434,
                -0.07496093231071699,
                -0.02021282703481048,
                0.343296298856557,
                0.23704424204603475,
                -0.47916093428283446,
                -0.24778871368809982,
                -0.09405526734305504,
                -0.5662906598559554
            ],
            [
                -0.27314597538726104,
                0.13965097501480825,
                -0.2036010557418634,
                -0.31319404073653395,
                0.046099866365098545,
                -0.08719448821490532,
                0.49209161335968216,
                -0.08043620185568663,
                -0.45920456721068953,
                0.31365593622848137,
                -0.48104868669879564,
                0.4240779259018519,
                -0.3981982969862059,
                -0.3573609879377763,
                0.26683301066289977,
                -0.22403431003214458,
                0.3292475324090208,
                -0.2401111408211169,
                -0.446941537127099,
                -0.10699136997749592
            ],
            [
                0.2953036605800593,
                0.8683243035233932,
                -0.11507802579033008,
                -0.5409268574919207,
                0.14375264506181346,
                0.9268971246032027,
                0.10858888001564138,
                -0.23302050247547468,
                -0.6349386733291164,
                -0.7109036571338752,
                0.4617963034445183,
                -0.2709952971311701,
                -0.8841006948075791,
                -0.37787270667010026,
                -0.16588985170044995,
                0.2528767151108177,
                -0.3181832454821274,
                0.6823107012216165,
                -0.15106520358679054,
                -1.1156912533012693
            ],
            [
                1.0591530735803325,
                0.6026579883301865,
                0.187881552828264,
                -0.6008364054250606,
                0.3008950086168147,
                0.6400745164002466,
                -0.623188681620524,
                -0.897321009201782,
                -0.35374976929711077,
                -0.45010980555978575,
                0.7733959690844223,
                -1.091120990283772,
                -1.23180960983653,
                -1.2608292598699968,
                0.4624768017963477,
                -0.27410525546442577,
                -0.005794197097478269,
                0.9508179248662821,
                -0.045524424716516874,
                -0.4420641687215494
            ],
            [
                -0.6810096474521689,
                -0.2888008727902278,
                -0.38236619152002393,
                0.31332766099143616,
                0.3577548359830662,
                -0.10540444426874182,
                0.19404577652571253,
                0.2125877893809481,
                0.41311643542411214,
                0.8387306051536637,
                -0.3219089338070671,
                0.29399020652655583,
                0.28819373760975325,
                0.03214645350255778,
                -0.4269554749903429,
                0.21546183300295058,
                -0.5424858657736101,
                -0.04835777334563091,
                0.35014589346004515,
                -0.03211621556575757
            ],
            [
                -0.4056268119168632,
                0.04373904730145168,
                -0.11007683414888665,
                0.4333877224720671,
                -0.008953576135487676,
                -0.7166743187356255,
                0.5089712532116363,
                0.6127006940205347,
                0.3897530978105575,
                0.2742178144762586,
                -0.04029170531805395,
                0.09632841625519484,
                0.7354455541495111,
                0.46222245974870824,
                -0.49029855407082584,
                -0.5726486483476751,
                -0.1219778975586652,
                0.0788715390063966,
                0.28663393913355767,
                -0.20410781663684496
            ],
            [
                0.16540780164689434,
                0.8432564139777451,
                -0.1562447286541207,
                -0.2571000727144223,
                0.4439752170724629,
                -0.033115171074982255,
                -0.0559141380016019,
                -0.7711334790196597,
                -0.4742670254469319,
                -1.0246692595108124,
                0.5425850299680208,
                -0.03869059310550194,
                -0.13251871364459317,
                -0.9869061666479633,
                0.16016330977084084,
                0.3268113478310739,
                0.4974701800054112,
                0.8765763488148011,
                0.12690401507864782,
                -0.47818944192666163
            ],
            [
                0.8313093069340483,
                0.6909974795354912,
                0.26545758365927435,
                -0.6910352553999408,
                -0.03811671790138241,
                0.7355852462969446,
                -0.702402938197237,
                -0.12132030008914102,
                -0.03157070158977982,
                -0.6746697729764325,
                0.09791394319015452,
                -0.5631793970993415,
                -0.3677762529020471,
                -0.004017388645982693,
                0.1974410188991359,
                0.5060161090537943,
                -0.10085588185672609,
                0.5071747886598553,
                -0.3446233970047579,
                -0.8143342056153606
            ],
            [
                -0.18828267489718947,
                0.7035705690203766,
                -0.12964185600860328,
                -0.15821478932315397,
                -0.4686132495306867,
                -0.04016060386199358,
                0.12140571350314887,
                -0.24348969673396773,
                -0.18804032528485404,
                -0.015187024067993377,
                0.012386078556808901,
                -0.2532157700280943,
                -0.2952420941567915,
                -0.3476279090565164,
                -0.02771746001036281,
                0.35061551859731316,
                0.4537049602368811,
                -0.1786578531528915,
                0.3546294254108681,
                -0.7299583574620943
            ]
        ],
        "l3": [
            [
                0.8880223664229249,
                -0.40618235342202696,
                0.5882154198940364,
                -1.2184452337938299,
                -0.3124871287036898,
                0.6754781311793143,
                0.5020003954664312,
                -1.1917016349619098,
                -0.8380705005214223,
                0.08754592982780267
            ],
            [
                -0.7558109433651636,
                -0.10666691037519195,
                -0.13023941007147183,
                0.5062744992310142,
                1.3085541229820346,
                -1.0740419268273271,
                -0.7861210972395155,
                0.2500487691389822,
                0.7333224180915889,
                -0.15269905330505826
            ],
            [
                -0.08631590037427865,
                0.2900274906397894,
                0.4631501299729771,
                0.8137368183590932,
                1.02156213383632,
                -0.776546448830384,
                0.5282437349862278,
                0.2627532125862575,
                -0.031266033830316405,
                0.649756715773903
            ],
            [
                0.9422418480425815,
                0.2319437255465425,
                0.43967284544441715,
                -1.229502729134831,
                -0.9768310671143704,
                0.15935676429771378,
                0.2563387442586021,
                -0.4116342861934714,
                -1.1906131859536342,
                -0.6994975653953261
            ],
            [
                0.4194407177322903,
                -0.2822302090898816,
                0.41502383772793744,
                -0.1773536669344164,
                -0.8611534528661359,
                0.34878800224230133,
                -0.14737254732630298,
                -0.7488289842385091,
                -0.17615295142217233,
                -0.3887530340681355
            ],
            [
                -0.5599563975399078,
                0.48185170014326134,
                -0.021855958667032754,
                0.5978232594637363,
                1.0757308498922904,
                -0.17698821869956108,
                -0.8800110243716934,
                0.9508239660064495,
                1.112354806480383,
                0.32626775384299134
            ],
            [
                0.6531629808746076,
                -0.6153972624948848,
                0.7422301025519302,
                0.08640035951779922,
                0.07520944256211456,
                0.015770348538399877,
                -0.09179881048589067,
                0.7403705166980975,
                0.042253965695499,
                0.6768431531105733
            ],
            [
                0.3816704334325518,
                0.23034628268335414,
                -0.7200728537992551,
                -0.4701450294629532,
                -0.5967434255013729,
                -0.015899637455877778,
                0.07078579844335346,
                -0.6691798467819209,
                0.2595162647045656,
                -0.1477944903923744
            ]
        ],
        "l4": [
            [
                -0.20851335278121186,
                0.3007313981100251,
                -0.41434138067477244,
                -0.5896789845557561,
                0.31002389108604517,
                0.9473145955813713,
                -0.037210755698256166,
                0.4603848135489379
            ],
            [
                -0.6932761641893272,
                0.6674293297713335,
                0.2769492617545197,
                0.5567571178086277,
                0.5357332239910333,
                0.6926847838482417,
                0.7949419956387405,
                0.6093301815817875
            ],
            [
                -0.4451592417585228,
                0.6410342014521133,
                0.3483565281171422,
                -0.8723932339503888,
                -0.2572601565289673,
                1.1351550644768884,
                -0.12479126698577428,
                -0.546142821889493
            ],
            [
                0.938223936709978,
                0.4562112092219164,
                -0.8499975920619031,
                -0.1318262148313877,
                0.7638905741512192,
                0.4341618527134448,
                0.3783823993691899,
                0.3966285162567039
            ],
            [
                -1.029448939766561,
                1.0204554828518542,
                0.21011511547510242,
                -0.4045102460240114,
                -0.91554191622744,
                0.522786531487298,
                -0.181342868118856,
                0.4199558163609445
            ],
            [
                -0.31026957185723014,
                0.07566721515745511,
                0.5328776178786797,
                -0.2935837869722858,
                -0.8488003016787389,
                0.20089270805290346,
                0.21099464882474847,
                -0.4180147662048585
            ],
            [
                1.1345926662173298,
                -0.9812778725411238,
                -0.4372198621237175,
                0.20930210026920654,
                -0.20586312045714877,
                -1.338225544814141,
                0.43051506861846195,
                0.7784813422105619
            ],
            [
                1.0646915360954006,
                -1.231663180157224,
                -0.6211247303285387,
                1.5417435273457794,
                0.9615310550829862,
                -1.5416247446699103,
                -0.8562068507603008,
                0.8190925997066674
            ]
        ],
        "l5": [
            [
                0.4630040677580474,
                0.5145304217230483,
                1.4868364114258257,
                -0.5455378023220449,
                1.2099780332153902,
                -0.23190239037028743,
                -1.315524799359128,
                -1.8832509793745018
            ],
            [
                -0.353116584199057,
                0.320984182451256,
                -0.7702548224017198,
                0.1273698004937275,
                -0.7032249747831135,
                -1.1153483214418511,
                1.2914100369808574,
                1.9026153978995908
            ]
        ]
    },
    "biases": {
        "l1": [
            [
                -0.08168134225449541
            ],
            [
                -0.1058745228335418
            ],
            [
                0.004353678066351409
            ],
            [
                0.00034075985048377715
            ],
            [
                -0.01222571596691952
            ],
            [
                -0.05958017753032513
            ],
            [
                -0.018959709552413755
            ],
            [
                -0.00971064473590497
            ],
            [
                0.0017124428061164295
            ],
            [
                -0.06337829720718813
            ],
            [
                -0.06440231489824406
            ],
            [
                -0.022263222141234055
            ],
            [
                -0.03192577385480214
            ],
            [
                -0.015572017047418818
            ],
            [
                -0.017393001177129826
            ],
            [
                -0.00529495492156394
            ],
            [
                0.008649019418509544
            ],
            [
                -0.0926688933118251
            ],
            [
                0.0069620485171660775
            ],
            [
                -0.019577582021554983
            ]
        ],
        "l2": [
            [
                -0.0749012033765949
            ],
            [
                -0.01706214206475072
            ],
            [
                -0.013933134193984963
            ],
            [
                -0.049014130244779325
            ],
            [
                -0.14851793171777364
            ],
            [
                -0.029727205974589884
            ],
            [
                -0.019235450389397488
            ],
            [
                -0.06252546801558234
            ],
            [
                -0.08116816423327021
            ],
            [
                -0.004963064096065574
            ]
        ],
        "l3": [
            [
                -0.09785044436585796
            ],
            [
                -0.06692461707920998
            ],
            [
                -0.025572146626929353
            ],
            [
                -0.07193369349709049
            ],
            [
                -0.022035186603058178
            ],
            [
                -0.1131744536624204
            ],
            [
                0.012217040749345626
            ],
            [
                -0.05236399280340932
            ]
        ],
        "l4": [
            [
                -0.016643603527197983
            ],
            [
                -0.011708801359070122
            ],
            [
                -0.07233390864080255
            ],
            [
                -0.015990137469087857
            ],
            [
                -0.0625846317836735
            ],
            [
                -0.02586955933247815
            ],
            [
                -0.07997667635785632
            ],
            [
                -0.1438410468924504
            ]
        ],
        "l5": [
            [
                0.08556417332927113
            ],
            [
                -0.08356417332927106
            ]
        ]
    },
    "dataParameters": "{\n    \"f2\":{\n        \"mean\":14.176922807,\n        \"std\":3.5104059355,\n        \"median\":13.43\n    },\n    \"f3\":{\n        \"mean\":19.342877193,\n        \"std\":4.2198832842,\n        \"median\":18.95\n    },\n    \"f4\":{\n        \"mean\":92.3280701754,\n        \"std\":24.2901068251,\n        \"median\":86.91\n    },\n    \"f5\":{\n        \"mean\":658.3712280702,\n        \"std\":351.0804784352,\n        \"median\":556.7\n    },\n    \"f6\":{\n        \"mean\":0.0975968772,\n        \"std\":0.0147325757,\n        \"median\":0.09676\n    },\n    \"f7\":{\n        \"mean\":0.1047817544,\n        \"std\":0.0551162766,\n        \"median\":0.08963\n    },\n    \"f8\":{\n        \"mean\":0.0886363814,\n        \"std\":0.0816982034,\n        \"median\":0.05929\n    },\n    \"f9\":{\n        \"mean\":0.049566007,\n        \"std\":0.0398898627,\n        \"median\":0.03483\n    },\n    \"f10\":{\n        \"mean\":0.1821140351,\n        \"std\":0.0285037213,\n        \"median\":0.1794\n    },\n    \"f11\":{\n        \"mean\":0.0627061404,\n        \"std\":0.0071344925,\n        \"median\":0.06125\n    },\n    \"f12\":{\n        \"mean\":0.4102442105,\n        \"std\":0.2775371922,\n        \"median\":0.335\n    },\n    \"f13\":{\n        \"mean\":1.2309080702,\n        \"std\":0.5966384499,\n        \"median\":1.081\n    },\n    \"f14\":{\n        \"mean\":2.8949035088,\n        \"std\":2.0421334153,\n        \"median\":2.344\n    },\n    \"f15\":{\n        \"mean\":40.8190877193,\n        \"std\":45.5815342309,\n        \"median\":25.22\n    },\n    \"f16\":{\n        \"mean\":0.0072118456,\n        \"std\":0.003254452,\n        \"median\":0.006458\n    },\n    \"f17\":{\n        \"mean\":0.0250168772,\n        \"std\":0.0181531284,\n        \"median\":0.01966\n    },\n    \"f18\":{\n        \"mean\":0.0302865881,\n        \"std\":0.0232403136,\n        \"median\":0.02526\n    },\n    \"f19\":{\n        \"mean\":0.0114957263,\n        \"std\":0.0058531513,\n        \"median\":0.01075\n    },\n    \"f20\":{\n        \"mean\":0.0208244947,\n        \"std\":0.0088766246,\n        \"median\":0.01857\n    },\n    \"f21\":{\n        \"mean\":0.0036888147,\n        \"std\":0.0023327127,\n        \"median\":0.003121\n    },\n    \"f22\":{\n        \"mean\":16.2748105263,\n        \"std\":4.6889464911,\n        \"median\":14.99\n    },\n    \"f23\":{\n        \"mean\":25.7087368421,\n        \"std\":6.172942819,\n        \"median\":25.5\n    },\n    \"f24\":{\n        \"mean\":107.4654035088,\n        \"std\":32.9988716878,\n        \"median\":98.0\n    },\n    \"f25\":{\n        \"mean\":876.0856140351,\n        \"std\":549.3840105929,\n        \"median\":697.7\n    },\n    \"f26\":{\n        \"mean\":0.1340239298,\n        \"std\":0.0239778947,\n        \"median\":0.1324\n    },\n    \"f27\":{\n        \"mean\":0.2534141754,\n        \"std\":0.1643099875,\n        \"median\":0.2074\n    },\n    \"f28\":{\n        \"mean\":0.2706077228,\n        \"std\":0.2112266946,\n        \"median\":0.231\n    },\n    \"f29\":{\n        \"mean\":0.1144162807,\n        \"std\":0.0662317404,\n        \"median\":0.101\n    },\n    \"f30\":{\n        \"mean\":0.2904852632,\n        \"std\":0.0649423048,\n        \"median\":0.2807\n    },\n    \"f31\":{\n        \"mean\":0.0835881754,\n        \"std\":0.0183691191,\n        \"median\":0.07953\n    }\n}"
}