{
    "network": {
        "input_layer": {
            "activation": "default",
            "neurons": 30
        },
        "hidden_layer_1": {
            "neurons": 20,
            "activation": "relu"
        },
        "hidden_layer_2": {
            "neurons": 8,
            "activation": "relu"
        },
        "output_layer": {
            "activation": "softmax",
            "neurons": 2
        }
    },
    "weights": {
        "l1": [
            [
                -0.2913080741605894,
                -0.36674802202733503,
                0.28870650941527737,
                0.3471317090430542,
                -0.17824731159745227,
                -0.39099897283377494,
                -0.3161888643623224,
                0.2479038078599604,
                -0.461366102443059,
                -0.2841467880931893,
                -0.25426978373330056,
                -0.1984475815047603,
                0.2899899738960156,
                -0.1330378154055319,
                -0.12057293078270571,
                0.07787818608551353,
                -0.061238055321416386,
                -0.06903715082977341,
                -0.25448731919227363,
                -0.3319591295304855,
                -0.28343220879886144,
                0.11009509174040352,
                0.2503798204046351,
                0.13350190094411715,
                0.010140150371363068,
                -0.3484703693142587,
                0.3517482755991464,
                -0.19851115476120837,
                0.364738278834869,
                -0.14151152621576518
            ],
            [
                -0.13810149272495348,
                0.04491286827378599,
                0.4082089450333926,
                0.11574762558452267,
                -0.04473930018826444,
                -0.16873728123742465,
                0.15120912685672896,
                0.17294994053085705,
                0.18793274986247765,
                -0.23470230574105516,
                -0.08190518962177874,
                -0.05455199307440673,
                -0.4112006560448726,
                0.18400433388722967,
                0.3323270968082267,
                0.2833998605600094,
                -0.12079817830645564,
                -0.5126806650641649,
                -0.18331703405139718,
                0.2925029410993271,
                -0.18288087917448728,
                -0.12491377080383935,
                0.24515796469163856,
                -0.39032668046559665,
                0.2872034602697681,
                0.24105047427837753,
                0.06265119651474249,
                -0.013757488566856433,
                -0.31766220956282987,
                -0.4078553078902594
            ],
            [
                -0.08346231091727331,
                0.26358631332352467,
                0.41118165736817597,
                0.36998147912070156,
                0.4523893648779166,
                -0.0036754135086521584,
                0.3033930206795145,
                0.3044538189995428,
                -0.005106603161378672,
                -0.3017245915756049,
                0.4294348845521093,
                0.07559531309640609,
                0.3603372343827349,
                0.20315879321969285,
                -0.3914378161612919,
                -0.2506594187043735,
                0.17156297128472092,
                -0.034713850425094256,
                -0.5144998024241673,
                -0.22519132901627928,
                -0.20458958612102465,
                -0.0322317995035683,
                0.3163353083175544,
                0.47208252507589776,
                0.409021821460314,
                0.456035640288782,
                0.467549818962032,
                -0.09637325598768579,
                0.11018876472119549,
                0.2817709858807491
            ],
            [
                0.059226895904391785,
                0.06036953368955295,
                -0.13919354262503802,
                -0.37967868686352885,
                -0.108001842252074,
                -0.08481891971197934,
                -0.42442518458106937,
                -0.11634293620029953,
                0.11165991452399421,
                -0.14062343718555415,
                0.44024230035492457,
                0.46299912408467947,
                0.09702675385770845,
                0.18975179742511863,
                -0.38250614610995715,
                0.3946070216355478,
                -0.1097303634182091,
                -0.3921651307025933,
                0.1573447572281417,
                0.1719004737056403,
                -0.3088092701207744,
                -0.07258254822480582,
                0.04246041115877644,
                0.14751167448200397,
                0.30106636387391683,
                -0.2991460222480485,
                -0.4547246381226806,
                0.3876487743965774,
                -0.1920162877596143,
                0.14609552034086964
            ],
            [
                -0.40452688502963147,
                -0.3997757035308293,
                -0.044780621521333996,
                -0.283363257621208,
                0.2367934794457253,
                -0.16437373885235534,
                0.26893668745435056,
                -0.27796262543021155,
                -0.264546445230437,
                0.09604777736170308,
                0.2561466775184511,
                -0.2928865886121699,
                -0.1357336506184321,
                0.053435250733702734,
                0.2438736732990403,
                -0.12493227995469411,
                0.2506061217707853,
                0.24596869098465554,
                0.3620615415828726,
                0.15533308680215038,
                -0.5033997631975781,
                -0.5716577259286177,
                -0.5042027713078124,
                0.07701113619961102,
                0.3067182166773362,
                -0.2951171912739294,
                -0.5466193576053809,
                -0.5602744799773578,
                0.1683259013508008,
                0.2836415971174222
            ],
            [
                0.25384101937963766,
                0.3699648013310891,
                -0.2114150332443502,
                -0.05462664053551198,
                0.18382015244100078,
                0.3519289998279176,
                -0.16929191723264428,
                0.47758963218658723,
                0.5406235963504074,
                -0.10841323304695222,
                -0.010792527446468123,
                -0.24544811770868688,
                0.17497610503572528,
                0.039991472126997656,
                -0.012469406852843923,
                0.06958039368601172,
                -0.17053889092162666,
                -0.20654152513553983,
                0.408484634892372,
                -0.13860797472103425,
                0.07252553779329712,
                -0.07893349411468989,
                -0.2930766198290972,
                0.3241562738271487,
                0.30626279004176116,
                -0.2897119756492168,
                0.5982040240875017,
                -0.014505778246307825,
                -0.2804380538784269,
                0.20042653312185896
            ],
            [
                -0.3055005842668877,
                0.1486188687688131,
                -0.2625789702909747,
                -0.1641495787750523,
                -0.2540139470226755,
                -0.46026964059924164,
                0.1073635069000097,
                -0.3252406999549381,
                -0.10513569789559828,
                0.041192975692274154,
                0.4152790163828614,
                -0.2341745550033853,
                0.2500814787385903,
                0.5032186469750299,
                -0.1853405919309482,
                -0.6360115254521033,
                -0.12201743891430136,
                0.14347429654947969,
                -0.00259054948986718,
                -0.18845016583694552,
                0.450066400742801,
                0.1960033655913905,
                -0.03616927087370734,
                -0.08450402915013618,
                0.5434051945776475,
                -0.08574979887585457,
                0.2765363947751352,
                0.2121795667345037,
                -0.0762250954890911,
                -0.10580751570767659
            ],
            [
                -0.29372797010213636,
                0.148450642059959,
                0.40527856699492926,
                0.45139905876887576,
                0.2699100137287281,
                0.07361944436166092,
                0.06810424771789375,
                -0.02849126830718053,
                -0.221639339578131,
                -0.004150107542158559,
                -0.2099101445981689,
                -0.3700145318101984,
                0.5175695837972054,
                0.3794652297707751,
                0.27499190554799113,
                -0.4535105509536927,
                0.4260548731098815,
                0.24506381422921433,
                0.23952197005948966,
                0.06461465388160337,
                -0.23815021249104534,
                0.23366187538918684,
                0.44799368843903303,
                -0.09842135941055431,
                -0.37573897960309405,
                0.18766616992511007,
                0.19406615631363966,
                0.22411281759959034,
                -0.2852995990141377,
                -0.19227548567031275
            ],
            [
                0.4138491577614673,
                0.007510513887780682,
                -0.059012673134987155,
                -0.1870242361928469,
                0.16958882824891067,
                0.05231897502404467,
                -0.2508952917846491,
                -0.27907450472100975,
                0.010729986975780157,
                0.4135379227834679,
                0.46933998520723674,
                0.3259192010093725,
                0.34995819949668244,
                0.3680754438059497,
                -0.13329538560004153,
                0.12185635779427471,
                0.24809895573181165,
                -0.132545776812249,
                -0.3534049459737119,
                -0.2695488581080838,
                0.5074564681214432,
                0.04762264786358417,
                -0.21758975130891536,
                -0.16578987133896472,
                0.4698055084070465,
                0.4575938259401084,
                0.20361090794981834,
                0.32857752367376913,
                -0.34448618936685005,
                -0.2687413290888615
            ],
            [
                -0.18864190493046928,
                -0.18425732919339383,
                0.01504176277645512,
                0.24339387175460647,
                -0.20734204098791978,
                -0.3661728966669528,
                -0.0935114801173553,
                0.0893634464331679,
                0.38499358475342066,
                -0.23398084789478502,
                0.46990093001783206,
                -0.36089904256447647,
                0.2775691546943959,
                -0.08375394360646618,
                -0.36345725769592596,
                0.23995402866763577,
                -0.168045549475529,
                -0.3708418579349925,
                0.22836345544766917,
                -0.0074598297130509,
                0.3310775881890769,
                0.16161850457212562,
                -0.0941848817617424,
                0.34621638132120364,
                0.06770726753466977,
                0.2134739699989984,
                0.03332469865155767,
                -0.07717533944187084,
                0.22212820117811538,
                -0.23696815219931786
            ],
            [
                -0.42527973839129085,
                -0.11885714539256853,
                0.19052480351787962,
                0.26273820481203164,
                0.06586068300176792,
                0.04993576801590292,
                -0.4320476575705595,
                0.08178583402483106,
                0.2831448596720123,
                0.1796811071212463,
                -0.07220774664712723,
                -0.25860012453179865,
                -0.5187710469358494,
                -0.002798519851278766,
                -0.41099731441891374,
                0.4066007625899881,
                -0.14206342391430407,
                0.35247087955146145,
                -0.2728282122685439,
                0.3180431639626313,
                -0.5820918177046982,
                -0.4537852199230253,
                -0.050522931110718726,
                -0.6830933036408948,
                0.20932566344316775,
                -0.2229407390912568,
                -0.4499193962607796,
                -0.4474833026106079,
                -0.5510967642701254,
                -0.53335628275388
            ],
            [
                0.3246352482828099,
                -0.10278975457354193,
                0.33260654826385766,
                -0.19633784361879555,
                0.2502449252304583,
                0.3347943074580813,
                0.45233387968400923,
                0.12820608217845925,
                -0.06582029099794769,
                -0.39723928524550894,
                -0.40823134733268135,
                -0.3268119529118872,
                0.4109862956988962,
                -0.06232647479187687,
                -0.22430503804589433,
                -0.34015095288769764,
                -0.3339592038063331,
                -0.07031521520667433,
                0.14189633125292453,
                0.3921885100492356,
                -0.06284847653543747,
                0.24738398327763625,
                -0.11606072196426614,
                -0.32675265249691215,
                0.41498618396988923,
                -0.10410587880819772,
                -0.30968574512498465,
                0.29704399843772056,
                0.014530625286076121,
                0.007937913867078638
            ],
            [
                0.17796115447631977,
                0.23066763089080958,
                -0.2463297497298794,
                0.3264034186864584,
                0.3186462986694908,
                -0.18041937342562078,
                0.16098000269025098,
                -0.4383818124877989,
                -0.08189749738975508,
                -0.1878941002145504,
                0.24742221695276587,
                -0.2050016565924184,
                -0.04499515184473743,
                -0.03145554377356816,
                0.14838046639915276,
                -0.110412942605219,
                -0.35865213220025083,
                0.0008657765881562758,
                0.29959973344661905,
                -0.3478658356518323,
                -0.2816352953924507,
                0.1735832710905357,
                0.2694444722830922,
                0.1252957535534418,
                -0.17348506313957462,
                -0.21272795251271176,
                0.27203262377981746,
                -0.5664329640069868,
                -0.44364397545076906,
                0.28470776736448433
            ],
            [
                -0.008091388377931514,
                0.2743672158849586,
                -0.031143192123049963,
                -0.2027209728575624,
                -0.1988907202945692,
                0.33722778106023815,
                -0.46653346880816765,
                -0.6052560738646114,
                -0.12075479018658015,
                0.5309678178026184,
                0.27856104010928706,
                0.23891010572861124,
                0.11295585448306224,
                -0.04280637759252797,
                0.049863345929205924,
                0.534787850502621,
                0.23366660788860094,
                -0.2577960511410006,
                -0.23838994089889762,
                0.08025899085863122,
                -0.4215480369399628,
                -0.13173803197690984,
                0.09545367542099155,
                0.2049345955527729,
                -0.30588397804303874,
                0.5552328657283724,
                -0.3221434401632518,
                -0.3789947295312565,
                -0.18779056440886926,
                0.04839973666186627
            ],
            [
                0.1756008969190867,
                0.2883493754684604,
                0.34724200798271027,
                -0.03104627749335527,
                0.22578003147112663,
                -0.039909849957914904,
                -0.027669198183685476,
                -0.23665134316508735,
                0.11430199622343651,
                0.3186313963438713,
                -0.11170145705749032,
                -0.233873246815655,
                -0.163276671684195,
                -0.23171882939421468,
                -0.042300956411351925,
                -0.25131701272118784,
                0.02805292385529363,
                -0.44706008136035896,
                0.16389772423896612,
                -0.16344328151976537,
                -0.29031820330396396,
                0.36714964394613775,
                0.11304953385400007,
                0.14208442295110504,
                -0.1983786361269829,
                0.06101384816428482,
                0.24816232538861058,
                0.1874033693117346,
                -0.0386521611072221,
                -0.016678306288422477
            ],
            [
                -0.09988765620893503,
                0.3564744180212659,
                -0.34620939454033417,
                -0.24655378783211768,
                -0.5401879178388577,
                -0.298876592918431,
                -0.4144190284802224,
                0.24394954670469773,
                0.37607292207860604,
                0.16468115998258773,
                0.2349819198899512,
                0.03321797673398732,
                0.004961810354874518,
                -0.25313128546227487,
                -0.02915269217656527,
                0.23229744061067123,
                0.051554859144371114,
                -0.32860812727873046,
                0.0746885845795267,
                0.37350320621634686,
                -0.5384335787993648,
                0.20403242679536618,
                0.11239986939306554,
                0.19057581574624802,
                0.004447670925459295,
                -0.11965824369667748,
                -0.2118878657314646,
                0.14879987162204278,
                -0.2848737802303996,
                -0.15562486783059504
            ],
            [
                0.5643590454245886,
                0.026930029519952037,
                -0.05858555237939073,
                0.10161851441754365,
                0.17895754847298245,
                0.45841028319669475,
                0.4959264580861091,
                0.19197658895827746,
                0.11561108567444456,
                -0.4653978432669398,
                0.29845243179371106,
                0.6070549107537911,
                0.5389256279569299,
                -0.26640157613811327,
                0.024373888325342388,
                -0.20388151585552142,
                0.02305510200171212,
                0.5838481131654717,
                -0.15095920134375962,
                -0.06416896758025001,
                -0.016058209784191445,
                0.2214211909768007,
                -0.06950260716168698,
                -0.09333351327884194,
                0.34865622960327974,
                0.5002383524898969,
                0.02786850478469682,
                0.4609440509532266,
                0.07160408662158219,
                0.057929595869889515
            ],
            [
                -0.29218289296343186,
                -0.39802522016459657,
                0.09882140489206274,
                0.04764164052808765,
                -0.046782369167341895,
                0.5505051543932475,
                -0.04904797053305301,
                -0.03603880610904196,
                -0.5297251950629315,
                -0.20681235521351413,
                -0.6350117897149677,
                0.22136348110993123,
                -0.08038134341232528,
                0.029088353092820214,
                -0.31543793906698564,
                0.1746334402122444,
                0.19952266718236808,
                0.15607174047304886,
                0.013374980802169062,
                -0.24122219781426643,
                -0.4147123101059365,
                -0.4553365153390216,
                0.008543166179332592,
                -0.1938158943922727,
                -0.1550924773379668,
                0.4153746003356525,
                0.10942345227257648,
                -0.27222177896711436,
                -0.17041758788513667,
                0.06598277259200577
            ],
            [
                -0.29087254612635455,
                0.2232763224916156,
                0.5188528678444793,
                -0.012151949753371319,
                -0.2977173680082228,
                -0.11509928888634902,
                -0.34711201658205537,
                0.29144335597474796,
                0.46801402176414325,
                0.355558512128286,
                -0.16074817506811073,
                -0.36882715929991594,
                0.4260967226300542,
                0.19320697504669906,
                0.34988563930799665,
                0.14239789448258716,
                0.1657670250763634,
                -0.21922193316621943,
                0.41245719729181585,
                0.12409813938246375,
                0.3601166481776208,
                0.13775131797484824,
                0.4247737229901726,
                0.07255607081252193,
                -0.11697745982279428,
                0.01775457610597802,
                0.043336629243385584,
                0.03542204105733138,
                -0.005723129228865459,
                0.03868422100499189
            ],
            [
                -0.22426393171786596,
                0.1418362497266838,
                -0.0467852142271902,
                0.3585077200088484,
                -0.108804161879367,
                -0.2796136396450737,
                -0.1891870928469053,
                -0.2409221248088214,
                -0.4489526223698005,
                0.3296788592652193,
                -0.42548795060279965,
                -0.43218665050920496,
                -0.18921840542482585,
                0.4304369430447178,
                -0.3019512534186028,
                -0.1142257921882883,
                0.011082744856221823,
                -0.598250510697286,
                0.10101478713117092,
                -0.2582243471725765,
                0.38939712958897243,
                0.3582569615638431,
                -0.009833291898951933,
                0.44229390397596813,
                0.5849072942880827,
                0.04153371985842271,
                -0.22726073524110263,
                0.37166394827550764,
                -0.2434904380862432,
                -0.12706313136507535
            ]
        ],
        "l2": [
            [
                0.4371054397717772,
                -0.45240770197912145,
                0.09251959871171675,
                -0.45366284645599725,
                -0.4559942886717516,
                -0.2617180063684436,
                -0.08996372396953926,
                -0.5077258810383394,
                0.5049230855752684,
                0.2526427035171215,
                0.4580277669157991,
                0.33798090705110195,
                -0.11674885733965429,
                -0.03566177855516791,
                -0.0948507392450669,
                -0.3824121222448025,
                -0.277085132074231,
                0.5715003294437551,
                -0.1831497029176412,
                -0.07572802259923485
            ],
            [
                -0.04817486425067609,
                -0.4298263016423985,
                -0.33933139488721764,
                -0.4086690133965048,
                0.2083687415670359,
                -0.3187491570834021,
                0.191260397137766,
                0.4013458335863893,
                0.09443548392756443,
                -0.5021044736320092,
                -0.009105512235143632,
                0.10165372771593145,
                -0.16124555178128772,
                0.27187290196276354,
                0.43660403382239027,
                -0.16508647866607384,
                -0.30284605590747254,
                -0.03525841064758898,
                -0.19081747530034882,
                -0.09135539184646195
            ],
            [
                0.32990948899295813,
                -0.26381648406123703,
                -0.317796539553577,
                -0.4235556094368128,
                0.1521620331208472,
                -0.33605375322925757,
                0.237619582942485,
                0.33074664054666003,
                -0.5181422849675122,
                0.32241090640673997,
                0.04648166656994848,
                -0.269290318889965,
                -0.061993631416928506,
                -0.6261094263949836,
                0.00025176825519833515,
                0.15659331686819503,
                0.001898703434680029,
                0.034325350520748976,
                -0.07332354420105577,
                0.4953260797358514
            ],
            [
                -0.46710803079835034,
                -0.315131408071986,
                0.2700028197280094,
                -0.41803610627141,
                0.25894312305114303,
                -0.5363944934318843,
                -0.03614906867561664,
                0.16108308524976642,
                -0.39761738149843473,
                0.488992030569153,
                0.2497288619546024,
                -0.23044723419761545,
                -0.2268005593042046,
                -0.05494085280175225,
                -0.14056595382669845,
                0.3623606300085749,
                -0.26756159599954943,
                -0.15700627312334386,
                0.45245300301096697,
                0.5375663466140629
            ],
            [
                0.021924160216016647,
                -0.06975705576779717,
                -0.565070127562733,
                0.3448373789298873,
                0.798187534340383,
                -0.2606020436284183,
                -0.6544721140094463,
                -0.6190400149823154,
                -0.17972494999704988,
                0.13903589907009556,
                0.93699628256574,
                -0.3098694803295081,
                0.0747260419035655,
                0.6193673709411811,
                0.006003135545457222,
                0.5977168444879503,
                -0.10953546669861218,
                0.9869856263264971,
                0.33735658030167576,
                -0.21416194776402867
            ],
            [
                0.5151873992764348,
                -0.5338591168188107,
                0.7297054622839021,
                0.028888896994636665,
                -0.5289116114536517,
                0.5152009742191871,
                0.6256155592454353,
                0.37621735632267067,
                0.5905589754070121,
                0.8004979631334131,
                -0.655122394034343,
                -0.21797381232060828,
                -0.1081504994647016,
                -0.622919256798837,
                0.33174892262007527,
                -0.45049928374436615,
                0.860878661024058,
                -0.2451469884830538,
                0.4029874994708768,
                0.5860910124491135
            ],
            [
                0.1298842529713221,
                0.08071989133201353,
                0.2573490332555741,
                -0.21385533578145483,
                0.003312977544779507,
                0.10923823480533155,
                -0.3024783982179065,
                0.2628940195435185,
                0.26353281188082306,
                -0.30963320539672456,
                -0.42403101297028806,
                0.47979178384577764,
                -0.4280229208258264,
                -0.4073321961776477,
                -0.33382120561981615,
                0.15039623186234014,
                0.6636289675617923,
                0.2839771730854178,
                0.5291523981697634,
                0.04158906178998054
            ],
            [
                0.11620280355628554,
                0.18991734810279384,
                -0.2832905471799342,
                -0.013712661903834696,
                -0.315207291227367,
                0.29863192536196775,
                -0.2428824646025541,
                0.502127158921575,
                0.3432509264400976,
                0.4019226314311128,
                -0.003749461812146251,
                -0.5472823638896958,
                0.1310657795074372,
                0.34762293322118887,
                0.3414240657653802,
                0.4093556519187066,
                0.4814394086733167,
                -0.3563528086956792,
                0.4785808431476563,
                -0.15356438498189348
            ]
        ],
        "l3": [
            [
                0.3081022122624841,
                -0.519408325429065,
                -0.5951527326200958,
                -0.7676458871129049,
                1.6889292438529473,
                -1.2833659661156527,
                -0.8972522026121924,
                -0.6738264500826474
            ],
            [
                -0.2378490417663919,
                -0.6298726683397149,
                0.07711032105328047,
                -0.45808008202307254,
                -0.7780016660642541,
                1.075628409878339,
                0.27345251338267385,
                -0.38264975899334497
            ]
        ]
    },
    "biases": {
        "l1": [
            [
                0.061083865413661335
            ],
            [
                -0.0476006348893341
            ],
            [
                0.17720504973366225
            ],
            [
                -0.070263800775585
            ],
            [
                0.006176695608847266
            ],
            [
                -0.23054963296163322
            ],
            [
                0.031614867159599144
            ],
            [
                -0.07108817795036329
            ],
            [
                -0.03333263683366197
            ],
            [
                0.06363633827882971
            ],
            [
                0.448726615369736
            ],
            [
                -0.046864012185647556
            ],
            [
                -0.11722378696392129
            ],
            [
                0.1492241155824974
            ],
            [
                -0.043178325638176
            ],
            [
                -0.02608884553191683
            ],
            [
                0.1525214787120608
            ],
            [
                0.397157400637059
            ],
            [
                0.054520627037468655
            ],
            [
                -0.0077865679106462376
            ]
        ],
        "l2": [
            [
                0.08179776994611246
            ],
            [
                0.015823388565936538
            ],
            [
                0.009547389162521906
            ],
            [
                -0.014685443943472964
            ],
            [
                0.4357292916870738
            ],
            [
                0.08438607652619945
            ],
            [
                -0.0015089350821775504
            ],
            [
                0.005183290519360384
            ]
        ],
        "l3": [
            [
                0.2775818305221226
            ],
            [
                -0.27558183052212226
            ]
        ]
    },
    "dataParameters": {
        "f2": {
            "mean": 14.176922807017545,
            "std": 3.5104059355078054,
            "median": 13.43
        },
        "f3": {
            "mean": 19.342877192982453,
            "std": 4.219883284173678,
            "median": 18.95
        },
        "f4": {
            "mean": 92.3280701754386,
            "std": 24.29010682505375,
            "median": 86.91
        },
        "f5": {
            "mean": 658.3712280701754,
            "std": 351.0804784351805,
            "median": 556.7
        },
        "f6": {
            "mean": 0.09759687719298248,
            "std": 0.014732575661990464,
            "median": 0.09676
        },
        "f7": {
            "mean": 0.10478175438596492,
            "std": 0.05511627664435112,
            "median": 0.08963
        },
        "f8": {
            "mean": 0.08863638140350877,
            "std": 0.08169820337791392,
            "median": 0.05929
        },
        "f9": {
            "mean": 0.04956600701754386,
            "std": 0.03988986274193449,
            "median": 0.03483
        },
        "f10": {
            "mean": 0.1821140350877193,
            "std": 0.02850372127050028,
            "median": 0.1794
        },
        "f11": {
            "mean": 0.06270614035087721,
            "std": 0.007134492528708969,
            "median": 0.06125
        },
        "f12": {
            "mean": 0.4102442105263158,
            "std": 0.2775371921716927,
            "median": 0.335
        },
        "f13": {
            "mean": 1.2309080701754387,
            "std": 0.596638449900299,
            "median": 1.081
        },
        "f14": {
            "mean": 2.8949035087719293,
            "std": 2.042133415321722,
            "median": 2.344
        },
        "f15": {
            "mean": 40.819087719298246,
            "std": 45.58153423087983,
            "median": 25.22
        },
        "f16": {
            "mean": 0.007211845614035087,
            "std": 0.0032544520412439793,
            "median": 0.006458
        },
        "f17": {
            "mean": 0.025016877192982456,
            "std": 0.018153128371287488,
            "median": 0.01966
        },
        "f18": {
            "mean": 0.030286588070175438,
            "std": 0.023240313620988412,
            "median": 0.02526
        },
        "f19": {
            "mean": 0.011495726315789474,
            "std": 0.005853151260505262,
            "median": 0.01075
        },
        "f20": {
            "mean": 0.0208244947368421,
            "std": 0.008876624597832922,
            "median": 0.01857
        },
        "f21": {
            "mean": 0.003688814736842105,
            "std": 0.002332712683462084,
            "median": 0.003121
        },
        "f22": {
            "mean": 16.27481052631579,
            "std": 4.68894649109666,
            "median": 14.99
        },
        "f23": {
            "mean": 25.708736842105264,
            "std": 6.172942819004665,
            "median": 25.5
        },
        "f24": {
            "mean": 107.46540350877193,
            "std": 32.99887168784888,
            "median": 98.0
        },
        "f25": {
            "mean": 876.0856140350877,
            "std": 549.3840105928931,
            "median": 697.7
        },
        "f26": {
            "mean": 0.1340239298245614,
            "std": 0.023977894661321376,
            "median": 0.1324
        },
        "f27": {
            "mean": 0.25341417543859646,
            "std": 0.16430998748427253,
            "median": 0.2074
        },
        "f28": {
            "mean": 0.2706077228070175,
            "std": 0.21122669458920515,
            "median": 0.231
        },
        "f29": {
            "mean": 0.11441628070175437,
            "std": 0.06623174041903937,
            "median": 0.101
        },
        "f30": {
            "mean": 0.2904852631578947,
            "std": 0.06494230478720993,
            "median": 0.2807
        },
        "f31": {
            "mean": 0.0835881754385965,
            "std": 0.018369119050390598,
            "median": 0.07953
        }
    },
    "targetColumnName": "f1",
    "targetClasses": [
        "B",
        "M"
    ]
}