{
    "network": {
        "input_layer": {
            "activation": "default",
            "neurons": 30
        },
        "hidden_layer_1": {
            "neurons": 30,
            "activation": "sigmoid"
        },
        "hidden_layer_2": {
            "neurons": 25,
            "activation": "sigmoid"
        },
        "hidden_layer_3": {
            "neurons": 20,
            "activation": "sigmoid"
        },
        "hidden_layer_4": {
            "neurons": 15,
            "activation": "sigmoid"
        },
        "hidden_layer_5": {
            "neurons": 8,
            "activation": "sigmoid"
        },
        "output_layer": {
            "activation": "softmax",
            "neurons": 2
        }
    },
    "weights": {
        "l1": [
            [
                0.49730024102723114,
                -0.11292005778147983,
                0.11065155546280148,
                -0.1779796479288334,
                -0.1085258475422762,
                0.20812745257997053,
                -0.11469495513497818,
                0.49651488746955,
                -0.27334301060070415,
                -0.5168225575333939,
                0.39690810243547314,
                -0.41863539158932506,
                -0.1892201737242767,
                0.14392304081183388,
                0.41164578658293877,
                0.0055298892316299995,
                0.11397899739437936,
                0.5225050686142494,
                0.1353117416608631,
                -0.41372364310492954,
                -0.0005659351146921286,
                0.5342945950956167,
                0.4246400715215114,
                0.5256674834966772,
                -0.07855924672860665,
                -0.01346740486449194,
                -0.03367953422472283,
                0.4828140674074744,
                0.45438365797034364,
                0.21590191791284746
            ],
            [
                0.6471950578686774,
                1.5390126902889418,
                0.3692849143911276,
                1.0135987888909723,
                0.5674663105785467,
                0.39694009068783614,
                1.2838944508603376,
                1.6575972237614935,
                0.5077588351490707,
                -0.353152600693624,
                0.9538571635871703,
                -0.4266053035098911,
                0.6035198193552415,
                1.5312262231964262,
                -0.205256371596926,
                -1.2469054795954306,
                0.43246155575025247,
                0.5832733003330419,
                -0.2658356889465547,
                -1.0298867536326128,
                1.1705333411762788,
                1.451674859237431,
                0.9428280487966851,
                1.2781127165537154,
                1.1332525747208735,
                -0.07552594851508473,
                0.6666514321124758,
                1.7570739512001718,
                1.2602803845582629,
                -0.3962778673379859
            ],
            [
                0.11790932850628477,
                -0.3822552231514694,
                -0.559369123854161,
                -0.41862247218096665,
                0.016325702112094925,
                -0.22326833516524622,
                0.08834988279858778,
                0.01790977796567751,
                -0.3123874883477497,
                0.08043867270363847,
                -0.11800897282257801,
                0.0008099701110873817,
                -0.3323503041112798,
                -0.43851985005902777,
                -0.042122453806868514,
                0.20254583282142358,
                -0.2079200499364246,
                -0.5638484246876342,
                0.21799834005931337,
                0.10590762064534316,
                -0.08890582443751398,
                -0.6586867168197114,
                -0.7355316705249176,
                -0.08281729234961883,
                -0.6478822828642432,
                -0.0329647806679653,
                -0.6052070950199461,
                -0.9365174076625213,
                -0.2037269168412407,
                0.19532683402189138
            ],
            [
                0.6230269069654814,
                0.9244750696624643,
                0.2527761974567994,
                0.07687119771858784,
                0.600354042564615,
                -0.17118408454233236,
                0.8903877967864597,
                0.5517023746707779,
                0.5323002536219267,
                -0.48677411829227596,
                1.0713535326069055,
                -0.432032565528922,
                0.4167779684074247,
                0.8017502186619475,
                0.2442495389465821,
                -0.5884225383007116,
                0.33795200006750786,
                -0.1095611614339188,
                -0.2641942152024082,
                -0.7632413592400584,
                0.7340774394519989,
                1.1995589524717511,
                0.9599957845801448,
                0.8243695682577161,
                0.5825791989477035,
                0.18728340040969235,
                0.594275869810983,
                0.9537009917411386,
                0.3105024206141214,
                -0.17055558469192647
            ],
            [
                -0.4909461525577235,
                -0.7184474137555182,
                -0.8027003184181102,
                -0.6232400865631716,
                -0.14562245522775336,
                -0.007304147435393704,
                -0.32973795871301176,
                -0.9861845155706331,
                -0.13754241109220935,
                0.4860968465307389,
                -0.7906600285592693,
                -0.003892903977089186,
                -0.6412901479429715,
                -0.859157764370647,
                0.28462961975654105,
                0.539809952638153,
                -0.5381132887073425,
                -0.5165216325208405,
                0.44875696521782055,
                1.1132817833049666,
                -0.8289340714804105,
                -1.1411167911698956,
                -0.40195041076325283,
                -0.6886562263455411,
                -0.21805274664301819,
                -0.14976157048364053,
                -0.9731078694802968,
                -1.5061411114046788,
                -0.8662179192756467,
                -0.2082540799086141
            ],
            [
                -0.3736050854886116,
                -0.5870134170039478,
                -0.6983937927986705,
                -0.8474740974011148,
                -0.20222057878017458,
                -0.4328340425089897,
                -0.5198614924736028,
                -1.2711111509509097,
                -0.36589754715008355,
                -0.16397408988042575,
                -1.2457941015927847,
                0.5887378222892629,
                -0.7759548337787688,
                -0.5708396476955722,
                0.05223094390470079,
                1.1433174693951713,
                -0.16129996922965278,
                -0.3590452576319403,
                0.2175178613551539,
                0.9497147881022647,
                -0.9850936308936248,
                -1.1020257012215786,
                -0.5307644961810128,
                -1.3401267780476234,
                -0.6459428617818436,
                -0.11212132507826914,
                -0.9336470290674038,
                -0.8960041331501861,
                -0.7751897644964328,
                -0.11412519345104441
            ],
            [
                -0.3181471832059137,
                -0.6118431994810937,
                -0.5299258619657873,
                -0.6872183212672252,
                -0.29623815404699283,
                0.2531930125409198,
                -0.6864743856773545,
                -0.7678386400099902,
                0.08566630832795803,
                -0.2526558956085277,
                -1.142359445889183,
                0.09911766475068287,
                -0.8469631041452786,
                -0.3199066735003892,
                -0.17656805629461414,
                1.0190775931150384,
                -0.5608816962158344,
                -0.717731431590474,
                0.6823824358410769,
                0.9542092356728163,
                -0.991543468246686,
                -1.2352174645314489,
                -0.1640269045797881,
                -0.8831580456158106,
                -0.7543610440180527,
                -0.08114622129552311,
                -0.09982898560325362,
                -0.5881858293017388,
                -0.3643944405260597,
                -0.3648451179711124
            ],
            [
                -0.8084161061152575,
                -0.5934314810776761,
                -1.0767209738450556,
                -0.7771840726205838,
                -0.15036269552081177,
                -0.5780291135305565,
                -0.950959006318389,
                -1.2165831274811767,
                -0.6344681531285905,
                0.12253714223394929,
                -1.1200189508348162,
                0.22730050176194141,
                -0.9652981974635502,
                -0.8153082934229061,
                0.043935351505296386,
                1.0851738789860288,
                -0.46554998594993313,
                -0.2148873834875362,
                0.257792990379273,
                0.4319735704018716,
                -1.219765607444663,
                -0.9772812663703997,
                -1.3947284656055652,
                -1.2199235583621675,
                -1.1060261274720606,
                -0.46532638987888225,
                -1.1699182195080264,
                -1.7931084139414124,
                -1.1297336726481118,
                -0.28603501903896067
            ],
            [
                -0.29326832564713884,
                -0.3826556441484382,
                -0.27799533572126695,
                0.3201690605980663,
                -0.10695320505800689,
                0.07557123549662867,
                -0.22674722278690163,
                0.23393478406112483,
                -0.1732765354285496,
                0.3596064159416611,
                -0.355331227133353,
                -0.11626595690453545,
                0.2203120256611746,
                -0.5188863145931136,
                -0.3190740695481157,
                0.27819379685580664,
                -0.06265204948427168,
                -0.2067107160846196,
                -0.24640194994611347,
                0.3237339428309938,
                -0.3992310421822144,
                -0.3460901159907899,
                -0.16830535008440584,
                -0.2083513481666412,
                0.32754716788782196,
                -0.3477495155311202,
                0.31070376573901304,
                0.21472534801107546,
                -0.02986137416119657,
                0.20342079181527092
            ],
            [
                -0.7298741356573781,
                -0.724912893595771,
                -0.7882058525859116,
                -0.560937125001713,
                -0.4754016580315367,
                -0.37836087474080193,
                -0.8615921289034645,
                -0.5423540205117248,
                0.025175143832620078,
                -0.15302191498447693,
                -1.1380187355177167,
                0.13067767161879282,
                -0.7350637330715092,
                -0.9713061641872217,
                0.3590361420423754,
                0.9263568556657632,
                -0.47677028597141313,
                -0.4088250163815836,
                0.6177585604678641,
                0.3650272846790295,
                -0.7892230858436774,
                -0.42026490930239707,
                -0.5398712957351102,
                -0.7493246080009661,
                -0.935291330367042,
                -0.21445455313749273,
                -0.9151227138333794,
                -0.6358255407359312,
                -0.8031158628987496,
                0.40791668358045263
            ],
            [
                -0.11509692928316884,
                0.2546929928065978,
                0.3725949461198031,
                -0.09751532221579709,
                -0.17609934719191722,
                0.16523625527377012,
                0.24604792850000587,
                -0.022045524205570585,
                -0.329668271107937,
                0.17285687128164937,
                0.09233624884242135,
                0.2747072109794481,
                0.49636212611719466,
                0.20918380636491332,
                -0.2561248907217117,
                0.02929014738876795,
                0.3309222898963074,
                0.4717253561771249,
                0.2501564179088207,
                -0.18176285778322984,
                0.3249202937671809,
                -0.039389472447959414,
                0.39412010203461045,
                -0.02936902038115636,
                0.17298787948999114,
                -0.2880123410938856,
                -0.0319881207992461,
                0.6753036743108637,
                0.27666500288381685,
                -0.20018486090202853
            ],
            [
                0.6272341680277176,
                1.033072612581152,
                0.27918852955178897,
                0.8497721720233136,
                0.30779949507974547,
                0.20325902969012288,
                0.27574075957363464,
                0.6051887708331659,
                0.046803446741339495,
                -0.32419260786655285,
                0.777901050947085,
                -0.0722654807961593,
                0.053795174326280726,
                1.0317785770900267,
                -0.21991656536310542,
                -1.151721392609918,
                0.2269869770767587,
                0.5471789908788944,
                -0.6695341709416776,
                -0.9303808341721262,
                0.4438749455975737,
                1.602817366213233,
                0.8916715114467573,
                1.2684586796597324,
                0.9945211258899893,
                0.0713038135287448,
                1.0559031633073124,
                1.0224667808125947,
                0.9925702282517641,
                -0.41005834494001814
            ],
            [
                -0.004958667557107195,
                0.7542742128250497,
                -0.14074251111003572,
                0.18145112498444702,
                -0.18281069010159978,
                -0.185465162390577,
                0.25410102673652324,
                0.7711431181299716,
                -0.06825414136033091,
                -0.0394653368496027,
                0.40708177808588153,
                -0.31102527095506827,
                0.08750192738982235,
                0.24626943563171516,
                0.27245137028563915,
                -0.40252667251976243,
                -0.20844875269272212,
                0.02651603773760778,
                -0.6519817314406102,
                -0.6296138779285136,
                0.6522479647091688,
                0.3152020550734065,
                0.5125667787592576,
                0.5818921773956608,
                0.3930645772880796,
                0.3235998011872414,
                0.7033794082840975,
                0.9310259904974684,
                0.6397402460250152,
                0.35796153017050003
            ],
            [
                0.9021140547086594,
                0.35391554335073283,
                0.7216452008332878,
                0.4811967427136385,
                0.41016472472944643,
                -0.05429496243441691,
                0.6767942849381717,
                1.1705288270670244,
                0.2563391294021169,
                0.11272245233738762,
                1.0190761855868957,
                -0.049916739328294886,
                0.4653277884382342,
                0.941204589182009,
                0.03201498570600201,
                -0.4089466286907804,
                0.5176699054284687,
                0.6793880669904898,
                -0.0114864019903942,
                -0.5652125105936042,
                1.22491886397504,
                1.0803238268499686,
                0.5392924978485293,
                0.9988540188660677,
                0.6769397417058174,
                0.0021195786869764787,
                1.0211565961236322,
                1.0613344043700066,
                0.702969134273167,
                0.36177742801766655
            ],
            [
                -0.7675298055497637,
                -0.7081222481925502,
                -0.26244494911042143,
                -0.8744845338100581,
                -0.5639747861360528,
                -0.3476890839668691,
                -0.8920886800063356,
                -1.1135708043245383,
                0.0770100585805835,
                0.18032890662278747,
                -0.9614116994950037,
                0.29374281881441194,
                -0.2378847758715808,
                -0.5697416031039673,
                0.5044371716783825,
                1.093207367019954,
                0.11118252630842458,
                -0.4290571804604174,
                0.13140437223392618,
                0.6490837843408528,
                -0.7400085486402829,
                -0.8556531868164968,
                -0.9972906906492786,
                -0.9669115621338967,
                -0.15426551216975853,
                -0.14329681456073473,
                -0.5040390383039896,
                -1.0187371536289598,
                -0.7138817068496484,
                -0.30191672381986484
            ],
            [
                0.15686698529178927,
                0.5475531643139103,
                0.4354081219014494,
                0.5680428394963123,
                0.1467125170684516,
                0.26254762410394883,
                0.024985177297754096,
                0.7011127564339632,
                -0.2435852623019056,
                -0.5076763069566717,
                0.2481344918147285,
                -0.5152389608482572,
                0.30395337550106516,
                0.7156683261942612,
                -0.15153833134994996,
                -0.19106017777918238,
                0.32726898009363453,
                0.5000642289012042,
                0.05256584617737273,
                0.06245263573608967,
                0.2483953814595941,
                0.2610632917626757,
                0.08990894488801335,
                0.4041369903616815,
                0.10222623367603627,
                0.4637853047639982,
                0.6411751886125734,
                1.0037065675430235,
                0.22447849331949934,
                0.14976884468770776
            ],
            [
                0.7187264385255941,
                0.36189866624358663,
                0.5264603354804691,
                0.5603702401983788,
                0.7146395617243035,
                0.046181713268966834,
                0.47187958235203137,
                1.0175349992469533,
                -0.03707787537925115,
                -0.38214286410160286,
                0.7616711490544228,
                -0.24245592932127222,
                0.7829537543755595,
                0.5365924314776772,
                -0.044429336069302036,
                -1.3661392613579362,
                0.199590177954267,
                0.3114239930517372,
                -0.5597366163957137,
                -1.002928388778021,
                1.1827056870541532,
                1.5196353737652275,
                0.543427569268993,
                1.1529674675736852,
                0.4300924462232009,
                -0.49861840539493196,
                0.9753114598106181,
                0.8330196823921269,
                0.9894091811840762,
                -0.10456270094059232
            ],
            [
                1.0175502207767542,
                0.5567446937943491,
                0.8484012947861522,
                1.076189846520244,
                0.10619440502143428,
                -0.1649770200609872,
                1.0837753040116072,
                1.439611883593077,
                -0.21109241617984906,
                -0.2847605332254482,
                1.273667551750829,
                -0.2542832112943506,
                0.683477937512356,
                1.2895112551979286,
                0.17362709775366372,
                -1.3445606155809642,
                0.028356831583312588,
                0.6197953792525391,
                -0.787813059902846,
                -1.2981508769918575,
                1.6642863899070741,
                1.5157120652101137,
                1.4311098267092501,
                1.3103178783321043,
                0.46127580063962575,
                -0.3859406283936454,
                1.310587691290616,
                1.988139350202427,
                0.9977311899707956,
                -0.24942671598991895
            ],
            [
                -1.2797296464135586,
                -0.7503577896984922,
                -0.5861172558062958,
                -1.0312037042130897,
                -0.41012767980754616,
                -0.25702646875804835,
                -1.4210953110447142,
                -1.7228174882674296,
                -0.08630553463202685,
                0.26130527939586534,
                -1.6978782624542852,
                0.197318852770116,
                -1.0626664184507197,
                -1.630021689730555,
                0.2595576965123225,
                1.3268766092464612,
                -0.5144604527363095,
                -0.7498787100304086,
                -0.013268137982518245,
                0.9319048826209707,
                -1.4984088046362802,
                -1.3687121168242182,
                -0.9319599752871096,
                -1.6501982176665881,
                -1.0340685296229686,
                -0.5199683614730383,
                -0.766097983087965,
                -2.034382521077235,
                -1.2270795042180052,
                0.284775389955979
            ],
            [
                0.28610896290515747,
                0.5916242613599124,
                -0.09248904017738283,
                0.7612925284687035,
                0.38519916642634977,
                -0.36787821557230677,
                0.20474783121154125,
                0.9024830883214067,
                -0.04468648393711292,
                0.18247075593731635,
                0.3421762287413601,
                -0.3379894768848229,
                0.6266297139289804,
                0.07285403041815423,
                -0.030052538041797302,
                -0.18811282541047883,
                0.5581420351862415,
                0.5506257328563994,
                0.023795696011200785,
                -0.12883872473895894,
                0.486320701841092,
                0.9263842355487776,
                0.06748270642276909,
                0.9207749730715675,
                0.011466531601060977,
                0.030606670325312196,
                0.7131698621694708,
                0.28792264883340096,
                0.27247540196857506,
                0.17567499536487308
            ],
            [
                0.13516999189506665,
                1.01149347077739,
                0.04501144888782233,
                0.41702102596817836,
                0.4341958165299046,
                -0.4738542177562995,
                0.9794373757939645,
                0.608494227191987,
                -0.10365215342530158,
                -0.3361024684640864,
                0.7705563827299045,
                -0.4778677333683638,
                0.19074160629400633,
                0.5553795815736281,
                -0.2697405237820921,
                -0.9755633218120953,
                0.26551058199449024,
                0.11218744970405053,
                -0.21241892113657998,
                -0.2804230117786965,
                0.3887059732442814,
                0.8238865772096093,
                0.3897141264122351,
                0.7818617837268567,
                0.41657326949184936,
                -0.29948212638574195,
                0.9658041161452279,
                1.394844020638028,
                0.3672150286540918,
                -0.12260255518149614
            ],
            [
                0.25551182057323024,
                0.2611571220904567,
                0.718528737466478,
                0.7628674519056969,
                0.012083919904315663,
                -0.016266330155742283,
                0.7605754481062522,
                0.6266399874092665,
                0.2645505731406574,
                -0.061103241222834,
                0.4364512418809562,
                -0.42514857878487383,
                0.5177512991586634,
                0.2089639450352136,
                -0.3515076769881112,
                -0.532740132162181,
                0.2739660534611899,
                -0.01781279911366894,
                -0.09212261690032286,
                -0.6779235576851038,
                0.3442899746685105,
                1.0069927094700468,
                0.7485516788841183,
                0.596364381898394,
                0.3302456233520009,
                0.2134362092550314,
                0.5369088664849565,
                0.9314732987664394,
                0.5962791105287963,
                0.2253383033015984
            ],
            [
                -0.8647652061755133,
                -0.5549152886621845,
                -0.6344743800392465,
                -0.24877870998305468,
                0.06088704772116255,
                -0.011902369542487915,
                -0.6459640818664959,
                -0.32681222514621244,
                0.12075888545782985,
                -0.13143558083249385,
                -0.5935966539045512,
                -0.036696060108100684,
                -0.18805575069658897,
                -0.6153477016659061,
                0.2609507070591981,
                0.7570882110060255,
                -0.19109728971669057,
                0.03973416166253188,
                0.3863273328232837,
                0.3367933121591676,
                -1.1203427459898179,
                -1.2421240611720208,
                -0.9277651406160776,
                -0.6613408897635966,
                -0.4120439214344384,
                -0.20578794812559037,
                -0.49801311482750216,
                -1.406416172916664,
                -0.3474981701892685,
                -0.25082434318384106
            ],
            [
                -0.14584917588144664,
                -0.37925659602077916,
                -0.78849897570714,
                -0.9246467570833574,
                -0.7133814927094376,
                -0.36458106803770673,
                -0.8508062528291931,
                -1.2316746352767964,
                0.16679664579834813,
                0.2950042049077829,
                -1.2101563920341363,
                0.41935688985325204,
                -0.558359537848458,
                -1.0982875579093663,
                0.019399863407770026,
                0.5144893540847322,
                -0.0844110504480907,
                -0.34306944272704726,
                0.4190056987546938,
                0.8963609654146896,
                -0.4442337222089276,
                -1.0667341852875485,
                -0.6444858008455944,
                -1.016767275139327,
                -0.9897788869952439,
                0.03409662764732542,
                -0.3498000582189309,
                -0.9182251845478373,
                -0.8621529142606437,
                -0.15993411017030135
            ],
            [
                -0.4309799356658248,
                -0.5709670314141031,
                -0.6915956318894504,
                -0.9586407445335019,
                -0.9829914769493852,
                -0.04097644060643214,
                -1.3719194937121248,
                -0.9221114592053093,
                -0.6635413610424183,
                0.004976100042542662,
                -1.1248379028149305,
                -0.14929571424196336,
                -1.2188545788190601,
                -0.9448730465481567,
                -0.09132541034839989,
                0.8561793099078804,
                -0.7055434335881485,
                -0.379363989781922,
                -0.12974719554104794,
                0.5448633523984031,
                -0.7441927329992926,
                -1.3736978853260977,
                -1.1393786778082875,
                -1.4582364701089432,
                -1.1394596260840333,
                -0.37909829546684065,
                -1.1336222138230845,
                -1.7812370089164242,
                -1.0747730837486544,
                -0.2951088676887293
            ],
            [
                0.169372879356593,
                0.652457930393234,
                0.14584826223585884,
                0.23600093092765292,
                0.5588470809097271,
                0.04084394078641265,
                0.7246410949505053,
                0.9696196872385394,
                0.33838726242910605,
                -0.6736646347073274,
                0.5316192360376331,
                0.1296336983061873,
                0.6242798143061684,
                0.7653596400845148,
                -0.10713922938737976,
                -0.9252043023992498,
                0.5571561349650349,
                0.18435367500408945,
                -0.4466963181634002,
                -0.6748331743215592,
                0.704584436003725,
                1.4023571204920227,
                0.5065608427277971,
                1.2348206792174492,
                0.9085459646131127,
                0.426603073313944,
                0.44033546062024986,
                0.9391291876441323,
                0.5901737595714918,
                -0.21230662051592938
            ],
            [
                0.35992513498163553,
                0.6040084950851246,
                0.6069412343534187,
                0.18333847453050892,
                -0.0011515992629614505,
                -0.036617421316802436,
                0.016799959550359178,
                0.5091888868679936,
                -0.09705271303609804,
                -0.6035657756010556,
                0.9298746899370121,
                0.2326484047835522,
                -0.10418841658902002,
                0.22283239594520415,
                -0.36169599367234223,
                -1.0011837985808565,
                0.037337463088611064,
                -0.0010541854535520247,
                -0.5914201551358778,
                -0.4501265121682202,
                0.8325848034076354,
                0.8714653402280743,
                0.38419369426039784,
                0.7833067769809259,
                0.6311940805623315,
                -0.18664771061803936,
                0.16521087950645894,
                0.8735671300664135,
                0.27631724212208486,
                -0.2154532832730685
            ],
            [
                0.832098943540356,
                0.7986131511756014,
                0.9058590038541496,
                0.5220512809023473,
                0.406562302352005,
                0.12398218522230871,
                0.8473054045667178,
                0.5682104854338064,
                -0.046249130003479744,
                -0.6654885750169858,
                0.7540075246010773,
                -0.025052719218824432,
                0.13582924510762173,
                0.4694665672111125,
                0.18023249722286666,
                -1.196215658522543,
                0.11231185423173311,
                -0.0446408830162269,
                -0.5846428724672031,
                -0.4632766679337205,
                1.0294828743488122,
                1.2901614936328634,
                1.0875433839083948,
                1.0693408754090208,
                0.9859923311246218,
                -0.4802451642169293,
                0.962188453155543,
                0.9261651649809541,
                1.0373552754696296,
                0.29996981760484465
            ],
            [
                0.037726408786227954,
                0.9631813734205106,
                0.19029842861459645,
                0.02886920908739006,
                0.18171098132457558,
                0.05064342998406434,
                0.5397847308399061,
                0.41711974573783095,
                0.19919879535032184,
                -0.4731756518065261,
                0.2589251586425178,
                0.20489728392822185,
                0.7479833062958031,
                0.8050833987050914,
                -0.03798707121485628,
                -0.3788643882845611,
                0.23644955721727415,
                0.41847914537636083,
                0.10623654726408906,
                -1.0464570246891132,
                1.0456925410571185,
                1.3363992398209534,
                0.42835373326689824,
                0.6443095220681289,
                0.7278217449886444,
                0.1657555177129283,
                0.9660841551538598,
                1.0298130014315952,
                0.9551361860027444,
                -0.42694861184570115
            ],
            [
                -0.9919477675129951,
                -0.9511616931449426,
                -0.6801745102127331,
                -1.0484856365117898,
                -0.26906613577375726,
                -0.2810629027697724,
                -1.2402519656440005,
                -1.0192301617200417,
                -0.22893410911775625,
                0.0710392416937227,
                -1.0058736065389022,
                -0.1695143024897199,
                -0.7565881807212209,
                -1.0497864800207433,
                0.39035642277494037,
                0.3316031252047423,
                -0.1672037813568109,
                -0.5465804029952476,
                0.5669080200997384,
                0.8905303086258491,
                -1.5273268766191745,
                -1.0022482306107388,
                -1.2625866337826257,
                -1.5866541725719558,
                -1.2811052459317636,
                -0.12196323382735418,
                -1.1145801342204982,
                -1.4785688406762212,
                -1.0250794685123017,
                0.06602633541698802
            ]
        ],
        "l2": [
            [
                -0.41706556813852164,
                -1.0382754640505627,
                0.5908557846584082,
                -0.30728158444561027,
                0.7479673005021084,
                1.0523712592159626,
                0.6769251780027457,
                0.7807275052247827,
                0.34577870763082613,
                0.3047634708947652,
                -0.41163630693751857,
                -0.9313593268624637,
                -0.5627252257881133,
                -0.8419018313115741,
                0.5118598335728589,
                -0.04628046964040326,
                -0.36796175599463155,
                -0.8583007435596579,
                1.1286149975307531,
                -0.24920097612851871,
                -0.999897397006166,
                -0.49556297577544345,
                0.3505812715043695,
                0.7132604940099975,
                0.59740856770918,
                -0.2241985210087281,
                -0.7448768392974583,
                -0.9324092604196065,
                -0.6901043906708522,
                0.801353853156202
            ],
            [
                -0.5476549946716267,
                -0.898730939301372,
                0.2420391178031835,
                -0.6407610294218449,
                0.4420471015400236,
                0.533681885843739,
                0.92615436662982,
                0.7208177810151263,
                -0.13753701665135326,
                0.6755413916420397,
                0.040897300708141335,
                -0.3448892312901023,
                -0.18069362519091137,
                -0.6597459899909982,
                0.7056695219846434,
                -0.0319207839222119,
                -1.0006722376624546,
                -0.7214268037803478,
                0.4179829283771748,
                -0.17637097107961247,
                -0.3509953696006308,
                -0.20751082671354643,
                0.7334765644698251,
                0.6875875066496718,
                0.5149208562980736,
                -0.7545672853802511,
                -0.3536349898170421,
                -0.21154601076489707,
                -0.08393758280386661,
                0.6549627913345812
            ],
            [
                -0.3294607277112637,
                -0.7995212694786686,
                0.26084617673784805,
                -0.10084802802282439,
                0.09892548286707636,
                0.6191590315349077,
                0.14955365386158054,
                0.4456654270502762,
                0.052288053987951055,
                0.6032174370059078,
                0.14005789801864194,
                -0.47900027597073563,
                -0.026563949138085678,
                -0.5141563022521386,
                0.6267116989924503,
                -0.4495873682018669,
                -0.4944535235599786,
                -0.7290132700348633,
                0.4278108572729824,
                -0.4214173852713534,
                -0.4671588696933141,
                -0.3075190299060881,
                0.22101060811454729,
                0.690877292124824,
                0.3611175912349112,
                -0.700726942477152,
                -0.2455362221032713,
                -0.6792416577075079,
                -0.44968951448002054,
                0.08865072781934591
            ],
            [
                -0.4162885296572467,
                0.18485276408027698,
                0.45652934829646946,
                -0.06731091737759393,
                0.5751264146468126,
                0.6357429054165065,
                0.5518885535683077,
                0.4367803842580257,
                -0.04151609951988176,
                -0.0981385506577518,
                0.08949487550269236,
                -0.5549052171655975,
                -0.4527678296843301,
                -0.30077309861802454,
                0.6261709955791426,
                -0.342111497851516,
                -0.4009402053295543,
                -0.5045026495882848,
                0.5988305768447869,
                -0.3860059528079593,
                -0.37926426636680594,
                0.11145793652730501,
                0.5308450730654728,
                0.5510534999850736,
                -0.11884851810048618,
                -0.20781425604090267,
                -0.13434424668835773,
                -0.3978309297226549,
                -0.6485522182909007,
                -0.34645792921073976
            ],
            [
                0.3032386460691474,
                0.4746290554490896,
                -0.4334485607205755,
                -0.315741000549904,
                -0.3385700378177436,
                0.1780934510277718,
                -0.36949332148592845,
                -0.3736324488334184,
                0.271935881147845,
                -0.5379583939149607,
                0.045865628138396085,
                -0.14350733652637476,
                0.41522779348219135,
                -0.1811626240887461,
                -0.5243831029767229,
                -0.16872746831632807,
                0.38649118372625285,
                -0.32360483247836924,
                0.20906417240545785,
                0.37253545487255685,
                0.5328918610532004,
                -0.31780817345842455,
                0.17956101784137157,
                0.07970718886510203,
                0.04196042056291051,
                0.12689952339598937,
                0.5425121153678044,
                0.5135673152362485,
                0.08221187922760334,
                -0.4337238236766829
            ],
            [
                -0.29505023885468473,
                0.46745670992799304,
                -0.0979956630758935,
                0.3649218381658851,
                0.03189875984218657,
                0.023759868835779227,
                -0.1618878857479274,
                -0.582616416384458,
                -0.36488027383758764,
                0.002938139786011032,
                0.028042533714850906,
                0.48676482623317907,
                0.5899285847042268,
                0.015528785666061782,
                -0.15548586854430743,
                -0.20221296308602066,
                0.16788583243708602,
                0.6101073034813659,
                -0.2232636964483047,
                0.4326999383012519,
                0.5155878304715904,
                0.6006548154443642,
                -0.1877435735890216,
                -0.7126762659533505,
                -0.13465688757436894,
                -0.04737317957991172,
                0.7272551316340805,
                0.4841831162653817,
                0.29948873843533746,
                -0.23604863379169824
            ],
            [
                0.38387707698673784,
                0.35634136686942663,
                0.16804521213472814,
                -0.24697389121201097,
                0.32906217261903664,
                -0.16529733788945558,
                0.3695259652995122,
                -0.33111532266426535,
                -0.02390370786948592,
                0.30947551650858,
                -0.150267817312979,
                -0.4265088687358693,
                0.08412952625608772,
                -0.18452699448059492,
                0.3182218952092664,
                -0.30163500255129355,
                0.16468827156569207,
                -0.4075021691747055,
                0.24024098792476195,
                -0.436323669003937,
                -0.21809703640850553,
                0.17746924928484833,
                -0.16331305945773894,
                0.3579932521820205,
                0.25612066378224674,
                0.3184670939796681,
                0.17970100542574474,
                0.13560121261872954,
                -0.09999459372484433,
                0.2240915876688579
            ],
            [
                0.114577411797935,
                -0.4336406919883011,
                -0.1944091308016543,
                -0.6379750740657917,
                0.7198456072915072,
                0.7113061333926711,
                0.017101802043242215,
                0.07071573490029094,
                0.5145700550244717,
                0.22952803080667936,
                0.18547383505171933,
                -0.21033867093155312,
                -0.3150174507409913,
                -0.046523931912112244,
                0.4553832868689961,
                -0.3927222834719101,
                0.017879379256619362,
                -0.38869521567713516,
                0.583589260825299,
                -0.06579103538618042,
                -0.1532393194930238,
                -0.25715992652127695,
                0.6378178284500607,
                0.4763127504253556,
                -0.10349790081178344,
                -0.025890649026760706,
                -0.29328854201982524,
                -0.7311411324860053,
                -0.6924971111937526,
                0.579074510300225
            ],
            [
                -0.26877631179286354,
                0.07744748606912741,
                -0.21615840899554986,
                -0.45916934071790605,
                -0.2680350910981319,
                -0.1799531856457422,
                -0.19750831067184466,
                -0.12719541920882074,
                -0.12925540598028767,
                0.38041412571448674,
                -0.3607399419839715,
                -0.39946457822688264,
                0.2675327351748656,
                -0.13957023433727198,
                -0.1342773103081269,
                0.055751562772394674,
                -0.26340471766561047,
                -0.4230598806861154,
                0.3323877213348699,
                0.053237793393138326,
                0.1936407752469127,
                -0.449560820555492,
                0.41073876836964723,
                0.17376204235749318,
                0.2564025798028542,
                -0.33870188430166415,
                -0.048057935141172736,
                -0.470406514990542,
                0.15038933339565702,
                0.18815724605087294
            ],
            [
                -0.06555866372342298,
                -0.8046152291120087,
                0.13841077520553782,
                -0.6645761214137271,
                0.8094633928206093,
                0.21406695120445238,
                0.9129074083271002,
                0.49541803889757596,
                0.3507762274147252,
                0.5810337940715917,
                -0.4701365520445493,
                -0.4780169256258482,
                -0.8796630265877237,
                -0.2160086391137382,
                0.30033157044922665,
                -0.5089793498964517,
                -0.8193667678569433,
                -0.6992422600919784,
                0.9706914392994526,
                0.2012624969304614,
                -0.6786287843345674,
                -0.09535072944526705,
                0.18716738318431475,
                0.2774434060545052,
                0.7487367231686877,
                -0.8776650023368666,
                -0.4285103514908309,
                -0.6578927567137979,
                -0.9572402254803604,
                0.7660020511761927
            ],
            [
                -0.2920463140827359,
                -0.6426249973611234,
                0.6815758222438266,
                -0.6429748587981297,
                0.7917265633538917,
                0.8424903081712819,
                0.9644115320681209,
                -0.012534208617652648,
                0.1332358756410116,
                0.3206510089480425,
                0.2603369497172247,
                -0.7825312386351337,
                -0.25262087224976776,
                -0.6800980641721015,
                0.1487036139923716,
                -0.19988292124074966,
                -0.9294915071678597,
                -0.41303877185294174,
                0.8086733503764502,
                -0.5474224190647236,
                -0.9134586020485715,
                -0.19294393988184258,
                0.603461643438541,
                0.5196057732481809,
                0.7392152268538108,
                -0.5317640744861181,
                -0.9406201522691034,
                -0.23464194246152262,
                -0.6242977045541309,
                0.15358927540100348
            ],
            [
                -0.3494573322520969,
                0.5922388727993922,
                -0.6316598346566552,
                0.2110794646377363,
                -0.36815542704488835,
                -0.08924938048575652,
                -0.4033789053814997,
                -0.6563382655130959,
                -0.2448976110165405,
                -0.023942992874385814,
                -0.003725747631525967,
                0.4210831715835845,
                0.4257379985841764,
                0.2649357502638991,
                -0.20968898799937044,
                -0.3056924678698387,
                0.48263948370195586,
                0.33652008747121,
                -0.7870779990505984,
                0.3910323817484502,
                0.5397927836627553,
                0.41926668471661555,
                -0.19031090503349227,
                -0.022618005840924025,
                -0.40011550353724057,
                -0.16959798513290186,
                0.150351793313192,
                0.26636394126253754,
                -0.04470438695407823,
                0.21478349488246484
            ],
            [
                -0.31680574521516963,
                0.08312889204639126,
                0.21294407065184165,
                -0.017290713520240395,
                0.2549619046914703,
                0.3633554852982392,
                -0.33392614039410046,
                -0.05816421236525692,
                -0.18876530469282257,
                0.272226871678051,
                0.36277363518694233,
                0.1408713426885208,
                -0.05861466994703571,
                0.030612735789913043,
                0.1329695489859339,
                -0.33815093923056466,
                0.14182264954063623,
                -0.07679165709098923,
                0.01187385974066692,
                -0.020148834965732887,
                -0.30201709045820313,
                -0.34071010834229026,
                0.16442526173317054,
                0.029841292773294288,
                0.23317916234920558,
                -0.20600960462684306,
                -0.23788673859049186,
                0.26331637224728777,
                0.05641395614681164,
                0.24863095593923146
            ],
            [
                0.1969790567847451,
                -0.17734831715374832,
                0.11616556295997192,
                0.0011661791904638728,
                0.018281763590044416,
                -0.031040173520517713,
                0.650680275657593,
                -0.02071610285084127,
                -0.239913173394526,
                0.4349680939547113,
                0.2905119102233418,
                -0.0488504176434808,
                -0.21264913626640494,
                -0.11018640623691081,
                0.5289768755340167,
                -0.46832679912153535,
                -0.19230837712355325,
                -0.6049365609830629,
                0.4455444512029727,
                -0.26961420428483507,
                -0.6099205635355586,
                -0.4445533078987678,
                0.17873482505310298,
                0.4063378134892772,
                0.548183799270183,
                -0.43888302882470404,
                -0.0960330691185196,
                -0.1441814008579091,
                -0.4708167291427622,
                0.3852238338418834
            ],
            [
                0.1852873691893193,
                0.7105008659152039,
                -0.169834938087164,
                0.4560126854447675,
                -0.19916704225457738,
                -0.7123804800035158,
                -0.3960467163733955,
                -0.7929047311996971,
                0.005287971834636651,
                -0.8762668757823554,
                0.3867134070473374,
                0.6254308098367788,
                0.7012949397005643,
                0.4525633005711626,
                -0.8761288777824989,
                -0.1289648691227922,
                0.9277616176755186,
                0.47418552031412853,
                -0.4686922416646535,
                -0.015160066110164901,
                0.0634544222233067,
                0.013996709641524357,
                -0.08187605286379476,
                -0.7915840887261322,
                -0.6405671910024184,
                0.3295335435059208,
                0.6945737938709586,
                -0.05150721076848533,
                0.13505526834581713,
                -0.6765972573682678
            ],
            [
                -0.1021643767601807,
                0.48423812090978013,
                -0.2581012770112096,
                0.08966950076585299,
                -0.5025865695204927,
                -0.17912562919721317,
                0.3284110071063922,
                0.3466427268663466,
                0.1886704216789069,
                0.24128975915624282,
                0.31920840786733473,
                0.14075268515795838,
                0.010255740168879394,
                0.09656481261222566,
                0.26431949536443994,
                -0.02793531957135409,
                -0.2387789710070441,
                0.19819683762207152,
                0.23203925458339142,
                0.0915220840899739,
                -0.07020878718097619,
                0.3817955737076322,
                0.22360844069487337,
                -0.25863271787919856,
                -0.2088321563076161,
                0.49502133060760306,
                0.4717577090414558,
                0.049285009344610026,
                0.40202862522869276,
                -0.3495852251540479
            ],
            [
                0.49635778263716435,
                0.3957276191037668,
                -0.05186711356678243,
                -0.07864844218642081,
                -0.5839443912491372,
                -0.07476801241295629,
                -0.18739859875711243,
                -0.4505712214746358,
                -0.44998635334118037,
                0.036609939491011774,
                0.08554667912219613,
                0.22062434779200774,
                -0.24647169378749176,
                -0.009885368956618975,
                -0.10950006587211153,
                0.15458039296258888,
                -0.09461150984753462,
                0.3343958538736119,
                -0.2152700093147417,
                0.48197481694573224,
                -0.09313924180610499,
                0.206499687156923,
                -0.13752475505414286,
                -0.3610647257516012,
                -0.5323128809586186,
                0.1741777036859621,
                0.14339314468634412,
                0.31423099316946174,
                0.11760711279476155,
                -0.2503332126222505
            ],
            [
                0.36434004777088674,
                -0.0483671457317749,
                0.30268953556235706,
                0.34074216417139314,
                0.23492462509062007,
                -0.6021502939464347,
                -0.12470864976602235,
                -0.2192137559247502,
                -0.23928085471921437,
                0.25930936399963483,
                0.2779099661800695,
                0.25298078810390956,
                -0.04717175164672213,
                0.48623860239380173,
                -0.0039476367883551095,
                -0.19728094067161125,
                0.5551712523200096,
                -0.2350762776753658,
                -0.5248496481367225,
                0.28372120888222374,
                0.10781237958131062,
                0.09523259646252233,
                -0.16899865737681677,
                -0.33955759732984825,
                0.17355809298059732,
                0.24402522910831426,
                0.5897992316538088,
                0.3126391479617222,
                0.4830768316471468,
                0.1266866114296748
            ],
            [
                -0.056670301284667005,
                0.2043640021523986,
                0.022050328915951146,
                0.4773243339916731,
                -0.6045820689338477,
                -0.5561596471148398,
                0.07169441299006002,
                -0.5385305514661181,
                -0.3500548234439458,
                -0.5800889443901576,
                -0.02232966174889831,
                0.7827816222029879,
                0.3289601997711497,
                -0.1040042565427477,
                -0.2018628287629396,
                0.4134534891370025,
                0.7082683822786537,
                0.04799208808514366,
                -0.6621740457525905,
                0.2207106343370346,
                0.6108803159470684,
                0.4837726753468283,
                -0.523695889490905,
                0.12839367928030393,
                -0.4977360976652096,
                0.4828862042181349,
                0.10821194294338539,
                0.5868250091248456,
                0.33040126751482507,
                -0.07471356004160358
            ],
            [
                -0.3064623200958341,
                0.2891818282096074,
                0.1223544506692133,
                0.42312529197346227,
                0.15775939984356288,
                -0.08174384754421742,
                -0.2098541041316022,
                -0.09782734271332837,
                0.15357313409600015,
                -0.023926661040832402,
                0.40766909203080764,
                0.4563345286465452,
                0.059822131279180686,
                0.14702906447977435,
                -0.49797437740359646,
                -0.2944882740611285,
                -0.024242364804632856,
                0.3556080402888747,
                0.09133626744798636,
                -0.3761177025498888,
                0.31603868534509977,
                -0.1338966335729532,
                -0.3482668797256701,
                0.3303225827594515,
                -0.07577315405770985,
                0.43501018337336494,
                -0.300448194448543,
                0.370897173514918,
                0.0028308590494548103,
                -0.34971303861057923
            ],
            [
                0.48522801972099827,
                0.5422384286459799,
                0.26349754344426346,
                -0.195795294798822,
                0.10946630420512493,
                -0.3363543747940859,
                0.15940237177599448,
                0.23085189777029078,
                -0.05731270751151097,
                -0.306342917512673,
                0.35702196585069784,
                0.05971182089701952,
                0.34859258929506926,
                0.5856992117670334,
                -0.22313149430792592,
                0.22555250577667368,
                0.23373434282311428,
                0.5345007395299668,
                -0.4843635975854277,
                0.4354106475306392,
                -0.02827961272752388,
                0.39566531971367436,
                -0.06825652380497853,
                -0.6215773575991765,
                -0.5987648234501838,
                0.5479302581393765,
                0.6666398219722012,
                0.11330888709487724,
                -0.15512226941091356,
                -0.040952514573348954
            ],
            [
                -0.3003934952991262,
                0.25913996322789384,
                -0.11745226079959975,
                -0.5640049484878661,
                -0.02808756117014776,
                0.31344215328692493,
                0.3145298381659236,
                0.5043807735159678,
                0.3002491591455557,
                0.27754868275934064,
                0.057882527617472986,
                -0.385916554530203,
                -0.047552072332309195,
                0.33970639184568874,
                -0.22988419476797878,
                0.15817594408797955,
                -0.47221116836240934,
                -0.44508879124792744,
                0.27947232331561617,
                0.0077736427959957215,
                -0.2482448795745524,
                -0.46163033608343856,
                0.44729406283147766,
                0.5506064355894734,
                0.2294719020381335,
                -0.47667773420022236,
                -0.3350483477890633,
                -0.41532486165765886,
                -0.4117161493297546,
                0.5069947199579883
            ],
            [
                0.020703558841329295,
                0.04117639103589423,
                -0.14113010558638064,
                0.6624158087219237,
                -0.2754419248713898,
                -0.665886215475688,
                -0.8373072604122562,
                0.17397383073260755,
                -0.10528020268683358,
                -0.25994142594737996,
                0.41081420952227693,
                0.6346445255798676,
                0.03550135974920995,
                -0.23006470082775415,
                -0.5215163706390415,
                0.1943028589088415,
                0.6635824447303569,
                0.46135167734216903,
                -0.33792750953058465,
                -0.12966684609127596,
                0.47443179879419756,
                0.49051547132061707,
                -0.5125492119137622,
                -0.40934549141549087,
                0.14216600308429453,
                0.462651341512146,
                0.196580428973113,
                0.558054859251555,
                -0.043564594759249224,
                -0.2522535598178836
            ],
            [
                0.06356256295488062,
                -0.4957677405309468,
                0.3418728159633075,
                -0.49395217790654267,
                0.07708731608567765,
                -0.21520289708486254,
                0.2678061404305315,
                0.18714253567640468,
                -0.26696417664831046,
                0.41312806065529245,
                -0.07463431260632332,
                0.34138351813271334,
                0.23298926778653156,
                0.07239324509869954,
                -0.18915131777107086,
                -0.19153280046137441,
                -0.3506800978180909,
                -0.13432878552494387,
                -0.36891926826171145,
                0.13671759324834104,
                -0.5346257512350328,
                -0.2624051129070557,
                0.08690876715339041,
                0.1838770980673197,
                0.1944101419576734,
                0.3509673371548926,
                -0.43050462107277904,
                0.3370375624522836,
                -0.18917321858609146,
                0.1824238191934057
            ],
            [
                -0.05405787223743106,
                0.307251786112681,
                -0.4584448335364837,
                0.3064008681661439,
                -0.3435245747783312,
                0.04901302852290964,
                -0.2349220893208024,
                -0.5447217702669759,
                0.23180558123973807,
                -0.5519076360698774,
                -0.2325864081213682,
                0.39138267001411803,
                0.25643777454815603,
                0.4792775010468898,
                -0.1706091594603143,
                0.36484625688585387,
                -0.03657999944450458,
                0.42268840057827123,
                -0.3352851283919282,
                0.2597449514883339,
                0.5135620999110445,
                -0.11866018578188495,
                -0.4123462986772011,
                -0.27255198143990333,
                -0.4530725703289239,
                0.5918734514871975,
                0.4610300287023476,
                -0.1184297538583009,
                0.3480156822622039,
                0.14107727013571103
            ]
        ],
        "l3": [
            [
                0.4498254188603467,
                0.5593729572473619,
                0.09528951316598075,
                0.28661945894866275,
                -0.06007641367561525,
                -0.707390603094564,
                0.41985202546462125,
                0.08260597637182358,
                -0.15419216828613921,
                0.317121857077167,
                0.6488508048650352,
                -0.7247266130176754,
                -0.30645950589142307,
                0.43905213515440356,
                -0.5005497392090554,
                0.15126103986259634,
                -0.14762487159929513,
                -0.2778900710793318,
                -0.1231894134679666,
                -0.07223797127000532,
                -0.508819787007669,
                0.007651902567261723,
                -0.6575594794830544,
                0.6027136989184549,
                -0.5483318112022183
            ],
            [
                -0.354301134721842,
                0.0712740318685393,
                -0.4188645237820968,
                0.2286654167023034,
                0.4182184237827212,
                -0.15996868455329116,
                0.41388318907511723,
                0.07534875387203446,
                -0.44667867904962333,
                -0.5148936895867476,
                -0.20404037383246998,
                0.07664967571475483,
                -0.2335528556257647,
                0.270889879317043,
                0.5241066183965223,
                -0.10258510133072007,
                0.2538412550497752,
                0.0403824753539349,
                -0.33141883216971774,
                0.43686999639107665,
                0.2729325756101938,
                0.34690159511297297,
                0.4871119594593847,
                -0.33364720010921095,
                -0.1035060739375219
            ],
            [
                0.34938372076953134,
                0.2743206506657017,
                -0.5259393267155171,
                -0.5487966371610595,
                -0.1228144215868423,
                -0.16516722811684162,
                0.16019329767919,
                -0.4515526042356576,
                0.43977411781004816,
                -0.49654008756444545,
                -0.5345481537682177,
                0.28350370428396154,
                -0.523451947684766,
                0.05966687079985182,
                0.26112436242928444,
                -0.4620522060037912,
                0.4073098678430331,
                0.5439553774957129,
                0.48861480897229836,
                0.4815720269917442,
                -0.3854570911990325,
                0.031253546455674866,
                0.5845254892683025,
                -0.3223689339302939,
                -0.15277669143148503
            ],
            [
                0.5192950925118133,
                -0.06817578988227138,
                0.45647882073648105,
                0.5046081461455106,
                -0.352269711559043,
                -0.3146562420044907,
                0.1523459981979959,
                0.5892219999050683,
                0.17850662961226108,
                -0.0656961757157656,
                -0.1259368034434235,
                0.023060869797798682,
                -0.053733677060908584,
                -0.10397707241850919,
                -0.560247057606999,
                0.24008265178889948,
                -0.46803635309094765,
                -0.3704611875249827,
                -0.17192077180383628,
                -0.19741174546495502,
                -0.03533775131415169,
                0.1574104771345063,
                0.15289143737583283,
                0.46374468663645707,
                -0.17793137875927278
            ],
            [
                0.005392030640666286,
                -0.7463657346328519,
                -0.36321228407233275,
                0.07025526989647482,
                0.10753974649202715,
                0.11837335628470362,
                0.008442358523026279,
                -0.3719999932414265,
                -0.0856644439536091,
                -0.47709661994138375,
                -0.7909920143187561,
                0.489725951900369,
                -0.2964046394827717,
                -0.6447286246144699,
                0.9083765744935893,
                -0.37605616770662675,
                -0.13165520397380726,
                -0.04157977912183178,
                0.3370115139284725,
                -0.047511222092421306,
                -0.23585337991501665,
                -0.558686690235504,
                0.4832251703488753,
                0.20359125047293633,
                0.1435219171911935
            ],
            [
                0.7825823199858306,
                0.8311091301931186,
                0.725789587511332,
                0.6102208086876446,
                -0.24924503049950783,
                -0.68525792927714,
                0.5515094511975805,
                0.3880984020835552,
                0.5416904888191377,
                0.6239879337198776,
                0.46779411443542535,
                -0.7091505543183461,
                0.024824286793450164,
                0.7827371388689498,
                -0.44690074465926233,
                -0.4135676758546909,
                -0.5570185076157115,
                -0.145174796445902,
                -0.9616110816102333,
                0.17575283526163143,
                -0.48148700686618867,
                0.4267431493175186,
                -0.8593987019566279,
                0.22801314734789802,
                -0.254924597574365
            ],
            [
                -0.5545975593742974,
                -0.0973813506166587,
                -0.21864416677344514,
                -0.0976771333948408,
                -0.01884696471294748,
                0.06995414216966522,
                0.2562726332183011,
                0.16890911309474854,
                -0.05157663845598441,
                -0.5843739379791821,
                -0.4380554898384963,
                -0.08033564788265078,
                -0.35993120495423736,
                -0.0994327972264489,
                0.404262587541014,
                -0.041786443282528445,
                0.05705782358424003,
                0.2616974162183112,
                0.30517126381953574,
                0.566222772566475,
                0.2793877421025161,
                0.28284724160218583,
                0.22058818807918826,
                -0.1683750944652724,
                0.5616062670996057
            ],
            [
                -0.003298035673141826,
                0.6749903074023105,
                -0.3170511937056542,
                0.45150370166832277,
                -0.5614862383529202,
                -0.14260275390602883,
                0.522131910641438,
                0.36152092923686163,
                -0.039949950811905686,
                0.5373873605527261,
                0.04573616669721142,
                -0.2780082452601638,
                0.08083991283135837,
                0.21839455583205067,
                -0.43422834042847497,
                -0.3395494461269186,
                0.14571786058311467,
                -0.062206559937926544,
                0.20619353443285587,
                -0.38368101689644757,
                0.1569338203144402,
                -0.22324170912173763,
                0.22188278360853836,
                -0.0009501425613607107,
                -0.019153272125818955
            ],
            [
                -0.7779577156503636,
                -0.5400187543752555,
                -0.626348299377895,
                -0.5175268901971681,
                0.43434944611229254,
                -0.13490579553888743,
                -0.4155613156219794,
                -0.6256441385750902,
                -0.3581512317081983,
                0.06283909681388372,
                -0.5578021584417122,
                0.41200573218185627,
                -0.5871747061850897,
                -0.6452086281609595,
                0.03322342377605755,
                0.19132020666385988,
                -0.28395917213262684,
                0.15258719431674392,
                0.2712185511967877,
                -0.07017391854710889,
                0.40482568096940197,
                -0.5552196026027317,
                0.5701894675268189,
                0.2276853274208811,
                0.5040833572461156
            ],
            [
                0.6775542801509119,
                0.749075925524959,
                0.07898063548484485,
                0.44083520706283225,
                0.028670278304574203,
                -0.22496562768656536,
                -0.20867740157875614,
                -0.10448480553561207,
                0.4004088504250578,
                0.6213514339705382,
                0.5163807482792115,
                -0.04069893339106262,
                -0.1954595394738635,
                -0.03110426629100553,
                -0.7147680448526482,
                -0.033628850256564376,
                -0.6883709138613038,
                -0.41702558528804273,
                -0.4724798655401614,
                0.1747457143001267,
                -0.2005765660707798,
                0.14108509154184395,
                -0.18186948294605287,
                0.23312399291140468,
                -0.06869580237332734
            ],
            [
                -0.4205137593447029,
                -0.22103394298915274,
                -0.3067954497508203,
                -0.06353648159927129,
                -0.28132317783726857,
                -0.16832842355668365,
                -0.0461424675473583,
                -0.04852368230056709,
                -0.1246326805078401,
                -0.3764416504385293,
                -0.4257005170838696,
                -0.1881077299587303,
                0.12551724436350392,
                0.4662545043156464,
                -0.11774175037194481,
                0.3405196062721572,
                -0.34437337836256143,
                -0.3100387868971014,
                -0.024799893218740772,
                -0.3240172570830044,
                -0.4164007107881674,
                0.3576105690225351,
                0.25219458792735683,
                -0.3442012666070611,
                0.0459363237252733
            ],
            [
                0.5906184200030389,
                0.03861634990654033,
                0.5336677470411283,
                0.4024954256685375,
                -0.21485833644240612,
                0.14839580584338413,
                0.24777306481478112,
                0.18786772554736172,
                -0.10533864296551879,
                0.4401959631706024,
                -0.2539894946150348,
                -0.4726881160039212,
                -0.01180489269784832,
                0.190027156295038,
                -0.6698486327976452,
                -0.01816824823930923,
                0.20627455059332292,
                -0.2663103265722556,
                0.12574748742282124,
                0.007459698231179561,
                -0.5156254683442091,
                0.3482445358555393,
                0.11164552241888892,
                -0.1030780336295764,
                -0.2036802760870679
            ],
            [
                -0.5036400706238582,
                -0.6486476731891876,
                0.22296305165561778,
                0.13424224540725482,
                0.29061698395443974,
                0.5426504072657482,
                0.30970907662485986,
                -0.5412664841144079,
                -0.45662565507398983,
                -0.422036897051615,
                -0.29352540466677124,
                0.5321474221937443,
                -0.4082502247871247,
                -0.15579951670467207,
                0.24339965540569644,
                -0.011631987444351963,
                0.40476863058051976,
                0.47733069233138536,
                0.3141043705331952,
                -0.0017870728676074369,
                0.06763802587082722,
                -0.7034003922452206,
                -0.09594756785331453,
                0.26743398217347436,
                0.38911426210731626
            ],
            [
                -0.3402683336088353,
                -0.035136580003842656,
                -0.04977621638672979,
                -0.1972637333269317,
                0.3972130400465879,
                -0.33702975256670387,
                -0.12578030608956545,
                0.20887664382945031,
                -0.35322102752694895,
                -0.07813370461398132,
                0.020132465755090586,
                0.21945939452335014,
                -0.38508367955205175,
                0.09140535300961564,
                0.21073895082613633,
                0.29324339675241656,
                -0.021595416443660486,
                0.2587206611047676,
                -0.42146722920772134,
                -0.155956281216871,
                0.18538071328027778,
                -0.3231558211196454,
                0.0452622702116906,
                0.29108712281123283,
                0.2116252582814786
            ],
            [
                0.2795703134925445,
                -0.09685268940397833,
                -0.2778799359502477,
                -0.22718178733669345,
                0.40450173521682675,
                -0.03674410448773979,
                -0.4400906922760202,
                0.06251781708718723,
                -0.04287333016426565,
                -0.39544491259209336,
                -0.4794298320222776,
                -0.3156850017549363,
                0.3753778825069076,
                0.08788103200345912,
                -0.15644861785951952,
                0.3851198118689146,
                0.345474669191995,
                -0.048410955387857425,
                -0.40959401729557376,
                0.2509578241335485,
                0.04867116199757426,
                0.2992471302954831,
                0.4585329635197047,
                0.12937641640667435,
                0.1036357328523288
            ],
            [
                -0.36129210637172693,
                -0.5863685696715023,
                -0.08219461010159691,
                -0.5321072756077792,
                -0.24017521411667236,
                0.6636814801914719,
                -0.4833590399610315,
                -0.6786511787634996,
                0.10220193707426906,
                -0.580558696600978,
                -0.22638574063575753,
                0.20654222325381566,
                -0.26247104072581834,
                -0.666468023097645,
                0.5392782540874701,
                0.47840807757030784,
                -0.03279559083184951,
                -0.13267513888795546,
                0.17698218072287777,
                0.3134802219495778,
                0.123946155401329,
                -0.6850338209061271,
                0.4344301521456097,
                -0.6599124320512726,
                -0.005660647904470705
            ],
            [
                0.7047277910901069,
                0.3340967486932523,
                0.5386503415723084,
                0.17358598603778477,
                0.06619246579965563,
                -0.19048558190877943,
                0.07654056578464634,
                0.6423608950223978,
                0.15851536275010558,
                0.7129376299947794,
                0.6888537332224401,
                -0.509123612418724,
                -0.1156744921525641,
                0.06501100523247966,
                -0.5505637009120099,
                -0.34090008799706345,
                -0.36544957428090846,
                -0.5639303231858481,
                -0.4304919043235233,
                -0.10984420531544854,
                0.014852663924325212,
                0.3584101045061071,
                0.006390048690505354,
                0.0940456108507047,
                -0.41475485235291754
            ],
            [
                0.5565109327748614,
                0.5068761506647879,
                0.29869703529458524,
                -0.17730309444975836,
                -0.627805678653299,
                -0.1397240974561281,
                -0.3181676198641466,
                0.19966496101819753,
                -0.3469481256665426,
                -0.052685178981081604,
                0.29974479050629743,
                0.12668038639945298,
                -0.014672142668461454,
                0.03343259562612937,
                -0.5085063312640745,
                0.13806968640770864,
                -0.5818289942154056,
                0.2893612075575486,
                -0.02412009206019198,
                -0.32519726956211786,
                -0.45899638282473215,
                -0.058161859329253315,
                -0.5609684879726675,
                -0.0862942256870187,
                -0.671858461309782
            ],
            [
                0.10215022817580846,
                -0.46855907224095644,
                -0.1137168427643766,
                0.34944434397944385,
                0.020706208496514764,
                0.07139303980755858,
                0.47123642891917017,
                -0.13946965560462982,
                -0.2079532253357232,
                -0.27032151635302637,
                0.33514421899169544,
                0.42296910212723393,
                0.1573267606978611,
                -0.13148308415848067,
                0.047944684919372545,
                -0.4329065841134264,
                0.3845652019470363,
                -0.25046880375251407,
                -0.1923467205568624,
                0.44529972324273825,
                0.4298743821500135,
                0.3349660087706945,
                -0.323095820126494,
                -0.18351887192861413,
                -0.23054973985361296
            ],
            [
                0.4347558489804407,
                -0.1121027712947488,
                0.5190809500159616,
                0.5340288778567213,
                0.08048912276971008,
                -0.22621585615994624,
                -0.13055145578607943,
                -0.1576260031076196,
                0.15608914083190273,
                0.33565676520557364,
                0.1888631579451443,
                0.32126283944546796,
                -0.3132503434983085,
                -0.35720924506964674,
                -0.3818397224937926,
                -0.23715092839515364,
                0.14649510321263176,
                0.13629089155804233,
                -0.10328213638158328,
                -0.2532917834807966,
                -0.10951987666048756,
                0.41468988095136855,
                -0.3392571597835709,
                0.27180493062835737,
                0.0618068517086559
            ]
        ],
        "l4": [
            [
                0.13438767355046208,
                -0.18806317794697733,
                0.19872915042166645,
                -0.47919796088551964,
                -0.1395603517725388,
                -0.4141109210545071,
                0.5671420477411437,
                -0.19353905397903076,
                -0.33941883696391745,
                0.15736043258592627,
                0.01624449472771259,
                0.32210366952212083,
                0.548879100665712,
                0.3540824794006936,
                -0.24446033637723016,
                0.4067280890391283,
                -0.25374886029049093,
                0.14364243528483148,
                0.323339921447998,
                0.28374264205358324
            ],
            [
                0.1357831430404636,
                0.15880646562602965,
                0.17015184415242043,
                -0.11713260932522938,
                0.5262528124583253,
                0.3247023091970125,
                -0.29370649627101963,
                -0.14811947168676703,
                -0.37930533385951476,
                -0.5650306662916894,
                0.4949911757999356,
                -0.004150087862129691,
                0.3802307922616073,
                0.4742511556369382,
                0.42362180761000356,
                0.4876381733794127,
                0.1649565041779746,
                -0.41016661964688106,
                -0.022650725034011734,
                0.4824250970414818
            ],
            [
                0.40634335778105024,
                -0.26027165482311193,
                -0.08866122245634525,
                -0.14906611654770807,
                -0.6001439201931866,
                -0.1981622101449904,
                -0.3308722269234127,
                0.16441452358743616,
                0.33709377652799255,
                0.5519952047583219,
                -0.09677463302493301,
                0.5004757236691473,
                -0.4330952520122498,
                -0.40287985721574626,
                -0.3101239786892308,
                -0.6168743188795349,
                -0.3532382359222207,
                0.351077139671687,
                -0.45911471294513284,
                -0.3846883030879364
            ],
            [
                0.653148946069945,
                -0.46189107555352654,
                0.2410048050315335,
                0.6034435322377764,
                -0.5309467671530643,
                0.9821424381377566,
                0.07315974430885168,
                0.681178221059721,
                -0.8999987368297666,
                0.7028723887405933,
                0.4200236247435389,
                -0.0789734499576528,
                -0.4470453345378703,
                0.3070147363585148,
                -0.09532587990688557,
                -0.6283857817773584,
                0.08419897147871475,
                0.12905659632112723,
                0.1499999890537646,
                -0.32001007481398513
            ],
            [
                -0.027815157522655346,
                -0.44437637874245345,
                -0.2790858358783066,
                -0.3759006519792557,
                0.2128795069224461,
                0.5622380258982763,
                0.5016163457097507,
                0.16126518142970342,
                -0.47844607140646433,
                0.12749193744170262,
                0.3831394134557372,
                0.3848430609390977,
                -0.4627785083827694,
                0.43538503709892057,
                0.2072020239561081,
                -0.17335081152690202,
                0.04378954363169709,
                -0.3959425759661314,
                0.24928778881412575,
                -0.005733842851291312
            ],
            [
                -0.6499565706273533,
                -0.36707580136073037,
                -0.10967282138868385,
                -0.44696569768790684,
                0.8205976283972309,
                -0.36632134514202924,
                0.5125175107418815,
                -0.28079321168226773,
                0.8539383436084022,
                -0.5287877108706911,
                -0.42644084058397996,
                -0.5053616487628146,
                0.7268786341305378,
                0.2323696868186896,
                0.17930529298633247,
                0.7916518304639796,
                -0.6871325307477872,
                -0.43958002556609754,
                -0.4528528036070426,
                0.12018092316566077
            ],
            [
                -0.2542291881574139,
                0.40077269015376166,
                -0.33365943688782485,
                -0.10727868669490247,
                0.05499958751199842,
                -0.5549916118431606,
                -0.17313487535096997,
                -0.4371388503667438,
                0.6580023068009521,
                0.20750939671746946,
                -0.02367158630748278,
                -0.40313848900250737,
                0.6344909265826194,
                0.5057337051524982,
                0.23269433711838775,
                0.1975204435314645,
                -0.34826857768316166,
                0.4547655143669421,
                0.34416485573123484,
                -0.2472380598010187
            ],
            [
                0.5767050287601713,
                0.3258737734832289,
                -0.4453365033061037,
                -0.31266055916023866,
                -0.5675617283910643,
                0.231697452400992,
                -0.13747062682749417,
                0.6209942098830957,
                -0.6496676634809601,
                0.4882193549235664,
                -0.136141257882483,
                -0.053354825787095224,
                -0.5972014144217321,
                -0.6231476903523866,
                0.16308065939200625,
                -0.23595808453068193,
                0.2992424054306689,
                0.4821189732139278,
                0.01779228770307028,
                0.5377564830514099
            ],
            [
                0.36324699734612426,
                -0.174929570066964,
                0.04533155660515197,
                -0.28576807345301325,
                -0.5064676592935878,
                0.1158177114601352,
                -0.5993863003005772,
                -0.31756005597189707,
                -0.2582766933366808,
                -0.4076218837104004,
                0.24983175956440135,
                0.2322514378163176,
                0.3430162547815972,
                -0.1126704939589364,
                0.4719901448591872,
                0.02337586509946568,
                -0.3603780111653721,
                -0.17908359676410368,
                0.18123493603121088,
                0.5796761241957494
            ],
            [
                0.5878999839058322,
                0.03154937179558932,
                -0.31704886477884314,
                0.38528335037788514,
                -0.00920233980786865,
                0.473913267188903,
                0.041709750488057015,
                0.014509873752294584,
                -0.07644184163264947,
                -0.2281273966374914,
                0.0715880922923549,
                0.34148031507994475,
                -0.0791454664521615,
                -0.11993823526609325,
                -0.38204482840314935,
                0.042766816800934034,
                0.27283485596947404,
                -0.04781962359278646,
                -0.12233946522184662,
                -0.5135821984992942
            ],
            [
                0.04136470814134411,
                0.33551475312111506,
                -0.27272363099258773,
                0.14707537527122908,
                0.6550249733340031,
                0.1348763987083403,
                -0.374976069997735,
                -0.27229030513517755,
                0.035844629375526176,
                -0.5742627448413344,
                0.48773825164392637,
                0.19192110940862478,
                0.5566070921370552,
                -0.45815698681774814,
                0.15146436164400556,
                0.27600921594198313,
                -0.06022725017437266,
                -0.5512610627569929,
                -0.5000981089510942,
                0.339340444676398
            ],
            [
                0.07084832299662606,
                0.21418753418789482,
                0.34391596828580384,
                -0.683377322176002,
                0.12319864271518177,
                -0.5824149992030879,
                0.331748138297163,
                -0.6019707961704627,
                0.5159470278708955,
                -0.21402914520753863,
                -0.023083145400943705,
                -0.5399029162743846,
                -0.2043906366407427,
                -0.14195209695175173,
                0.5279563423457356,
                -0.004069328546731837,
                -0.7104627785038052,
                -0.40404713980476625,
                0.32408623154630023,
                -0.39217959873230135
            ],
            [
                -0.1449748377689313,
                -0.28668004437046385,
                0.6914917032314541,
                -0.8149924532985939,
                0.5607606060688981,
                -0.9397054020601836,
                0.09017755158207129,
                -0.014431622405657143,
                0.8482302445247522,
                0.11926946080817269,
                -0.38187654571370455,
                -0.5829635877806554,
                0.4393475471176784,
                -0.09205332829535592,
                -0.5253116200250167,
                0.8579498672974206,
                -0.7396712865588717,
                -0.3896476058947289,
                0.09854725235730508,
                -0.5833590336943462
            ],
            [
                -0.2446521638552797,
                0.10325929632479479,
                -0.34137167830423276,
                0.49395417517986967,
                0.12356368473694393,
                -0.5165172301211403,
                0.335217094824099,
                0.22441116776357276,
                0.22946287291358086,
                0.05081509779880988,
                0.04408334304909924,
                0.16682830337903856,
                0.32060458378089324,
                0.06334014332593066,
                0.20746017229197683,
                -0.008877160053073594,
                0.10098617090917984,
                -0.004260814474491515,
                -0.49252808701961914,
                -0.37200956529545387
            ],
            [
                0.6260309663738425,
                -0.5320733617728304,
                -0.803773441013077,
                0.25721007211511976,
                -0.9846967567091952,
                0.8178736258229657,
                -0.7504624498426231,
                0.05347219642134702,
                -0.4520245680790206,
                0.8909883230239267,
                -0.4538113802429169,
                0.6134770293648203,
                -0.4030740518687791,
                -0.22930366929012275,
                -0.2965625439786735,
                -1.019254064805315,
                0.9252969559257733,
                0.5144454057459384,
                -0.19775986106047447,
                0.6839839099714601
            ]
        ],
        "l5": [
            [
                -0.6582215757178773,
                0.06273073319663246,
                0.6349932293225231,
                0.856904378597203,
                -0.08713043635875255,
                -0.34609958523837225,
                -0.500410558398856,
                0.7332123820614264,
                0.0010008151314428938,
                0.2725654223607179,
                0.3429968406154312,
                -0.6104064849283025,
                -0.6149393012939322,
                0.23080475803632197,
                0.9728281236195683
            ],
            [
                0.3817291179011385,
                -0.028111998672055192,
                -0.17470643375026915,
                0.6443501187369695,
                -0.07017475188228428,
                -0.8900807457392456,
                -0.5158324308355494,
                0.7676036453229484,
                0.15640115231475835,
                0.5597297298351316,
                -0.56615534328211,
                -0.3927987646982372,
                -0.9072358866129714,
                -0.36583369326811893,
                -0.10573588683312914
            ],
            [
                -0.1797026917072218,
                0.5430318237207492,
                0.14980887572539517,
                -0.48571156745891075,
                -0.654393389718984,
                0.5297735952623671,
                0.3377578232569036,
                0.3754692694941151,
                -0.17135670328649333,
                0.39295534976112484,
                -0.15372498306358257,
                0.07763372839270322,
                0.7699807974299547,
                -0.5837585295995408,
                -0.12226348124010164
            ],
            [
                -0.5272152922341656,
                0.06950410396285665,
                -0.31645217832206757,
                0.537632855469079,
                0.15464464216849558,
                -0.9016303729646935,
                -0.2395115025263573,
                0.33627821547532033,
                0.37877826167269335,
                0.5900078941458426,
                -0.6328172816968652,
                -0.406388443105433,
                -0.18801918189903102,
                0.2871314473276522,
                0.728536796621736
            ],
            [
                0.14204972778166675,
                0.4030066200963046,
                0.01977590979135592,
                -0.9957164198560494,
                0.060353832147900445,
                0.46287201077936396,
                -0.2508803660662961,
                0.162128194201499,
                -0.3692863079820652,
                -0.4162023806477383,
                0.21087068016830113,
                0.6336843738677423,
                1.0953528044960852,
                -0.256284912028988,
                -1.0334181070713182
            ],
            [
                0.5007686468091417,
                -0.5587426082424661,
                0.15327266184620808,
                -0.14161646842883477,
                -0.23215194777272663,
                0.3331599574524556,
                0.2683988791826445,
                -0.37197567401945975,
                -0.24472925604229356,
                -0.14408641671057656,
                0.13516355562658278,
                0.6184680103606806,
                0.23590053117391704,
                0.47877011357984417,
                -0.5711106398017938
            ],
            [
                -0.052272198968488885,
                -0.3027621838593257,
                -0.3482230521466964,
                -0.5985903897519315,
                -0.5060279114832344,
                0.391969870039067,
                -0.07268149183382878,
                -0.46279795043656413,
                0.24266430896538632,
                0.14602004721669595,
                0.47638183414838653,
                0.4980029529953334,
                0.11062644952487911,
                0.4044914281312397,
                -0.6411138390967763
            ],
            [
                0.018300313249404107,
                -0.6448702369198127,
                0.2358359749141544,
                0.5881353906477985,
                0.232711060503735,
                -1.3165440167720137,
                -0.7210384190212035,
                0.85655305238256,
                0.08430886062155098,
                -0.137097576173051,
                -0.39819956081249486,
                -0.7383474416025144,
                -1.3674972930755864,
                -0.7884351691774037,
                0.9064958216645305
            ]
        ],
        "l6": [
            [
                1.3904898513439863,
                0.8602748148378547,
                -0.8635611205900848,
                0.6732167692738158,
                -1.106262299651417,
                -0.6027421366928183,
                -0.34201673729001647,
                1.0434162564187135
            ],
            [
                -0.9985787923162828,
                -0.5883650101995365,
                0.3918289233794035,
                -1.217145913721967,
                1.2935777810335205,
                0.6226730788857178,
                1.285688580519912,
                -1.336985873643717
            ]
        ]
    },
    "biases": {
        "l1": [
            [
                -0.032351078604485196
            ],
            [
                -0.2659212244913432
            ],
            [
                0.017218648333060818
            ],
            [
                -0.18570851505145475
            ],
            [
                0.006178109215032291
            ],
            [
                0.033521867999071024
            ],
            [
                -0.0028009003960741976
            ],
            [
                0.0596788294934327
            ],
            [
                0.00911039216959773
            ],
            [
                0.06396956748371821
            ],
            [
                -0.04279427417843829
            ],
            [
                -0.23869041822085876
