{
    "network": {
        "input_layer": {
            "activation": "default",
            "neurons": 30
        },
        "hidden_layer_1": {
            "neurons": 20,
            "activation": "sigmoid"
        },
        "hidden_layer_2": {
            "neurons": 10,
            "activation": "sigmoid"
        },
        "hidden_layer_3": {
            "neurons": 8,
            "activation": "sigmoid"
        },
        "hidden_layer_4": {
            "neurons": 8,
            "activation": "sigmoid"
        },
        "output_layer": {
            "activation": "softmax",
            "neurons": 2
        }
    },
    "weights": {
        "l1": [
            [
                -0.6037335772187937,
                -0.5184316931111882,
                -0.8670981348563941,
                -0.7581108616420033,
                -0.32481996517065254,
                -0.4372586856072741,
                -0.40582327927477907,
                -1.090214881363677,
                -0.1059647471751217,
                0.18869607792298781,
                -0.8695920550705462,
                0.3135158239921029,
                -0.6806402495322648,
                -0.7721126664712292,
                -0.05018596450086097,
                0.7306335733686925,
                -0.45066635998995014,
                -0.5639594538595882,
                0.30091344685291554,
                0.6452669460107213,
                -0.936221050330001,
                -0.7349681333302072,
                -0.6149904636210809,
                -1.1755162058516926,
                -0.959569912850717,
                -0.5944712525469512,
                -0.8620618166130223,
                -1.1887917606090745,
                -1.0488964751462801,
                0.20916143610335236
            ],
            [
                -1.5268685526919805,
                -1.2000583191866452,
                -0.9923167335324491,
                -1.2511419859200634,
                -0.9256515340523077,
                -0.2887882823642263,
                -1.259976993205241,
                -1.5621318406533589,
                -0.42386858973159747,
                0.12842693177563547,
                -0.9287804438659452,
                0.28702189157984714,
                -1.5008072070925698,
                -1.2044467051556589,
                -0.003227052689172262,
                0.6884919349277734,
                -0.5861425186881505,
                -0.7739947592538574,
                -0.029937650247494122,
                0.8456474702643559,
                -1.1134990155292885,
                -1.7139253816862146,
                -1.779595369465638,
                -1.6008812734633369,
                -1.4212408019838276,
                -0.4879116660711776,
                -0.740327686374515,
                -1.9745150276027403,
                -1.1113498395597468,
                -0.10964304050411024
            ],
            [
                0.4014090245528484,
                1.1330854281471372,
                0.9806440617596425,
                1.1005831146841483,
                0.15485426322157655,
                0.22471069973072824,
                1.133105216665023,
                1.1998209655053504,
                -0.17437042958496976,
                -0.42330087646632036,
                1.2030341099190796,
                -0.10934146550434813,
                0.5335627767414901,
                1.0924020235406808,
                -0.14681098974698192,
                -0.3360599658364083,
                0.4879764364148996,
                0.506483971862098,
                -0.7255931522168106,
                -0.49226810231299845,
                0.887418244767902,
                1.383561780344299,
                1.1484743249496558,
                0.8790685082744454,
                0.500725291566257,
                0.048563545341253844,
                0.59363782222558,
                1.4383080057595514,
                0.704524935141724,
                0.4398332424908457
            ],
            [
                1.3195577292383327,
                0.8542473505260182,
                0.9997957669326085,
                0.7798524620246964,
                0.5049752828935534,
                0.19323520868661437,
                1.2698768839028147,
                1.0217729885493023,
                0.08114276116374122,
                -0.28796418059499157,
                1.4560658301533447,
                -0.3242910837888419,
                1.0396271292027384,
                1.0050810366063783,
                -0.2966512953965877,
                -0.8453034467570785,
                0.6593241739007528,
                0.04738972478581965,
                -0.8484574000994431,
                -0.7624906458697966,
                1.6472290201609108,
                1.5376209864677968,
                1.4329504379298832,
                1.6929686935055825,
                0.7162008634738299,
                0.4795836450815067,
                1.182022137033343,
                1.651447159244049,
                1.2438313054687653,
                0.5305856845930377
            ],
            [
                0.7697377556786749,
                0.29663889780102953,
                0.5266976847433402,
                0.7096994225031386,
                0.32441970952639027,
                0.1245828634637663,
                -0.01986289074039687,
                0.8857727106233111,
                0.3185460379749868,
                -0.4629710420520141,
                0.478482153583945,
                0.08072472111735705,
                0.5152324934776699,
                0.2479025877363723,
                0.20072390978981136,
                -0.3794212565839874,
                0.35553237233136115,
                0.21051260565476002,
                -0.2611771114278674,
                -0.5008877905201163,
                0.5296593722321875,
                0.40374192119613783,
                0.24033504762265276,
                0.9481001711069824,
                0.8275371207745824,
                0.04209757718657751,
                0.07925836872701807,
                0.38626673423138486,
                0.5813783165566517,
                0.02588685563152227
            ],
            [
                0.7978830638185144,
                1.3994686215387289,
                0.39735574368621557,
                1.1532686611430747,
                0.7173817391630322,
                0.6042804367029347,
                0.7201959941593378,
                1.0243430239452318,
                0.08364785485960458,
                -0.4132791627950391,
                0.6338535158636692,
                0.24298746918737274,
                0.6283467439606676,
                1.003823471846604,
                -0.4143965956733213,
                -0.4805159699375792,
                0.4489372191210115,
                -0.04333096683827682,
                -0.47380751044780367,
                -0.7019147344841702,
                0.8745310171687021,
                1.5873106120661356,
                1.1100425905557931,
                1.223738556852609,
                0.8747342081178474,
                0.031453735745426356,
                0.8999609819625918,
                0.9052649252640731,
                0.3638168599738141,
                0.4782957048866464
            ],
            [
                -0.8264516849870366,
                -0.44192667972646055,
                -0.46912353434099235,
                -0.570783525060719,
                -0.09076691578023538,
                -0.4379638587629487,
                -0.3737039040507076,
                -0.8931629392845861,
                0.14331016460536647,
                0.3315495361508424,
                -0.8437143689515795,
                0.10657407858221933,
                -0.511833852418936,
                -0.795644312881581,
                0.5235149386565697,
                0.8292427495883636,
                0.2680986327474941,
                -0.23630944850521557,
                0.6340589888192721,
                0.43211968377079096,
                -1.038457135181077,
                -1.2815398358562622,
                -0.1906904872673964,
                -0.9271041077346003,
                -0.6746473968834912,
                0.17813909136807346,
                -0.5590348294524499,
                -1.146195290697402,
                -0.42933311767398413,
                0.3097751035722855
            ],
            [
                -0.5628839727323508,
                -0.5597620959933969,
                -0.7980592958439375,
                -0.2852325619665389,
                -0.5771021038609601,
                -0.17863963828841256,
                -0.23077980709362061,
                -0.6700779748961213,
                0.33827266686005203,
                0.5070484828013269,
                -0.8143871675327832,
                0.4056297996217384,
                -0.5366265082876566,
                -0.46838714262275494,
                0.3155798550078254,
                0.6315784504389121,
                -0.4628026566881942,
                -0.2630404262256201,
                0.0702117513283537,
                0.6322344298819669,
                -1.1343129515823045,
                -0.6220271888155228,
                -0.3226217420937296,
                -1.0048376029206654,
                -1.0215453558249348,
                -0.2134327286946225,
                -0.5497724771955191,
                -1.2821816655702847,
                -0.21616260589666103,
                -0.06147279259092383
            ],
            [
                -0.776027576077718,
                -0.01382163497746152,
                -0.22105372896105346,
                -0.8267604850414477,
                -0.2735980523165099,
                -0.33611844927445167,
                -0.07197202744886123,
                -0.4549236055250273,
                -0.3813073402225784,
                -0.2601720056450968,
                -0.10159551375548116,
                0.19554472699410352,
                -0.1620561746552978,
                -0.8177854423786616,
                -0.33123953818702795,
                0.2401946051885771,
                0.2912230249455379,
                -0.5800744720430467,
                0.49433773768751327,
                0.08261739248145776,
                -0.41038428837271235,
                -0.3127976149292858,
                -0.5882034842685628,
                -0.7474425210674549,
                -0.6850220882443493,
                -0.40668570206309446,
                -0.3264708994075369,
                -0.1844107912045483,
                -0.4421847999823858,
                -0.412676165309159
            ],
            [
                -0.9131141351422151,
                -1.1966837052469521,
                -0.6716262846907983,
                -0.6235211184593821,
                -0.36413820557802906,
                0.09701059481702111,
                -1.330054587129451,
                -1.2593018468606958,
                -0.1977107775957639,
                0.36017703620917013,
                -0.8871000849151232,
                0.12831236867887924,
                -0.8728495492672882,
                -1.1634945213218915,
                0.6123910398047621,
                1.1353325509937864,
                -0.17746731887668393,
                -0.4454766702351648,
                -0.014614611709947064,
                1.1506788102580965,
                -0.9404773425796744,
                -1.5778416139686895,
                -1.438131738005767,
                -1.2970950173776483,
                -0.5482768108909692,
                -0.1252542877471563,
                -1.233964112557716,
                -1.4528998723043332,
                -0.8290688546783432,
                -0.43940380025605597
            ],
            [
                -0.626486967629469,
                -1.1179043301285612,
                -0.7996129352676977,
                -1.0045501322172514,
                -0.42286333175419366,
                -0.24844421367716962,
                -0.6354633811526349,
                -0.8065812039243261,
                0.1315110262696325,
                0.09648496371916253,
                -0.5970577956261282,
                0.5149196352439127,
                -0.26150193709242464,
                -0.3757537155494566,
                0.4963647983171336,
                0.4062400014725935,
                -0.2673012925762546,
                -0.6175042666495969,
                0.5389096887292608,
                0.28084695727990744,
                -0.6901062249257813,
                -1.0456852525715405,
                -0.779252383910827,
                -0.4805486564511502,
                -0.7096589535260279,
                -0.4738121965659078,
                -0.7672517043070822,
                -0.7026126548582131,
                -1.0433392583669323,
                0.15483970088372528
            ],
            [
                0.7243539307521826,
                0.5845471252781262,
                0.6721960038239163,
                0.7523674574403721,
                0.1923497342506435,
                -0.06682710669168256,
                0.7951288906475579,
                0.20393531561854322,
                0.2764589899272542,
                0.26384540546557145,
                0.2611156894238506,
                0.2875931481373944,
                0.3438548658638627,
                0.2518068147680244,
                -0.22909851569287829,
                -0.4419545574099309,
                0.04938698793766511,
                0.08769540549256528,
                -0.5137647679101295,
                -0.31764081273369804,
                0.4793830105814724,
                1.0158419443738207,
                0.19954416051973076,
                0.6373998670268103,
                0.8103207057441624,
                -0.13834321243165537,
                0.03025617256212036,
                0.48496781277117845,
                0.5352809647334508,
                0.25577242946968826
            ],
            [
                0.9651086178478931,
                0.9758011660806168,
                1.0757472210642758,
                0.8266806700086693,
                0.1272159521066203,
                0.41749303064206555,
                0.4616796801705159,
                1.0040116108477821,
                0.01734486241574423,
                -0.3691600590020923,
                1.3853448798971342,
                0.13008400453583183,
                0.990492069013421,
                0.8807580489274692,
                -0.5037550171381264,
                -0.4449702740253679,
                0.46316497618929503,
                -0.00020643282842912542,
                -0.6024437871037971,
                -0.3790278110772192,
                1.403478527521844,
                1.8039440436834804,
                1.1948272003818303,
                0.8001798387309863,
                0.528976376128583,
                0.5247262416766166,
                1.0322350748264317,
                0.9820730926312965,
                0.9080975011646402,
                0.19833016676488285
            ],
            [
                0.5985219041667937,
                0.5681618768280327,
                0.5806269858848052,
                0.747035734337799,
                -0.1316221587383598,
                0.4741197627151825,
                0.9112840721913202,
                1.0466420916000752,
                0.39165220865217176,
                0.15366003667739375,
                0.728333413897709,
                0.31463994029399095,
                0.7350911267384544,
                0.8097287690118586,
                0.12600192006104938,
                -0.18658324565253592,
                -0.13290276820459096,
                0.14829131599908676,
                0.02623469485045955,
                -0.987519734025475,
                1.069140126969752,
                0.6915297501728174,
                0.4175427102500819,
                0.9511246389463378,
                0.2968042906232413,
                0.265606499500119,
                0.22825890305664628,
                1.0759196016009978,
                0.6542707724298379,
                0.09533552063876607
            ],
            [
                -1.099096370416374,
                -0.7749276112218989,
                -0.6219339787602552,
                -0.6188864666117778,
                -0.6153048682514214,
                -0.597963403819046,
                -0.6445859609264207,
                -0.8406001495980027,
                0.10316084747739979,
                0.3798271652542768,
                -1.1827037102294884,
                -0.2455675748046689,
                -1.1385210267010073,
                -0.924296657096351,
                -0.08516314992845764,
                0.36824376518832874,
                -0.5041505594523467,
                -0.4353962620867348,
                0.5946387204046206,
                0.9357403520962346,
                -0.9764228113832174,
                -0.8022258188213122,
                -0.6264674992486378,
                -1.0678276387573407,
                -1.2013160792658433,
                -0.6063895816337193,
                -1.1144884822918861,
                -1.465208019226737,
                -0.6011082327127282,
                -0.2844605705970326
            ],
            [
                -1.1780785749791503,
                -0.7867402189030229,
                -1.2402692417933232,
                -0.8525755874675645,
                -0.2706069469326261,
                -0.5270732359588963,
                -0.807353304766931,
                -0.6880435405110129,
                -0.34200181560977055,
                0.2899100235465769,
                -1.3837093657261124,
                0.023921238486637412,
                -0.7542530712227627,
                -0.8993977324407477,
                0.05591201527688347,
                0.40247193009218485,
                -0.16801558313687862,
                -0.6059213297572614,
                -0.04779896999691147,
                0.5984823585989407,
                -1.3423887038665994,
                -1.163452924434793,
                -0.7785182975159113,
                -1.3134196953181128,
                -0.8417782064341276,
                -0.06326769169312267,
                -1.03335624934996,
                -1.2516781430754635,
                -0.3418454207217894,
                0.20620112857018624
            ],
            [
                -0.8242460530181083,
                -0.12972889055108647,
                -0.6033477634894189,
                0.004495666683184507,
                -0.37928055659416343,
                0.3242799365114474,
                -0.8265485472102448,
                -0.29470546841507195,
                -0.30531823715223094,
                0.47394231450102103,
                -0.1526513443626151,
                0.10578313586906209,
                -0.16054980387588233,
                -0.7007266150016508,
                0.11358034925499882,
                -0.024644453550259397,
                0.21659772351126222,
                0.08707509110039462,
                0.20697687096599401,
                0.683601565060318,
                -0.6863251904714985,
                -0.9393732167507562,
                -0.8358914303230276,
                -0.5375302674403662,
                -0.7316288847192873,
                -0.4589577752435442,
                -0.631909924758163,
                -0.8310538320641777,
                0.026323088034820582,
                0.11877749213526871
            ],
            [
                -0.30855893921752386,
                -0.06755370739729928,
                0.4775395335254372,
                -0.323061282849878,
                -0.22090531158995644,
                0.3403643549760079,
                0.371446682721828,
                0.49819665993618767,
                0.3769569660317819,
                0.19436885040770174,
                0.32006485439866633,
                -0.39397114520468335,
                0.09503755280859139,
                -0.2231680116547179,
                -0.011644673127854544,
                -0.14592355591577436,
                -0.39655539865122125,
                0.2696715571252637,
                0.3929500239719825,
                0.07322381194147938,
                0.04146240867269896,
                -0.01920525658105835,
                -0.09698843180509024,
                0.32447172946792585,
                -0.22369887334046012,
                0.10941566267709969,
                0.39176086111872394,
                -0.013610994602256158,
                0.19208825263972873,
                -0.23765419859794257
            ],
            [
                -0.10209608170398214,
                -0.4618567916141393,
                0.07628496073344111,
                -0.39283840995400576,
                -0.08241869729722985,
                0.12582898812498103,
                -0.36635409357612686,
                -0.421129020807678,
                0.43461774484575566,
                -0.08625174449689892,
                -0.5246344192474336,
                0.4986387101637325,
                -0.3792148796146917,
                -0.4477480409128045,
                0.13385803595286078,
                0.7745321617480355,
                0.011310949411765737,
                0.14733131991315812,
                0.5341887905006709,
                0.3801278540001848,
                -0.20059185925677914,
                -0.9146913361813157,
                -0.7958273162585887,
                -0.9223447608679884,
                -0.4309668609362399,
                -0.46170323171731903,
                -0.12322658167505336,
                -0.9785661698443292,
                -0.6639043825874856,
                -0.08458454112494211
            ],
            [
                0.39819601652386716,
                0.2978027347181379,
                0.2839989328064509,
                -0.3317240666390712,
                -0.05603569774656178,
                -0.28267703789371634,
                -0.007526009934228032,
                0.2618808707586337,
                0.199184904790361,
                -0.31533691150413934,
                -0.27294515479342163,
                -0.28636264348200324,
                -0.09984669927000721,
                -0.36112557056657957,
                -0.172787603129375,
                -0.10955915292806681,
                -0.01637467717362028,
                -0.21035933173705892,
                0.36953317119990603,
                -0.2414505086695975,
                0.06999855572122805,
                -0.1437676684829595,
                0.048523645585928886,
                -0.11108518035161918,
                -0.2266505215470092,
                -0.1835611779361022,
                0.06627354201151388,
                -0.0927461137027541,
                -0.1937630646939781,
                0.4067324653490594
            ]
        ],
        "l2": [
            [
                0.08457123409592734,
                0.3353625984981238,
                -0.4160078342230788,
                -0.829912080022568,
                -0.5232567145066794,
                -0.13583435488783122,
                0.27753691812391584,
                0.5642781921474266,
                0.5132595407521406,
                0.1926705408569046,
                0.1925743412086762,
                -0.541009399716341,
                -0.43925945853127774,
                -0.24521499204444072,
                0.295041681852536,
                -0.29275936004264563,
                0.21512058893200456,
                0.43286649993385423,
                -0.13735059384691928,
                0.04192009815935069
            ],
            [
                0.17786314199762884,
                0.4314620938888217,
                -1.04710429817214,
                -0.7368796424336155,
                0.13928459942888594,
                -0.6102258448819858,
                0.9885690096649339,
                0.5195607712190338,
                0.38216446517845265,
                0.1840739835362848,
                0.3111636937300701,
                0.06758866447762547,
                -0.2501022847226718,
                -0.7348271830604018,
                0.21171999964483723,
                0.8033637400413707,
                0.38966432512510435,
                -0.6943309087345977,
                0.7625504427038632,
                -0.00617734709917613
            ],
            [
                -0.6906387395274755,
                -1.1601304194543767,
                0.2002281313089579,
                0.6705813714180905,
                0.9009165101203144,
                1.0997526388984789,
                -1.409675752360985,
                -0.9583827059581697,
                -0.6291082381758081,
                -1.1443862761891237,
                -0.620088124904469,
                0.7276636135104821,
                0.7785951237791643,
                0.5277491618480157,
                -0.36606408689031616,
                -0.7707615510517031,
                -0.2651233103963407,
                0.11216693216407761,
                -0.795103101282553,
                -0.6006262509400627
            ],
            [
                -0.5275159663627007,
                0.024980403777703778,
                0.5648938765240071,
                0.43872773692435085,
                0.596448239835581,
                0.03692203228237302,
                0.00743271097793238,
                -0.6444372974084774,
                -0.040158988692043214,
                0.19542821253022238,
                0.19201063325619022,
                0.1621014634616606,
                -0.20838036573052884,
                0.26619510952832326,
                -0.030202837377499337,
                -0.23173420696105382,
                -0.297785967751474,
                -0.43394731086049987,
                -0.5320787328730904,
                0.1399648092180558
            ],
            [
                0.9887131257373829,
                1.0704625447754217,
                -0.4648757157471564,
                -1.0122176629592892,
                -1.0097398027750286,
                -0.9001055754040151,
                0.6288140686206674,
                0.9290677638300201,
                0.5763544319530568,
                0.8873748830956948,
                0.6540541694431613,
                -1.0631499190036524,
                -0.9626017763830673,
                -0.7260209847797068,
                1.045247163527975,
                0.8723315539820523,
                0.4700666579477992,
                -0.30684994173065144,
                0.6599542390562712,
                -0.32470903289740144
            ],
            [
                -0.4629139263457324,
                -0.8287258976250278,
                0.5943620811167134,
                0.7860319188936404,
                0.053470567234995985,
                0.8169111652566737,
                -0.3391078208355748,
                -0.35789044509811513,
                -0.3407746796108343,
                -0.8505375551776431,
                -0.5307367317341646,
                -0.05428406186508987,
                0.8055744286410824,
                0.210963792285121,
                -0.3892493441136151,
                -0.5808965770722934,
                -0.9649490522605823,
                -0.46768719133864095,
                -1.1227755039504614,
                -0.2236274736841252
            ],
            [
                -0.8655180506653908,
                -1.0192515259340944,
                0.8978059199143851,
                0.49472587269755985,
                0.7528451923930239,
                0.36398981291984434,
                -0.14501213866982451,
                -1.0110576622566794,
                0.07968419998556406,
                -1.1671932145692858,
                -0.7050078036791524,
                -0.1667031864711518,
                0.7792339117545576,
                0.24373433804106936,
                -0.8238923056328478,
                -0.9370742596646966,
                -0.8803764063679236,
                -0.32465438198993535,
                -0.2871850466527655,
                0.2980145361015355
            ],
            [
                0.6158922459945275,
                0.4368439639131046,
                0.0045608669531996705,
                -0.2738598410949975,
                -0.5969634657169454,
                -0.09472405975946042,
                0.6039921234500282,
                0.5397460614260167,
                0.5688186655426486,
                0.05530342320627481,
                0.3598875168654046,
                -0.09129867425432979,
                -0.11795958160453678,
                0.16647269014624339,
                0.2604031220028841,
                0.6414611235623837,
                -0.20274934644237538,
                0.21972099425109765,
                0.4706417258989581,
                -0.18659526979922197
            ],
            [
                -0.5960945046682264,
                -0.6843921151825281,
                0.9659932216274237,
                0.8618951079946314,
                -0.02513674714678166,
                0.480388967915812,
                -0.6715462207145929,
                -0.2243221122654739,
                0.18116737454240806,
                -1.1916867030398117,
                -0.8856870093957133,
                1.0187944242900806,
                0.5442725658903735,
                0.567206661630322,
                -1.2065191394428545,
                -0.47322770938496994,
                -0.6766047424993885,
                0.5258471242148682,
                -0.6878183328876161,
                0.005370603408731203
            ],
            [
                -0.44776030514691867,
                -0.10043083194757114,
                0.036168475420767524,
                0.6738908367796813,
                -0.1794365697113263,
                0.4661643448189794,
                -0.563039306787097,
                0.284284571395331,
                -0.6558649086744286,
                -0.16316183984307595,
                -0.45517800476522285,
                0.46709958485494796,
                0.7369498575941431,
                0.6842180406642504,
                -0.605766871436007,
                0.11489267047008032,
                0.25682415017106786,
                0.039633926279858324,
                0.16274305593679983,
                0.1198494906174944
            ]
        ],
        "l3": [
            [
                -0.10783398323222909,
                -0.3030027264386603,
                0.5222269175149201,
                0.6909734409276282,
                -0.2637839066200632,
                0.7974275499887182,
                0.6492769157679394,
                -0.7708941311031321,
                0.18378941729098,
                0.3808060598051499
            ],
            [
                0.044455669460467126,
                -0.6549740453657981,
                0.9982687193727595,
                0.8750222306231399,
                -1.4837167323788112,
                1.3107373371139244,
                1.4525115668336668,
                -0.10834631816154627,
                1.2806901072679977,
                0.17338700019516914
            ],
            [
                0.43190012001874223,
                0.3470852749502271,
                -0.5302646121661367,
                -0.6430443172065977,
                -0.32483466792346366,
                0.26138298829900725,
                0.5347940533523509,
                0.34276867400232647,
                -0.15342934990479926,
                -0.5218462913838097
            ],
            [
                0.45185918434441125,
                0.509819629069831,
                -1.1574052866474995,
                0.43932152881265796,
                0.1586413723950392,
                -0.048618448928130595,
                -0.21601904940609118,
                0.885591379225796,
                -0.829953672022591,
                -0.6890545997387483
            ],
            [
                0.8535898184602213,
                1.491782462337215,
                -1.9437746144781334,
                -0.433028595597263,
                1.513152198134385,
                -1.518630628117427,
                -1.1384916541824508,
                0.02517431758601502,
                -1.6075222284130715,
                -0.7688139324327449
            ],
            [
                0.24510053370520943,
                -0.777936088283207,
                -0.25924578467643794,
                -0.47067442617314637,
                -0.7050991751701101,
                -0.535512585716102,
                -0.4968008344873915,
                -0.17218476140904387,
                0.822484144611101,
                -0.2094831498688582
            ],
            [
                -0.9551869677832079,
                0.03332541544072137,
                1.0778710655371373,
                0.33004867544639327,
                -1.1887145905317655,
                0.5632098266622192,
                0.9388318694677338,
                -0.8892864073794797,
                0.8819726279808129,
                0.5670967768277452
            ],
            [
                0.26440066936112816,
                -0.5143755829155896,
                -0.47343386381646924,
                0.10654501787428525,
                -0.695756979917842,
                0.03773008858021673,
                -0.23853177337603187,
                -0.5620929587919797,
                -0.4061294101757334,
                -0.23528827204889502
            ]
        ],
        "l4": [
            [
                0.05513037132185104,
                0.6731730822409687,
                0.1621297801862277,
                -0.9576033968478808,
                -0.43742093787104674,
                -0.06686144487614969,
                0.7487469351876429,
                0.2712923933837967
            ],
            [
                -0.9570683044030852,
                -1.36699614301217,
                0.36685713487121063,
                0.8767838584759289,
                1.188258934480177,
                -0.024201886713562135,
                -1.7844290297769667,
                -0.7277188775505185
            ],
            [
                0.025786251086032257,
                -0.10268904148760631,
                0.6379236591218377,
                0.8480191377327403,
                0.6615039207160528,
                -0.7185246409225478,
                -0.060983326234825504,
                -0.07388191033886785
            ],
            [
                -0.25934010852398576,
                0.7764447592192921,
                0.08861090108242217,
                -0.23371633773831055,
                -1.0424565244805162,
                -0.15921777207783616,
                0.26978970249715334,
                -0.5049469957811639
            ],
            [
                -0.5581881662308438,
                0.21409110605842874,
                0.15569493769971335,
                0.17365904372241747,
                -0.564236263676791,
                0.7509694040418733,
                0.09278309798403019,
                -0.3309256928781133
            ],
            [
                0.9928198639197945,
                0.8975444202417472,
                -0.06388951868638043,
                -0.3817147101853136,
                -1.978881392869108,
                -0.007419995114541607,
                0.7560243719547289,
                -0.3916582534454051
            ],
            [
                -0.1515770490288375,
                -1.0026276664467006,
                -0.5716813022645145,
                0.8867179927958516,
                0.2411494570621727,
                0.5308574308184121,
                -0.13778356888695958,
                -0.7120290239860046
            ],
            [
                -0.8742486031899214,
                -0.7704313386755253,
                0.15430096736317664,
                0.26494062037607213,
                1.0557513611252267,
                -0.4070477343856413,
                -0.38952746643191966,
                0.44761047779367197
            ]
        ],
        "l5": [
            [
                -1.1257365517458728,
                1.0070340902961075,
                -0.2678005141274873,
                -0.3698797782921816,
                -0.8509533948782442,
                -1.7697199536022759,
                0.43193659617306396,
                0.9191776146716396
            ],
            [
                0.6604122139903204,
                -2.128986418383925,
                -1.3004987184910701,
                1.2326176361201406,
                -0.2264037367594569,
                1.7573251668021925,
                -0.9042425793664794,
                -1.0281892399296155
            ]
        ]
    },
    "biases": {
        "l1": [
            [
                -0.030155319751021446
            ],
            [
                -0.060076053766961734
            ],
            [
                -0.10977835993517307
            ],
            [
                -0.14958641541683906
            ],
            [
                -0.06862925890583234
            ],
            [
                -0.12325202336524564
            ],
            [
                -0.10466873198665098
            ],
            [
                -0.05870881030199702
            ],
            [
                -0.04355098270445941
            ],
            [
                -0.05667118134986133
            ],
            [
                -0.02761533307966811
            ],
            [
                -0.05626201672849492
            ],
            [
                -0.12305126135793748
            ],
            [
                -0.0665102005910742
            ],
            [
                -0.045161566444038015
            ],
            [
                -0.03602661619818915
            ],
            [
                -0.011668170852871744
            ],
            [
                0.02116597932379106
            ],
            [
                -0.06859326690197992
            ],
            [
                0.020459852007908695
            ]
        ],
        "l2": [
            [
                -0.05162506770382351
            ],
            [
                -0.12523197306011727
            ],
            [
                -0.1379606728156746
            ],
            [
                -0.04926725120388371
            ],
            [
                -0.12899683546829874
            ],
            [
                -0.0996389883858565
            ],
            [
                -0.13208670866350022
            ],
            [
                -0.032739297447550594
            ],
            [
                -0.12490855004587233
            ],
            [
                -0.013479802907289649
            ]
        ],
        "l3": [
            [
                -0.037417513822909046
            ],
            [
                -0.13505454999689245
            ],
            [
                -0.029026004828826925
            ],
            [
                -0.073380950745011
            ],
            [
                -0.16430223706073785
            ],
            [
                0.013228145537178427
            ],
            [
                -0.06709576648015933
            ],
            [
                0.030580683390247526
            ]
        ],
        "l4": [
            [
                -0.06233096990120466
            ],
            [
                -0.09375967849892552
            ],
            [
                -0.02598535969591166
            ],
            [
                -0.040755093183372705
            ],
            [
                -0.03070140191891663
            ],
            [
                -0.2003455993602273
            ],
            [
                0.0035853929433144467
            ],
            [
                -0.06661396698430201
            ]
        ],
        "l5": [
            [
                0.22533147663846156
            ],
            [
                -0.223331476638461
            ]
        ]
    },
    "dataParameters": {
        "f2": {
            "mean": 14.176922807017545,
            "std": 3.5104059355078054,
            "median": 13.43
        },
        "f3": {
            "mean": 19.342877192982453,
            "std": 4.219883284173678,
            "median": 18.95
        },
        "f4": {
            "mean": 92.3280701754386,
            "std": 24.29010682505375,
            "median": 86.91
        },
        "f5": {
            "mean": 658.3712280701754,
            "std": 351.0804784351805,
            "median": 556.7
        },
        "f6": {
            "mean": 0.09759687719298248,
            "std": 0.014732575661990464,
            "median": 0.09676
        },
        "f7": {
            "mean": 0.10478175438596492,
            "std": 0.05511627664435112,
            "median": 0.08963
        },
        "f8": {
            "mean": 0.08863638140350877,
            "std": 0.08169820337791392,
            "median": 0.05929
        },
        "f9": {
            "mean": 0.04956600701754386,
            "std": 0.03988986274193449,
            "median": 0.03483
        },
        "f10": {
            "mean": 0.1821140350877193,
            "std": 0.02850372127050028,
            "median": 0.1794
        },
        "f11": {
            "mean": 0.06270614035087721,
            "std": 0.007134492528708969,
            "median": 0.06125
        },
        "f12": {
            "mean": 0.4102442105263158,
            "std": 0.2775371921716927,
            "median": 0.335
        },
        "f13": {
            "mean": 1.2309080701754387,
            "std": 0.596638449900299,
            "median": 1.081
        },
        "f14": {
            "mean": 2.8949035087719293,
            "std": 2.042133415321722,
            "median": 2.344
        },
        "f15": {
            "mean": 40.819087719298246,
            "std": 45.58153423087983,
            "median": 25.22
        },
        "f16": {
            "mean": 0.007211845614035087,
            "std": 0.0032544520412439793,
            "median": 0.006458
        },
        "f17": {
            "mean": 0.025016877192982456,
            "std": 0.018153128371287488,
            "median": 0.01966
        },
        "f18": {
            "mean": 0.030286588070175438,
            "std": 0.023240313620988412,
            "median": 0.02526
        },
        "f19": {
            "mean": 0.011495726315789474,
            "std": 0.005853151260505262,
            "median": 0.01075
        },
        "f20": {
            "mean": 0.0208244947368421,
            "std": 0.008876624597832922,
            "median": 0.01857
        },
        "f21": {
            "mean": 0.003688814736842105,
            "std": 0.002332712683462084,
            "median": 0.003121
        },
        "f22": {
            "mean": 16.27481052631579,
            "std": 4.68894649109666,
            "median": 14.99
        },
        "f23": {
            "mean": 25.708736842105264,
            "std": 6.172942819004665,
            "median": 25.5
        },
        "f24": {
            "mean": 107.46540350877193,
            "std": 32.99887168784888,
            "median": 98.0
        },
        "f25": {
            "mean": 876.0856140350877,
            "std": 549.3840105928931,
            "median": 697.7
        },
        "f26": {
            "mean": 0.1340239298245614,
            "std": 0.023977894661321376,
            "median": 0.1324
        },
        "f27": {
            "mean": 0.25341417543859646,
            "std": 0.16430998748427253,
            "median": 0.2074
        },
        "f28": {
            "mean": 0.2706077228070175,
            "std": 0.21122669458920515,
            "median": 0.231
        },
        "f29": {
            "mean": 0.11441628070175437,
            "std": 0.06623174041903937,
            "median": 0.101
        },
        "f30": {
            "mean": 0.2904852631578947,
            "std": 0.06494230478720993,
            "median": 0.2807
        },
        "f31": {
            "mean": 0.0835881754385965,
            "std": 0.018369119050390598,
            "median": 0.07953
        }
    },
    "targetColumnName": "f1",
    "targetClasses": [
        "B",
        "M"
    ]
}