{
    "network": {
        "input_layer": {
            "activation": "default",
            "neurons": 30
        },
        "hidden_layer_1": {
            "neurons": 30,
            "activation": "sigmoid"
        },
        "hidden_layer_2": {
            "neurons": 20,
            "activation": "sigmoid"
        },
        "hidden_layer_3": {
            "neurons": 10,
            "activation": "sigmoid"
        },
        "hidden_layer_4": {
            "neurons": 10,
            "activation": "sigmoid"
        },
        "output_layer": {
            "activation": "softmax",
            "neurons": 2
        }
    },
    "weights": {
        "l1": [
            [
                -0.43079625850833175,
                -0.5424224705407794,
                -0.04560057195526965,
                -0.7917713844750216,
                -0.2212344480998228,
                -0.2762227079502578,
                -1.0709812973782264,
                -0.6815731482828943,
                -0.13635582381555778,
                0.5032517930671505,
                -1.1481681470628071,
                0.31374550914898547,
                -0.4378676144467138,
                -0.8340503233798628,
                -0.005064717134708685,
                1.0807869997688644,
                -0.15572420458628175,
                -0.13881289753956222,
                0.05925576707798084,
                1.0372276182590139,
                -0.8993978946308864,
                -1.33562939289051,
                -0.869659555569674,
                -0.7277819364554793,
                -0.8432655006197458,
                -0.12210176242288825,
                -1.0194778983370492,
                -1.0373894772541776,
                -0.8544441924542026,
                0.1539608782135744
            ],
            [
                0.6091932324111029,
                0.8170628042626628,
                0.12411203257441218,
                0.05108954144986261,
                0.24369184167962987,
                -0.20077611950120583,
                0.5698498543610289,
                0.5647369177536481,
                -0.028235487039032784,
                0.31650400774255105,
                0.5529859908665469,
                -0.5834936118509748,
                0.5840827125977206,
                0.10484256019381494,
                0.24467961554515322,
                -0.19580775037077391,
                -0.2849612075737026,
                -0.04296677834457533,
                -0.3621097641809683,
                -0.2617506505674153,
                0.42981593827359965,
                0.8026627937151688,
                0.7622275459538668,
                0.8230318364041702,
                0.08833463835115635,
                0.4024401235517612,
                0.035004663030378025,
                0.42665231016286614,
                0.21794797592549,
                0.4537900834266771
            ],
            [
                0.9152655617278177,
                1.0692010233326075,
                0.9457474650971697,
                0.7155961022658822,
                -0.10326636055789723,
                0.08374674120623228,
                0.9894471372991176,
                0.8369508930027941,
                0.3305029425251444,
                -0.23716944747838675,
                0.8985150617540448,
                -0.5330700629398039,
                0.5786444595332004,
                0.4052733803885472,
                -0.32250654057389194,
                -1.0558873212524136,
                -0.11175528256009414,
                0.566450390077632,
                -0.5421327129626125,
                -0.7066734584943268,
                1.24532924867091,
                1.825732167840214,
                1.2097185674524014,
                1.2435452084870868,
                1.077713560380755,
                -0.2937576769925672,
                1.2278920710928107,
                0.8323346391101006,
                0.49256001776855135,
                -0.04923702808042288
            ],
            [
                -0.8840443824249671,
                -0.0695026026923064,
                -0.3296165852777442,
                -0.38236371174585043,
                -0.7323385554141161,
                -0.05197293713171436,
                -0.3442296197853206,
                -0.6660212039128047,
                -0.16292381373651374,
                0.5256363441386972,
                -0.9822668551431746,
                0.5529551260906284,
                -0.5752204742232452,
                -0.7123777566503728,
                -0.10775446783626692,
                -0.04823404201813532,
                -0.1888034177925791,
                -0.5860211070356033,
                0.493218074645884,
                0.3934440794975136,
                -0.5242884863610804,
                -0.5042413261624266,
                -0.7992280221107086,
                -0.7854780376471429,
                -0.3255321959028968,
                0.26725620693484176,
                -0.42360607290652913,
                -0.6004006083532766,
                -0.3372314131889074,
                -0.5440267629901876
            ],
            [
                0.08923467021985537,
                0.7148355288925594,
                0.13506166776263048,
                0.1966793407270791,
                -0.16237446097469987,
                0.35592960383851363,
                0.4542174952702191,
                0.09861174781948008,
                0.3415395974676345,
                -0.41793540896971193,
                0.9319092870074057,
                -0.2654507847207755,
                0.7922225445583941,
                0.06286631364212984,
                -0.44638706710454945,
                -0.82000751536924,
                0.22335682333356907,
                0.46526862933030894,
                0.2066687731677895,
                -0.11130733104428989,
                0.8444699522514877,
                0.37382541129260805,
                0.49948161853800477,
                0.6110237449312133,
                0.6705380083930266,
                0.1128934190866444,
                0.5296460054176527,
                0.7752127443500608,
                0.32548709445422214,
                0.46776727211426494
            ],
            [
                0.9156711462521199,
                0.6852081412858217,
                0.5777713449026842,
                1.1682334375089274,
                0.5694882233451,
                0.16866674156613387,
                1.0857119036191414,
                0.8308712418240629,
                0.4887915680561179,
                -0.6001401420361875,
                0.6938193974294026,
                -0.03776426636096247,
                0.9822859949327707,
                1.028547952250769,
                -0.0797788287406917,
                -1.0449142898181665,
                0.6590095032022169,
                0.1107106499173644,
                -0.5954067646045671,
                -0.7771645275185138,
                0.6182372819227564,
                1.7338885962374413,
                0.8687744093046209,
                0.9981691791477261,
                0.887414647575439,
                0.09071942480827346,
                1.0629691442216134,
                0.8448051601705726,
                0.53522880290537,
                -0.21678611186997257
            ],
            [
                -0.7804910254588001,
                -0.30422505518900483,
                -0.24344040483955026,
                -0.4456181684544641,
                -0.2998925152686206,
                0.1877995848387897,
                -1.1993907420490335,
                -0.711099999701778,
                -0.10822977919642816,
                0.175494561694899,
                -0.9579369506164278,
                -0.09382387773655856,
                -0.5032428983450136,
                -0.4324174692176767,
                -0.10581658463375206,
                0.9894067798729617,
                0.08310957204165409,
                -0.6883040951886008,
                -0.1601035013694025,
                0.5634972512944908,
                -1.0679743629764238,
                -1.460490882318048,
                -0.4822965560289571,
                -0.9647169962445187,
                -0.909774402510171,
                -0.5312516702016757,
                -1.128673307245154,
                -1.5045622815900206,
                -0.6753335321792722,
                0.11737804110834649
            ],
            [
                0.38381803311353585,
                0.012556669897376808,
                0.7166409702702938,
                0.37797448785600446,
                0.19103046631277468,
                -0.24540733015237268,
                -0.018591595812304393,
                0.5432876227138461,
                0.30827687044357066,
                -0.5308448816334879,
                0.6836179178664488,
                0.027236058017129784,
                0.5964826832459512,
                0.06342565147271927,
                0.06832483943488701,
                -0.836027927182993,
                0.32249320921329255,
                0.3073901355771395,
                0.20741201924354605,
                -0.6171424876543268,
                0.4910128422263162,
                0.26680724255255794,
                0.5443164582463623,
                0.7230925500843443,
                0.749617765340547,
                0.3580026417619089,
                0.49187117500314254,
                0.5374018447713863,
                0.4724384163003537,
                -0.16389214965394547
            ],
            [
                -0.6727317474298976,
                -1.1988364847864317,
                -0.6996958553190717,
                -0.9253128377021702,
                -0.7870554650653161,
                0.06200327748877449,
                -1.191650772495423,
                -1.019111891852387,
                0.04561185355020305,
                0.5694848051379808,
                -0.9750351817143603,
                0.006168095059919182,
                -0.5860976932423562,
                -0.7351143742712122,
                0.07179050590526273,
                0.33451773443078137,
                -0.48149772787805667,
                -0.7938427405897012,
                -0.06703751903192758,
                0.36777604997972857,
                -1.1596628297005895,
                -1.5279565556244379,
                -1.2054790292532798,
                -1.1006993293436558,
                -0.918390843008141,
                -0.35534238666527107,
                -0.8957515464449449,
                -1.5642091250194334,
                -0.8628742986112347,
                -0.5783393662662476
            ],
            [
                0.9992460725444161,
                0.969940740402575,
                0.5035392975243081,
                0.23230455505442052,
                0.6976805101406236,
                -0.41720734869800047,
                1.1610554924064231,
                0.5551625180986896,
                -0.21055422304467683,
                -0.7238543792060502,
                0.5036685275200099,
                0.1749317841513497,
                0.5691289922927426,
                0.9154686859810706,
                -0.2974944240424075,
                -0.8060962196802403,
                0.4412118101482895,
                0.1917502955294821,
                -0.42195967288700703,
                -0.651910924510192,
                1.161787506164227,
                1.297832838722245,
                0.8982049209350955,
                1.3030799694239275,
                0.28240710985667666,
                0.4170563761393574,
                0.3618205169755986,
                1.4602957091808573,
                1.0991735406183076,
                -0.2348862197336209
            ],
            [
                -0.5420387313585625,
                -0.966217304728724,
                -0.07418028000167871,
                -0.39315878189404474,
                -0.2982611191556699,
                0.02587477090396527,
                -0.3180765056002428,
                -1.1453323578971992,
                -0.46893958109976924,
                -0.01820118971739558,
                -0.40477915328232544,
                0.26538510659492154,
                -0.6970609120580606,
                -0.4662112746916898,
                0.5648759445214006,
                0.8352391310692285,
                0.1607504555651541,
                0.18261663654405105,
                0.40783216477281997,
                0.7305401088184522,
                -0.612675534389554,
                -1.2777211893202474,
                -0.706022229178593,
                -1.1429019074924196,
                -0.5231230091192027,
                -0.3122821038945412,
                -0.5194895577866012,
                -0.6067588191223996,
                -0.44070019447868686,
                -0.07848924797285309
            ],
            [
                0.11074761384636031,
                -0.2572091921847607,
                0.08119804173254104,
                -0.20987416461373193,
                0.34978973712506134,
                0.26854618606791686,
                0.3667344318348794,
                0.2939603018472357,
                -0.09159996371016652,
                -0.06452823939407473,
                0.18137322939754297,
                -0.47594117017705195,
                0.2501113012672291,
                -0.4276521206600507,
                0.12138322523514523,
                0.20320424638835066,
                0.285946936356478,
                -0.030980576854560248,
                0.22453676534935804,
                -0.0757322264180737,
                0.35627033133740343,
                0.46522755646046743,
                0.01988391772962048,
                0.2813459565434104,
                -0.20110302772213073,
                0.24329835299797492,
                -0.1647114706357842,
                -0.16730387436020633,
                0.35139051120092957,
                -0.0005554742359318491
            ],
            [
                0.7658467004890092,
                1.0199450084582287,
                0.48627035924992074,
                0.6470887357273777,
                0.4822430426249713,
                0.36648552440364274,
                0.6191048841199588,
                0.7752551218421121,
                0.4097662720013082,
                -0.3389965068610385,
                0.5170693300102945,
                -0.25236890105853027,
                0.5535798557480056,
                0.25546762581535876,
                -0.3440403675218539,
                -0.33897826495378736,
                -0.2357623902389875,
                -0.07954526236299854,
                0.022771326819112765,
                -0.5362882764610335,
                0.5231853416959216,
                0.8061904939145332,
                0.8482220274013331,
                0.4489065067709479,
                0.3848855236769965,
                0.2074862229015703,
                0.47310287198999257,
                1.1806597471468478,
                0.7157870646275024,
                -0.22174925895736564
            ],
            [
                -0.4915669068886102,
                -0.08616874410654729,
                -0.5214853328053466,
                -0.6750815901933427,
                -0.6001317074600719,
                -0.3451663098577593,
                -0.7951584009242767,
                -0.7231985198915022,
                -0.02133340198605405,
                -0.23795089853165838,
                -0.19260651921818914,
                -0.06728089769284994,
                -0.8151818766524286,
                -0.5489522137002298,
                0.03326937088423538,
                0.10857251834021366,
                0.07218422855622603,
                0.06700677442629262,
                -0.14156227278736838,
                0.34702599976576914,
                -0.95524637621773,
                -0.42433764972576293,
                -0.6839169628499606,
                -0.9398565752002425,
                -0.37201754049706803,
                -0.5892976136839565,
                -0.6623301344038582,
                -0.6757601249293583,
                -0.603066725911218,
                -0.42144049017175544
            ],
            [
                0.1159887274945915,
                0.650321484733073,
                0.5898833564147562,
                -0.020169773316037917,
                -0.026193907377899377,
                0.3993781186682336,
                0.20383894854874884,
                0.9636372515203243,
                0.5291120187108317,
                0.15816946250180067,
                0.7123173351191636,
                0.1530142007318666,
                0.6136947578395053,
                0.17617805128427086,
                0.2607985502228586,
                -0.47327580649039014,
                -0.11438279329988238,
                0.03525126408677928,
                0.09012375557922861,
                -0.6890947198082078,
                0.6955218796996798,
                0.6613205723027457,
                0.24149972057302108,
                0.8486866092127492,
                0.8343760205555363,
                0.5094804616742316,
                0.3066053008019718,
                1.0665275469162705,
                0.2616300287591559,
                -0.1411144765867415
            ],
            [
                -0.01464217122192669,
                0.42084150295461886,
                0.11607631155549554,
                0.09623912350153571,
                -0.223405152050131,
                0.23676969489352476,
                0.4515874821110372,
                0.050160856357721946,
                0.39590752734522805,
                -0.29455236442972105,
                0.46558952014068433,
                -0.171629548538022,
                -0.07025188595189885,
                0.22173728441245924,
                0.18293147430420534,
                0.026589146405388425,
                -0.23897485569953844,
                0.26028287691729146,
                -0.12101759557232565,
                0.16506977654421812,
                0.5963152680377224,
                0.2375807759544432,
                -0.0541850307674248,
                -0.13661253150441713,
                0.32385995214715374,
                0.2801747732709722,
                0.1856050152522274,
                0.4922051967379032,
                0.4136245319712133,
                0.14568028503358557
            ],
            [
                -0.5962557149880808,
                -1.0654158518229915,
                -0.44456677766795216,
                -1.1484778857209463,
                -0.7207894472886702,
                -0.34115455237825204,
                -0.8585736128172525,
                -0.5356696673421087,
                -0.0760291045640307,
                0.45918279362316666,
                -0.9166353221038777,
                0.21079221318532784,
                -0.9837817583947701,
                -0.9428317864127868,
                0.3785974293164338,
                0.9806079646888997,
                -0.4841963957950498,
                -0.41829443775345093,
                0.00847077251255173,
                0.42804907709231466,
                -0.9315474900479707,
                -0.7895759757294091,
                -0.9376534998375715,
                -1.337315466489955,
                -0.761739900093932,
                -0.06714410053794859,
                -0.976677286208349,
                -1.088933427349532,
                -0.7789093348858486,
                -0.028860266993445675
            ],
            [
                0.582673722148886,
                1.505119105953776,
                0.8552122474471118,
                1.1394992817708642,
                0.5370942297286757,
                0.08971048610270567,
                0.7971976071017995,
                1.2397680641061637,
                -0.14177648790551522,
                -0.1261724497657228,
                1.3880785924089818,
                -0.17711247156204926,
                0.38239622744161267,
                0.5700369446484377,
                -0.2566096078668188,
                -1.1545609300350552,
                0.7178043572312913,
                0.5488992007136039,
                -0.3599750889165935,
                -1.1239361330931088,
                1.2026481452587163,
                1.5274163570421806,
                1.2777884324019833,
                0.7377790262684327,
                1.1612291779476867,
                0.6479216250324796,
                1.1053456243459974,
                1.622751749010713,
                1.3207516048894974,
                0.5234904019595602
            ],
            [
                1.0830139967335566,
                0.7601405166995577,
                0.6906499242958927,
                1.284075976088276,
                0.5414838371421217,
                0.14741616246719477,
                0.7004019196318139,
                1.4518613443213426,
                0.3330184008883651,
                -0.026513031679370035,
                1.0900931093781747,
                0.10072695868984427,
                0.9277308205920494,
                0.9754301384773182,
                -0.4805825753372161,
                -0.4778395532874126,
                -0.06575764764096716,
                0.3699030432360755,
                -0.6443341749171875,
                -1.006796679098674,
                1.607447088571486,
                1.8073632438670861,
                1.4059170386719169,
                1.1908286200294476,
                0.9404583467950964,
                0.001963607390182398,
                0.8737792177901132,
                1.3820015228490519,
                0.8202275313070778,
                0.31327662006482926
            ],
            [
                -0.7390861296150654,
                -0.7936760301380117,
                -0.501348152743748,
                -1.3640009606578847,
                -0.2753704125024973,
                -0.6889732955822203,
                -1.2409671040700343,
                -1.2398317283261153,
                -0.5843292788955504,
                0.13630860698719294,
                -1.595058134176824,
                0.62163905339304,
                -1.1056418400899426,
                -1.5913638733107318,
                0.5639371394684184,
                0.6878139847764905,
                -0.18548176242948847,
                -0.3039416783361658,
                0.5890930777362349,
                1.0544521100603037,
                -1.6726152352220562,
                -1.4443494432770398,
                -1.4851205679854589,
                -0.9877147332878293,
                -0.5666353252623259,
                -0.11225171889927747,
                -1.4601253988535257,
                -1.3825982990499792,
                -1.3102336965177472,
                -0.0242167514020746
            ],
            [
                0.9123410065251918,
                0.5857219406032405,
                0.7726580061993447,
                0.9935415007097025,
                0.7054268583948612,
                -0.19567326351642733,
                0.9876055390586298,
                0.553974981125101,
                0.035340804237522144,
                0.1193321631895442,
                0.4002930545989581,
                -0.27990495309283214,
                0.17732577364456287,
                0.9646702129319669,
                -0.20473522299119792,
                -0.9097402797836415,
                0.570517014898925,
                0.11290130083732813,
                -0.40052585476347297,
                -0.26931396273639263,
                1.0609889812642639,
                0.9669675449981839,
                0.663141189773192,
                0.6411203726258999,
                0.8119908105539141,
                -0.14680761642717888,
                0.8197730039335391,
                0.9888288805714585,
                0.5963889944026379,
                -0.06993961829583373
            ],
            [
                0.20785784031423038,
                -0.18250485961612434,
                0.038466311147031716,
                0.028943248241025555,
                -0.31898250546316964,
                -0.03957593475672789,
                0.17844587350187452,
                0.10776584332972328,
                0.3534583385883486,
                -0.13673961807768403,
                -0.43989230306036253,
                -0.0660740566161455,
                -0.36485376832842564,
                -0.339575448553094,
                -0.4008588000980617,
                -0.08144753832508822,
                -0.06823381807529544,
                0.3309417923905782,
                0.0423339880664844,
                0.2814151402686524,
                0.3870640535377834,
                0.01617383923047739,
                0.08242004713226352,
                -0.3552637760673386,
                -0.27278112665755083,
                -0.011973122757699186,
                -0.4567765755793522,
                -0.3766862940594656,
                -0.07180960553379442,
                0.3669625885341066
            ],
            [
                0.040299548494274834,
                0.025615223249396545,
                0.4769752791546897,
                0.012205521207853651,
                -0.29506540802504955,
                0.24611624379798538,
                0.3443553786873022,
                0.1921082827304601,
                0.2888481858878414,
                0.2474020704239928,
                0.4072847855880304,
                0.30696113827794297,
                -0.2266313730527839,
                0.006514876953197484,
                0.07953905751925289,
                -0.5726071156956859,
                -0.36079564389148644,
                0.49430823460411577,
                0.3222057664575117,
                -0.5399917045831216,
                -0.01186668353267795,
                0.7315728732719936,
                -0.0958186710081556,
                0.5500902625066008,
                -0.15030503610238197,
                -0.3629745127057933,
                0.3502185732490164,
                0.0009867155012444294,
                -0.0938845176393844,
                0.013257952284598033
            ],
            [
                0.650870110957228,
                1.3618024662432726,
                0.866261580858746,
                0.31332736109315645,
                0.7873993595310739,
                -0.12465920420336361,
                1.0956174635028595,
                1.313248717422292,
                0.1526393225644462,
                -0.44906456557388563,
                0.5747142362767051,
                -0.45824818995316147,
                0.2935651533525423,
                0.9161178373911005,
                0.1398033858394094,
                -0.6467131889279013,
                -0.027774490085546468,
                0.5461953578548412,
                -0.7688595093496259,
                -0.8586636415909342,
                1.296232994802528,
                1.0369093375626752,
                1.336638638602207,
                1.337062717829778,
                0.7956873579403285,
                0.19815016743025354,
                0.6802398809675178,
                1.5604888234777172,
                0.80181286407394,
                0.22724021162622676
            ],
            [
                0.5395404549017581,
                0.17720595710275924,
                0.5300887779850423,
                0.2346130445210887,
                -0.10194434031295384,
                0.048979920706761125,
                0.2504569554406591,
                -0.073749454061554,
                0.30128302510041366,
                0.21885317087124154,
                -0.16221464268790944,
                0.2503971358470129,
                0.23865561849940387,
                0.05285944348460734,
                -0.4051831925481023,
                -0.34752036605530484,
                0.41945828102047733,
                0.47232659140385463,
                0.3235033573445575,
                -0.39762023316197215,
                0.2451608377152634,
                -0.10022000125219964,
                0.22642405321317643,
                0.6394992261465212,
                0.42947174915720904,
                -0.13228175996069985,
                0.5932289570160634,
                0.10512908669839352,
                0.4607176857506188,
                0.3098448331808518
            ],
            [
                -1.100156274047518,
                -0.8483681357637322,
                -0.48732532268827444,
                -0.6877623344599361,
                -0.14917125079863136,
                0.23023786182995598,
                -1.314221129462371,
                -0.909725483717693,
                -0.5903620476415494,
                0.458296353186903,
                -0.9080565103956341,
                0.47928588131240685,
                -0.5614381478904277,
                -1.2591573458121619,
                0.01841874783241701,
                0.9424584480855841,
                -0.6358784712243143,
                -0.6541336246443595,
                0.12209403196845353,
                0.8298672926626827,
                -1.5301475028592957,
                -1.2864311627392486,
                -0.7322182064828323,
                -0.8018735499936782,
                -0.9698200932145762,
                -0.40748235293965623,
                -1.2752769318064683,
                -1.243242020650073,
                -0.6269987528575693,
                -0.1531734986492673
            ],
            [
                0.7933630002006157,
                1.018527496587832,
                0.9612912343273855,
                0.5795445577981133,
                0.13724736250793723,
                0.4033185075686222,
                0.9281723092661909,
                0.9302238107080602,
                -0.1290136275534365,
                -0.606261309182378,
                1.0997840115013702,
                -0.6103559194068497,
                0.8262190252916308,
                0.5103576686942243,
                0.1859433751170862,
                -0.6660332386152266,
                0.029826537896358214,
                0.40974921671677145,
                -0.09190339115494886,
                -1.0493679817558914,
                0.7676756303279167,
                1.0930459860153814,
                1.1835210512110492,
                0.5566714351461217,
                0.554537068507132,
                0.3562882658315524,
                0.7266247761849126,
                1.4853066260314467,
                0.8113369914767647,
                -0.21028009343430645
            ],
            [
                0.026453277097252606,
                0.10152525096898425,
                0.3182387328979371,
                0.16078053783709048,
                0.29638517416420745,
                -0.08375450418355605,
                -0.05822937823905578,
                0.6510482592164244,
                0.09685922400983486,
                -0.043135385862493596,
                0.6268982383366968,
                -0.09760226716332616,
                0.5718374738513637,
                -0.025537133486759723,
                0.00377567909956668,
                -0.7044366742461061,
                0.14639214466343473,
                0.4342727941328829,
                -0.32125166681133166,
                -0.47238875414657644,
                0.38541625821900644,
                0.97380469531688,
                -0.02228175423694439,
                0.7068805266862235,
                0.5826842334445096,
                -0.2542544548261596,
                0.10805845147540791,
                1.0196893892197127,
                0.32207688191346096,
                -0.2125281526554363
            ],
            [
                -0.32769232109956714,
                -1.0393106746415657,
                -0.8722838841448469,
                -0.6327070672362586,
                -0.13664013204255,
                -0.4631677614543523,
                -0.8723226772691103,
                -0.48462598452539035,
                -0.21861410938028467,
                -0.12861200749716606,
                -1.1549619834261902,
                0.05259841381819669,
                -0.4885460176148703,
                -0.5743836847337671,
                -0.024897451444259294,
                1.005415781453783,
                -0.1956667969409955,
                -0.435997743696572,
                0.3342651880945079,
                0.47319218509423716,
                -0.4400937505823543,
                -0.8830230318827562,
                -0.9695493615137641,
                -1.2720336483254755,
                -0.5200383798352999,
                0.04145893932946841,
                -1.09250755039035,
                -0.7021281958101604,
                -0.5260767626507108,
                -0.25257039129900005
            ],
            [
                0.6038509649395454,
                0.6789811828534137,
                0.10290460928085274,
                0.35826154603763455,
                0.5572819494362861,
                0.20157840226960386,
                0.18054640004531575,
                0.9429466585704245,
                -0.21997567804058923,
                -0.016362576856476577,
                1.0051904867125543,
                -0.08040899798427713,
                0.6246337641003556,
                1.074778562474378,
                0.26967220927353297,
                -1.2277686580834766,
                0.10242623905573002,
                0.43235607205208454,
                -0.6201332947175401,
                -1.1078941950360233,
                1.0817640233202428,
                0.9074616439784505,
                0.6342087893458516,
                1.207743021795179,
                0.7565335670973441,
                -0.05189611526101751,
                0.5124085931808828,
                1.2116365206692659,
                0.843433793654521,
                0.1303892612494044
            ]
        ],
        "l2": [
            [
                0.4972231949882085,
                -0.7231056646115597,
                -0.4014589485114023,
                0.6370689460114624,
                0.13602684028895462,
                -0.6400899599884522,
                0.712634820808006,
                -0.7867609090329061,
                0.43664382776576227,
                -0.6445869728573022,
                0.5291417224446668,
                0.10652702463080319,
                -0.003388074704699364,
                0.015789389283007254,
                -0.4352525862827447,
                -0.48658012402001255,
                0.0029278464197370247,
                -0.6600964785615879,
                -0.6574327245455741,
                0.6636587421109847,
                -0.6738857117260134,
                0.03210471016754891,
                0.17980802867110973,
                -0.657104171129083,
                -0.10282821228906666,
                0.29406287437186,
                -0.6142796971870943,
                0.00786071224428956,
                0.42681063505348965,
                -0.7679336531583204
            ],
            [
                0.491352665361668,
                -0.15492306262056005,
                0.014418106831652084,
                0.1793249073265592,
                -0.5002850174533492,
                0.0581177110760083,
                0.4505049973263515,
                -0.13440629272381172,
                -0.1467580366976154,
                0.25465521979887884,
                0.48529810793336,
                -0.5179550635768666,
                -0.3619315314558563,
                -0.10699389328058155,
                -0.24497188170420708,
                -0.4325970035659889,
                0.41304450210346083,
                -0.08007191197444617,
                -0.12257763003134728,
                0.08404848622396716,
                -0.18061810153204613,
                -0.32064836802813534,
                -0.23673404158714065,
                0.2269836928646559,
                -0.46313851208631285,
                0.5655181752466147,
                0.1514889646900563,
                0.1893508749614699,
                -0.048311298094867984,
                -0.41072709138636965
            ],
            [
                0.1271987652145895,
                0.399936257113386,
                -0.012392085556520025,
                -0.15872858321614008,
                0.4384697565550789,
                -0.2575883922158463,
                0.11848291480188729,
                -0.25353647843898336,
                -0.2356546414488608,
                -0.16002902168761024,
                -0.04772024242673473,
                0.3547963481582384,
                -0.07744485982329298,
                0.2725800170183033,
                0.03551853336805731,
                -0.33245321810777456,
                0.29226810434453443,
                0.11435203807121765,
                0.43071545177276827,
                -0.4308892743794012,
                0.38068601432380933,
                0.23247690783286878,
                0.39526606544122345,
                -0.057401724886224643,
                -0.09857599904133561,
                -0.1754902357057026,
                -0.2550576235901472,
                -0.1746494039005386,
                -0.3298218223899107,
                -0.34588278117187904
            ],
            [
                0.39252830311084813,
                -0.23681307960904238,
                0.18343440111442108,
                0.07831537273823086,
                0.29941168360583115,
                -0.3658501021623326,
                -0.08930491088241532,
                0.22506385744320045,
                0.045957798162162986,
                -0.24502248090202794,
                0.39271264361226427,
                0.34309356112021894,
                0.24184039690626094,
                0.2119076330629211,
                -0.08189909453061921,
                -0.22872682193163052,
                -0.03840046134049547,
                0.06008103687136418,
                0.32169029720236697,
                -0.3444059977351774,
                0.10418975265021367,
                0.28827395380055293,
                0.17959672822014947,
                -0.267886351085952,
                0.12612062757936934,
                0.10699844441628686,
                0.13638425176590738,
                -0.2592893040492472,
                -0.2614079122586821,
                -0.006820549233105562
            ],
            [
                -0.9403132358904863,
                0.33414724178583466,
                0.7605052324606452,
                -0.16436617816091315,
                0.510972900925279,
                0.6183684226198383,
                -0.3858674177524378,
                -0.07516626299924305,
                -0.5510887980117728,
                0.6940588546994712,
                -0.9506565249409483,
                0.058416365782752645,
                0.36558609171266426,
                0.04261273098974548,
                0.09168265663589789,
                0.303481453890903,
                -0.24783274991424364,
                0.5619304215872263,
                -0.22157483728515254,
                -0.6238783696521384,
                0.003586500049183828,
                -0.41214484306685256,
                0.006823849451609504,
                0.1517681661581117,
                -0.28709231221155707,
                -0.7953691849559115,
                0.19132828230026053,
                0.5947919496124361,
                -0.8135842951599284,
                0.9020889215625804
            ],
            [
                0.8111441755141348,
                -0.10174763601995547,
                -0.28685254641977054,
                0.4210076385527781,
                -0.562014471154076,
                -0.5248431149641382,
                0.43092455798437046,
                0.06013936018582106,
                0.21806457316515637,
                -0.36473845474020944,
                0.49848112801297917,
                -0.22348003898994323,
                0.16445021525808196,
                0.11695247299435128,
                -0.042599101468915726,
                0.30481605486061736,
                0.4036640522714032,
                -0.4626474708669352,
                -0.30667631988081834,
                0.7251225935797428,
                -0.721336686554056,
                -0.19665469268227728,
                0.252377289118228,
                -0.04160932350055083,
                -0.4778813776350912,
                0.48907759922413785,
                -0.30478350094680157,
                -0.44716169150418805,
                0.27780617621013365,
                -0.6851178322800743
            ],
            [
                1.0778241786941307,
                -0.48454282083940975,
                -0.5643836606041027,
                0.7142391526481422,
                -0.8415383978744639,
                -0.7118506264864033,
                1.0151590293737212,
                -0.5272649402625255,
                0.7854795474978069,
                -0.8418140507127572,
                1.020270105471107,
                0.0557860261895701,
                -0.8222181110263966,
                0.7815315844934401,
                -0.9510609804086844,
                -0.21025098896306835,
                0.706101251812256,
                -0.5651736401398157,
                -0.9312167853769971,
                0.7146481564669114,
                -0.35494133558486235,
                0.11209572992866378,
                -0.15887302418247037,
                -0.8461775419582226,
                -0.0877437360087593,
                0.964012464292788,
                -1.0295264461158375,
                -0.9135701866598717,
                0.29850048086918135,
                -0.4946044463963682
            ],
            [
                0.09671777449383714,
                -0.23658565614925123,
                0.06571177365895137,
                0.20048118478561472,
                -0.35351911893755694,
                -0.4760538170002504,
                0.00930255647925212,
                -0.09445127466836155,
                -0.26079992786188166,
                0.13072374543551152,
                0.40397141508088125,
                0.21489634839577793,
                -0.15765073617903547,
                -0.0012345416328989889,
                -0.25467368295691306,
                -0.13452203355258666,
                -0.26726776633266286,
                -0.4569161890389117,
                -0.3469742002730239,
                -0.08773900046411541,
                0.01041119727851488,
                0.31936202537803615,
                -0.012634126214995493,
                0.32237251099467046,
                0.2797371810588655,
                -0.009097981676776036,
                0.3301893082060384,
                0.11788490309804595,
                -0.020712644889088687,
                0.13015440443086027
            ],
            [
                0.5821951079143277,
                -0.7755010237687959,
                -0.9401937503234427,
                0.6559750796929537,
                -0.7521642400044297,
                -0.5473555628993794,
                0.12641504169735965,
                -0.00633250962126119,
                0.46484650001563743,
                -0.3967537022276331,
                0.8437342650252069,
                0.22512357260770158,
                -0.7478962894591313,
                0.5198952949236889,
                -0.8244492427604873,
                -0.3193608518548768,
                0.643923899980091,
                -0.5257221444601617,
                -0.3959749038738345,
                0.30515559567088407,
                -0.6867458141176807,
                0.18991875375964512,
                0.006986341189492271,
                -0.05652086643209184,
                -0.63624517671188,
                0.5518026180388304,
                -0.8038109060401427,
                -0.47723042737712135,
                0.5732865350932993,
                -0.793667693550571
            ],
            [
                -0.24315321805058265,
                -0.2860927537031125,
                0.37141134093510964,
                0.3814160221747817,
                -0.2932951108008696,
                0.4987044379769534,
                -0.4378532707210533,
                -0.24847042026660052,
                -0.4847777420258469,
                -0.1534205960461786,
                0.012836369844370827,
                -0.24535659751086616,
                -0.1252158716367639,
                -0.20195736743404463,
                -0.22365277066627712,
                0.07227947460720738,
                -0.4924997772370024,
                -0.10742028422594312,
                0.36721966373097575,
                -0.36180330570276475,
                0.057631438938286136,
                0.39180629809731793,
                -0.2271774496446333,
                0.12652940063116358,
                0.2864448326055145,
                -0.0020589837793872504,
                -0.3623390381907363,
                0.01746391315013127,
                0.30735174489172157,
                0.18656450301107844
            ],
            [
                0.015249151664024947,
                -0.22282118391582034,
                -0.41790370650443787,
                0.6057190206875244,
                -0.44259871110030263,
                -0.43474455781281873,
                0.5978760290139938,
                0.09491250367054002,
                0.17379842940880819,
                -0.172117448997722,
                0.31751077432637864,
                -0.30237527550212345,
                0.18522839977534017,
                -0.1983042845777159,
                0.16868456968956275,
                0.12411814797956691,
                0.3286985846909449,
                -0.6482219206305925,
                -0.31967460121790237,
                0.49025279036512454,
                -0.31046179899531007,
                0.42413084629191194,
                -0.3145143198533876,
                -0.42742527152574833,
                0.21399907718030697,
                0.32807848861312433,
                -0.48891001652130994,
                -0.11217667447118869,
                0.6847127427084913,
                -0.5819646724306585
            ],
            [
                0.23594524171824627,
                0.10031719534199555,
                -0.5519879994513571,
                -0.0754400623973951,
                0.030766490203679157,
                -0.2667444954320259,
                0.5504083222230791,
                -0.367672665431966,
                0.11454032803400668,
                0.20646804063314012,
                0.5110157815124442,
                -0.2541906892991235,
                -0.27099951264560984,
                0.15904983049617413,
                0.0073314876685033805,
                0.020797048445389654,
                0.003237904927088647,
                -0.025645028825047066,
                0.04235526658778447,
                -0.01237000254541031,
                -0.4906970528904304,
                0.49274276842996684,
                -0.38632248265830554,
                -0.6057173662830055,
                -0.18656164946853077,
                0.45984136763038147,
                -0.04691685919587396,
                -0.2183941659929822,
                0.06925741161428985,
                0.11296569429321981
            ],
            [
                0.5298756436606086,
                -0.07448102904857504,
                -0.5442849069694589,
                0.37580236971257003,
                -0.36865807346238166,
                -0.9866710801035972,
                0.9968900818019752,
                -0.9363004152097487,
                0.5791524712515694,
                -0.9914985851021628,
                0.6755424153856839,
                -0.01971129841754809,
                -0.46717240270296595,
                0.49855004659395574,
                -0.570639486093081,
                0.22566102809372557,
                0.9999594767939247,
                -0.8792555622898619,
                -0.8515114705466975,
                1.0057249088434177,
                -0.8850698382791384,
                0.5462202963639768,
                -0.4516188941038936,
                -0.9657319052784427,
                0.035636652631906386,
                0.7460175633291632,
                -0.7776992070538978,
                -0.5352695391993474,
                0.9122937508512997,
                -1.1938085507166467
            ],
            [
                -0.7322141655900408,
                -0.08907377156210286,
                0.933300488827507,
                -0.7086947301600729,
                -0.006960109177364282,
                0.00228687111807124,
                -0.5611974791709811,
                0.7760201961202926,
                -0.7280764418415587,
                0.5279223548836561,
                -0.2699616960529091,
                0.466899356451637,
                0.34670656497629027,
                -0.7410171775493155,
                -0.07845521177643446,
                0.3687950624476799,
                -0.6542877101332634,
                0.8047224311946093,
                0.21849227189485945,
                -0.5794954526643755,
                0.5198269921992078,
                0.16646179264515684,
                0.48714286821504615,
                0.7848291614471538,
                0.2735804959773612,
                -0.29117042290331807,
                0.0744212341453024,
                0.7637060507985866,
                -0.029924518871753653,
                0.3338853199724801
            ],
            [
                0.07862724954408513,
                0.2228139258299588,
                0.26835477171138955,
                -0.3402847661078889,
                -0.3829502733202557,
                -0.16156924114804674,
                -0.21057407481727233,
                -0.34055388794343433,
                0.22159251545312889,
                -0.07281519245505215,
                -0.3918671532359782,
                -0.017081707697929466,
                -0.3960356037311704,
                0.4138938169344265,
                0.18888846607624774,
                0.24042472712894672,
                -0.1845609854725924,
                0.0341002267744236,
                0.2901749852622553,
                0.38370561137273584,
                -0.151341252637738,
                -0.1056644585480925,
                -0.3993215391817798,
                -0.309589017836227,
                0.2485109173592339,
                -0.20691802429266729,
                -0.15722419879715271,
                -0.46756335003727734,
                -0.06943847560552134,
                -0.31435209109262774
            ],
            [
                -0.4048593882474577,
                0.7017803166389319,
                0.31475867767401405,
                -0.027669305240105066,
                -0.010743802863813937,
                0.5680256469035191,
                -0.11797870085812338,
                0.6617795973856618,
                -0.689191522065441,
                0.6314220029654436,
                -0.19098829185205723,
                -0.17542076597838144,
                0.5581393330003395,
                -0.3469880574344811,
                0.20434600295589045,
                0.26979956868351357,
                -0.8435438207576504,
                0.6874497647391817,
                0.7483744699574139,
                -0.7925164354092229,
                0.442610983738163,
                0.09830695596915173,
                0.4446536895200442,
                0.5920760930020955,
                0.24878722849119217,
                -0.351976336689634,
                0.3681883000068571,
                0.6363489280868354,
                -0.7124765916594256,
                0.6532471011412908
            ],
            [
                -0.22291936734115098,
                0.4193586728280464,
                0.44554589173438974,
                0.3223307616997567,
                0.5034668309637805,
                0.4547776700719344,
                0.35043121683468226,
                -0.18023208927145337,
                0.22782951358804945,
                -0.21355885146246695,
                -0.17770323496825197,
                -0.09392068004413509,
                0.32769976325586087,
                0.09567257354623437,
                0.4405039346607825,
                0.32544331889798866,
                -0.2089000027337596,
                0.007153806110720063,
                0.49832826925177587,
                -0.5180201872333808,
                -0.32116870122950447,
                -0.21495682966525836,
                0.34305156634487727,
                0.12187985510915571,
                -0.28828162263491836,
                0.33881544056517604,
                -0.08876391718379914,
                -0.14980245506804638,
                -0.2778752079344884,
                0.19734201247892397
            ],
            [
                -0.7527005713116681,
                0.4639514612258277,
                0.18930315930537317,
                0.1885471958375532,
                0.5201333027312912,
                0.3611753281998403,
                -0.5761514602437038,
                -0.1759779769451889,
                -0.5215552638447729,
                0.2734395049360827,
                -0.1745349404954268,
                -0.029207428342775302,
                0.3710038262026362,
                -0.1527827160452782,
                0.5347406927349562,
                0.3747779439746877,
                0.03658090493471306,
                0.2190003493325831,
                0.6414565106608359,
                -0.005826282548140213,
                -0.019416167223697125,
                0.13404636942619175,
                0.4505246815146509,
                0.32366167875053914,
                0.12687230739019087,
                -0.6187628860309052,
                0.3275125852071391,
                0.02318527105649793,
                -0.5372752828258235,
                0.2742628881155014
            ],
            [
                0.12017106989608635,
                -0.46052644202136156,
                -0.524539394673758,
                -0.18519504806108303,
                -0.21397820588036753,
                -0.018614813340503935,
                -0.19901982220727824,
                0.02143550688789511,
                -0.3272220413078275,
                -0.3631658709190809,
                0.009304603969968876,
                0.16663948123358768,
                0.04083432871255757,
                -0.3041943983088863,
                -0.3345254196809003,
                -0.4172555877810254,
                0.48186083894110976,
                -0.2300503206135946,
                -0.4577181667611195,
                0.11312036960771017,
                -0.22173156615477713,
                -0.3890860105470157,
                -0.15621917630189508,
                -0.3465944084068897,
                -0.21378603537320873,
                0.03329280861259016,
                0.27690609093877316,
                -0.49168452638610655,
                0.1142875698604259,
                -0.054772660529787374
            ],
            [
                0.36595826542504606,
                0.302374488270879,
                0.17995078430846773,
                -0.21508588565067138,
                0.3164377069355382,
                0.14837207212977507,
                -0.35560195569982334,
                0.16159228779398246,
                0.28349404673172335,
                -0.4913392003083888,
                0.23361291574872411,
                -0.30961123105505833,
                0.300383149139047,
                -0.27459708401265925,
                -0.14000947319644233,
                0.25869743372924947,
                -0.09244116880010986,
                -0.0036760352997289047,
                -0.11368156655330831,
                0.3523537511868207,
                -0.04892987517184522,
                0.3145260853377845,
                -0.11821087319440858,
                -0.48130824172912323,
                0.100480263867061,
                0.2266051591287965,
                -0.2589040595869878,
                -0.2906837580977052,
                0.4216337105130834,
                0.04512896990243394
            ]
        ],
        "l3": [
            [
                -0.5479598454119717,
                -0.012999209553566211,
                0.2992984499546632,
                -0.17818632841265797,
                -0.29533942385929524,
                0.24527118327606365,
                -0.03066385975394172,
                0.2040802818209051,
                -0.3453206850266335,
                0.08132202198134948,
                -0.01449527119341676,
                0.014260768158198999,
                -0.20015276043901295,
                0.17334543007975617,
                -0.5573205275016092,
                0.30733555028259285,
                0.34542226209466703,
                0.5512936541953091,
                0.06653122891360205,
                -0.40689928063388886
            ],
            [
                0.8419618299550062,
                0.5489450143719947,
                -0.07037741159412586,
                -0.20605394639786884,
                -1.0146917560233868,
                0.8911350991195969,
                0.5840035574595842,
                -0.13625085867015574,
                0.5958800694749149,
                0.2528593716930711,
                0.6151777697857926,
                0.18623732648583066,
                0.7476956790354312,
                -0.3722118136275556,
                -0.2424055822869699,
                -0.5304104350382052,
                -0.1620999653419816,
                -0.6037223945848174,
                0.13065320927843577,
                -0.1690671505100095
            ],
            [
                0.28771709656816874,
                0.807277668895851,
                -0.24035710346490852,
                -0.10244716489301987,
                -1.127547386363143,
                0.6803096588391104,
                0.8230568436826898,
                0.3682681586928107,
                0.2984205551210878,
                -0.19571987959689863,
                0.37844334603253676,
                -0.09474866467286051,
                0.6788900660585285,
                -0.9856881373988019,
                0.34037428936608133,
                -0.2273046819151765,
                -0.7062320825142497,
                -0.5228447151909491,
                0.19767101984208613,
                0.43815716938463933
            ],
            [
                0.3140976701639221,
                0.324097016709617,
                0.5262568720040595,
                0.43635034519372584,
                0.4374688185128921,
                0.5325261332424444,
                -0.03236119664155374,
                -0.506813117176984,
                0.07927259942175106,
                0.2632802718556129,
                0.11464669945604096,
                0.33243373773396556,
                0.39611050583178176,
                -0.5271384996011766,
                -0.23645150383405078,
                -0.29538730681821695,
                0.2626166360670451,
                0.33583444823003666,
                0.46890666303975675,
                -0.3594375509371175
            ],
            [
                -0.26546891615045587,
                -0.27028757121544145,
                -0.16247890088418288,
                -0.5826254089613102,
                0.751165864762916,
                -0.8458384722356181,
                -0.9099472195441891,
                0.11015716473118292,
                -0.9038418569595051,
                0.327035725974095,
                -0.9143979759629165,
                -0.8755059055052105,
                -0.4634848221831205,
                0.647494756851375,
                -0.029973873432837375,
                0.6694042490155545,
                -0.3334740928732123,
                0.20044473517783207,
                -0.5948488376134068,
                -0.45893122302677347
            ],
            [
                0.07516170136671248,
                -0.4685713187547863,
                -0.5557918979079944,
                -0.5717623632439053,
                0.05466355574537294,
                0.44131553260550194,
                -0.3170875247008753,
                0.4797954728341417,
                -0.3075659384443322,
                0.41017096891385607,
                0.4555440808438239,
                -0.08702670465145393,
                0.38439340716790166,
                0.21291858188136448,
                -0.4748494012715314,
                -0.565285635660332,
                -0.027352775479848827,
                -0.16883570589729058,
                -0.5091052758828699,
                0.23250593277906187
            ],
            [
                -0.707424349388237,
                -0.2909634056643282,
                -0.0894790835115176,
                0.13540692200686275,
                0.5236080687848121,
                0.22163268399675354,
                -0.6327633487826045,
                -0.4530679904998556,
                0.022974147382678348,
                -0.2691334696818385,
                -0.29722732730556733,
                -0.619143274089383,
                -0.3893065564993912,
                0.5263918194686138,
                -0.3569811320986347,
                0.643882016980735,
                -0.3137943470097664,
                -0.04560564182200949,
                0.08471360257114371,
                -0.09491768953377441
            ],
            [
                -0.6609220168776833,
                0.13329602690539533,
                -0.5322409581675532,
                -0.1362693161229986,
                0.057255422440753254,
                -0.05444522101963962,
                -0.21606139247003237,
                0.2478694209132471,
                -0.44012858771903046,
                0.21755974098379363,
                -0.47693797428849244,
                -0.10999391919679781,
                -0.6914402280418531,
                0.3703391797708428,
                0.3766396180370521,
                -0.4252921816962404,
                -0.42600140634104544,
                0.40638273172656353,
                0.4197444748699172,
                -0.08159216414434119
            ],
            [
                0.44341098655289324,
                -0.11638268611695046,
                0.2000570024361466,
                0.43313334332752107,
                -0.16927301156302899,
                0.24609058573243067,
                0.6754169600535266,
                0.5521180025455722,
                0.7597253673981668,
                -0.6059510162805821,
                0.09166226188219734,
                0.355999839805895,
                0.8294150464069243,
                -0.2779617948877812,
                0.3183004724322669,
                -0.6858696850172878,
                -0.5890635333531309,
                -0.5785154805427574,
                0.5711284529385561,
                -0.3190246627066927
            ],
            [
                0.21917748951412486,
                0.048429300602395774,
                0.2316936310543433,
                0.2824425640934978,
                0.4937772641703598,
                -0.19860291771082708,
                -0.6437616113738921,
                0.16437095597463022,
                -0.0761001297500359,
                -0.03367154721487356,
                -0.10700529912571674,
                -0.6286074732693672,
                -0.6258487983660547,
                0.5211493051690242,
                -0.022281501647655116,
                0.24071277516359246,
                0.4068607399440142,
                0.38081376182838067,
                0.11771810346024277,
                -0.3588236118944162
            ]
        ],
        "l4": [
            [
                0.08308267630156431,
                0.07248039563937694,
                0.6404598184440891,
                0.4652885384749355,
                0.5948172156468633,
                -0.6107988570175399,
                -0.019303209825153957,
                0.1402488907834272,
                0.5905401988703468,
                0.612794288323334
            ],
            [
                -0.4678848429161335,
                1.011755196964513,
                1.346115985872232,
                0.17728131153639323,
                -1.573052611595049,
                0.6568166233483874,
                -1.125292842718865,
                -0.258981417704416,
                0.19465622755716022,
                -0.15782440508003176
            ],
            [
                0.3126481035113304,
                -0.34541428656071876,
                -0.7870689370320463,
                -0.0839461817752842,
                0.8168133296002001,
                -0.4436394311498706,
                0.29025615974934116,
                -0.5321608634901316,
                -0.9240160507577903,
                0.743305948665171
            ],
            [
                0.37751118472444684,
                -0.2815431929005232,
                -0.3979493807388566,
                0.2518082563775884,
                -0.5220219431000922,
                -0.688486069521144,
                0.3213407241246593,
                -0.20026818854287923,
                0.29491437955563915,
                -0.679248657176217
            ],
            [
                0.050660841611871135,
                0.7778704310596749,
                0.8072193084738322,
                -0.5357173599131417,
                -0.38116244631103274,
                -0.4331004410169944,
                -0.7791621015185236,
                0.13923116823333706,
                0.3088087558690916,
                0.5228046970360044
            ],
            [
                0.8373655863478665,
                -0.2662393624418027,
                -0.6108011062898444,
                -0.5733694668868219,
                0.09910659225969438,
                -0.3984786682625749,
                0.3876349078447224,
                0.6210667902550782,
                0.13029938356986073,
                0.6433595456007092
            ],
            [
                -0.3700814195270422,
                -1.143134742828061,
                -0.5063750001825168,
                -0.27581240597747375,
                1.3718176126089934,
                0.3549096342743533,
                0.24540485857781277,
                1.0046657478907495,
                -1.3939228093956633,
                0.8103540323350024
            ],
            [
                -0.05761557152566216,
                -0.6639895897479878,
                -0.5624280529209827,
                0.25072962954150957,
                1.042359665460433,
                -0.4346559174468631,
                -0.24508471558301248,
                -0.2015668555237139,
                0.21492844883796622,
                0.7030965325488003
            ],
            [
                0.6033531614338362,
                0.9058520208629918,
                -0.1762881956136085,
                0.39762582197144214,
                -0.701290570161565,
                -0.4427335665609884,
                0.4155831410508836,
                -0.05390232458395944,
                0.495707610739085,
                -0.8361541396275012
            ],
            [
                -0.0773822370252397,
                -0.04365090504489144,
                0.5292430098424701,
                -0.11401779256150849,
                -0.2817715808080546,
                -0.43572385332232155,
                0.4733900454486302,
                -0.14023745127878293,
                -0.1652173744986723,
                -0.12783195583021387
            ]
        ],
        "l5": [
            [
                -0.2631876177838964,
                1.2302989841163297,
                -0.9161466457774954,
                -0.15025550094135898,
                0.19523691634647342,
                -0.5532770686140833,
                -1.7067917458214346,
                -0.6990334561561306,
                -0.052540944769974327,
                0.3981647838410431
            ],
            [
                -0.42140676774922536,
                -1.9840150403697143,
                1.120561694077666,
                -0.10979961500878214,
                -1.313316145541096,
                0.8909921034289472,
                1.8383315317358788,
                0.6420638971820959,
                -1.1543362656145273,
                0.2905164536849625
            ]
        ]
    },
    "biases": {
        "l1": [
            [
                -0.04845963814317747
            ],
            [
                -0.06894494324721562
            ],
            [
                -0.16449741526116674
            ],
            [
                -0.001627027950689879
            ],
            [
                -0.0742193697738699
            ],
            [
                -0.15844847018593441
            ],
            [
                -0.02465133592232034
            ],
            [
                -0.08068817544548204
            ],
            [
                0.028537620154016348
            ],
            [
                -0.14710856989639798
            ],
            [
                -0.056985476623311035
            ],
            [
                -0.007441048951759298
            ],
            [
                -0.1020373687394908
            ],
            [
                0.025168606312935993
            ],
            [
                -0.08134305902909053
            ],
            [
                -0.040911527394006914
            ],
            [
                0.002107955478517091
            ],
            [
                -0.1801411184358152
            ],
            [
                -0.1500518459972964
            ],
            [
                -0.00800119024499397
            ],
            [
                -0.12521098745054432
            ],
            [
                -0.0017181784846433722
            ],
            [
                -0.03772425045266854
            ],
            [
                -0.16504109756844265
            ],
            [
                -0.02541622915322962
            ],
            [
                -0.004509458003275509
            ],
            [
                -0.12278560049868477
            ],
            [
                -0.11677222247913269
            ],
            [
                0.0015711006590861634
            ],
            [
                -0.18546637847618355
            ]
        ],
        "l2": [
            [
                -0.0041501010329204335
            ],
            [
                -0.025281941225044683
            ],
            [
                0.0038396602946114806
            ],
            [
                0.008900621475621283
            ],
            [
                -0.1250610569962548
            ],
            [
                -0.017429014597300053
            ],
            [
                0.01407916928532643
            ],
            [
                -0.010073997785023889
            ],
            [
                0.028071300860410233
            ],
            [
                -0.02084160915865638
            ],
            [
                0.006266558642258983
            ],
            [
                0.03363585373160409
            ],
            [
                -0.0001308147144702015
            ],
            [
                -0.11052550180242753
            ],
            [
                -0.004132871509490571
            ],
            [
                -0.08636428004756816
            ],
            [
                0.0015708961177902565
            ],
            [
                -0.0571683122171001
            ],
            [
                0.007745790712495773
            ],
            [
                0.01225359796543945
            ]
        ],
        "l3": [
            [
                -0.0034379155034948007
            ],
            [
                -0.04048787424184311
            ],
            [
                -0.03964569835504287
            ],
            [
                -0.007728709890088333
            ],
            [
                -0.1680289784026445
            ],
            [
                0.009858763029798209
            ],
            [
                -0.028477778365280267
            ],
            [
                -0.04837489240133498
            ],
            [
                0.02418709670389932
            ],
            [
                -0.1100824321565247
            ]
        ],
        "l4": [
            [
                -0.024012665121086886
            ],
            [
                -0.08130825670868737
            ],
            [
                -0.10786081390967671
            ],
            [
                -0.0450797662091739
            ],
            [
                -0.0208032518840012
            ],
            [
                -0.08904380288063402
            ],
            [
                -0.2629687918709149
            ],
            [
                -0.07200121229223415
            ],
            [
                -0.042831262802204166
            ],
            [
                -0.035616107054856815
            ]
        ],
        "l5": [
            [
                0.28900725495970475
            ],
            [
                -0.28700725495970464
            ]
        ]
    },
    "dataParameters": {
        "f2": {
            "mean": 14.176922807017545,
            "std": 3.5104059355078054,
            "median": 13.43
        },
        "f3": {
            "mean": 19.342877192982453,
            "std": 4.219883284173678,
            "median": 18.95
        },
        "f4": {
            "mean": 92.3280701754386,
            "std": 24.29010682505375,
            "median": 86.91
        },
        "f5": {
            "mean": 658.3712280701754,
            "std": 351.0804784351805,
            "median": 556.7
        },
        "f6": {
            "mean": 0.09759687719298248,
            "std": 0.014732575661990464,
            "median": 0.09676
        },
        "f7": {
            "mean": 0.10478175438596492,
            "std": 0.05511627664435112,
            "median": 0.08963
        },
        "f8": {
            "mean": 0.08863638140350877,
            "std": 0.08169820337791392,
            "median": 0.05929
        },
        "f9": {
            "mean": 0.04956600701754386,
            "std": 0.03988986274193449,
            "median": 0.03483
        },
        "f10": {
            "mean": 0.1821140350877193,
            "std": 0.02850372127050028,
            "median": 0.1794
        },
        "f11": {
            "mean": 0.06270614035087721,
            "std": 0.007134492528708969,
            "median": 0.06125
        },
        "f12": {
            "mean": 0.4102442105263158,
            "std": 0.2775371921716927,
            "median": 0.335
        },
        "f13": {
            "mean": 1.2309080701754387,
            "std": 0.596638449900299,
            "median": 1.081
        },
        "f14": {
            "mean": 2.8949035087719293,
            "std": 2.042133415321722,
            "median": 2.344
        },
        "f15": {
            "mean": 40.819087719298246,
            "std": 45.58153423087983,
            "median": 25.22
        },
        "f16": {
            "mean": 0.007211845614035087,
            "std": 0.0032544520412439793,
            "median": 0.006458
        },
        "f17": {
            "mean": 0.025016877192982456,
            "std": 0.018153128371287488,
            "median": 0.01966
        },
        "f18": {
            "mean": 0.030286588070175438,
            "std": 0.023240313620988412,
            "median": 0.02526
        },
        "f19": {
            "mean": 0.011495726315789474,
            "std": 0.005853151260505262,
            "median": 0.01075
        },
        "f20": {
            "mean": 0.0208244947368421,
            "std": 0.008876624597832922,
            "median": 0.01857
        },
        "f21": {
            "mean": 0.003688814736842105,
            "std": 0.002332712683462084,
            "median": 0.003121
        },
        "f22": {
            "mean": 16.27481052631579,
            "std": 4.68894649109666,
            "median": 14.99
        },
        "f23": {
            "mean": 25.708736842105264,
            "std": 6.172942819004665,
            "median": 25.5
        },
        "f24": {
            "mean": 107.46540350877193,
            "std": 32.99887168784888,
            "median": 98.0
        },
        "f25": {
            "mean": 876.0856140350877,
            "std": 549.3840105928931,
            "median": 697.7
        },
        "f26": {
            "mean": 0.1340239298245614,
            "std": 0.023977894661321376,
            "median": 0.1324
        },
        "f27": {
            "mean": 0.25341417543859646,
            "std": 0.16430998748427253,
            "median": 0.2074
        },
        "f28": {
            "mean": 0.2706077228070175,
            "std": 0.21122669458920515,
            "median": 0.231
        },
        "f29": {
            "mean": 0.11441628070175437,
            "std": 0.06623174041903937,
            "median": 0.101
        },
        "f30": {
            "mean": 0.2904852631578947,
            "std": 0.06494230478720993,
            "median": 0.2807
        },
        "f31": {
            "mean": 0.0835881754385965,
            "std": 0.018369119050390598,
            "median": 0.07953
        }
    },
    "targetColumnName": "f1",
    "targetClasses": [
        "B",
        "M"
    ]
}