{
    "network": {
        "input_layer": {
            "activation": "default",
            "neurons": 30
        },
        "hidden_layer_1": {
            "neurons": 20,
            "activation": "relu"
        },
        "hidden_layer_2": {
            "neurons": 8,
            "activation": "relu"
        },
        "output_layer": {
            "activation": "softmax",
            "neurons": 2
        }
    },
    "weights": {
        "l1": [
            [
                -0.018124234870410136,
                -0.18129487128317445,
                -0.4464538957977794,
                0.21849028827823455,
                0.17726650334959457,
                0.07995686713345157,
                0.07433979333460557,
                0.23158371961982174,
                0.07902277861314716,
                -0.2075382998877557,
                -0.39685085337702974,
                -0.35611856192845315,
                -0.2959489748234611,
                -0.4495403832602007,
                -0.34385434287625566,
                -0.213833097418936,
                0.18767228437856892,
                0.27227840342734216,
                -0.36935672286806814,
                0.4548879668601228,
                0.08380886442693246,
                -0.21055945938982124,
                0.34903915779432304,
                0.23430474014708438,
                -0.20271020212241922,
                -0.4463948910618556,
                -0.4683161004454249,
                0.02059773496885348,
                -0.21018169229186473,
                0.14875984051721033
            ],
            [
                0.05816641440473975,
                -0.7158344071973128,
                -0.24526031645997468,
                -0.12378429456894857,
                0.20196916883418473,
                -0.05095951332362291,
                -0.23444340730843652,
                -0.43000781706833635,
                -0.1554220577433323,
                -0.13703640395022434,
                0.0924704370889548,
                0.17867539981658737,
                0.179447075672629,
                -0.5682806656913194,
                0.477597850572444,
                0.01993909528019325,
                -0.005581473146724855,
                -0.08855797639866576,
                -0.119901208684109,
                -0.30394476287728817,
                -0.3819619312351323,
                -0.667050914923415,
                -0.3588867849473403,
                -0.3815572665633785,
                -0.32327372270567073,
                0.15048840747023778,
                0.030759564157938082,
                0.30772453050515375,
                -0.0435352907935176,
                0.20820999761123823
            ],
            [
                0.2244021439219214,
                -0.31669162563357006,
                0.3517605001458775,
                0.4138545044316666,
                -0.30825327189277196,
                -0.3802118351581134,
                -0.3138089120563976,
                0.376907874258341,
                -0.34532923556873746,
                0.11947542870718063,
                -0.33285201572236656,
                0.2165085833738231,
                0.12656185247248772,
                0.15359104611351912,
                0.16138251943382487,
                -0.2708435477003925,
                -0.23089678796768912,
                0.052826575834044376,
                0.1095964181374079,
                0.3792946651613394,
                -0.21483672886204405,
                -0.2777881218709145,
                -0.12127303016126316,
                0.14871128259368102,
                0.19308886137054806,
                -0.1540879526437267,
                0.3780857489277172,
                -0.33735853347759137,
                0.2138315272305684,
                -0.2193965514638212
            ],
            [
                0.20630945126011419,
                0.23292372348427673,
                0.2613982352385959,
                -0.2685950333037806,
                -0.1493798628256317,
                0.1544892377518132,
                0.2055851760723522,
                0.21645414685479447,
                0.3036651982562173,
                -0.05516015386536105,
                0.20920812446177642,
                0.11928488109724278,
                -0.2120071176531216,
                0.027359829189669123,
                0.10466110176691588,
                0.018042537643836804,
                0.31810893015037706,
                0.43538259677436913,
                0.08891198600052064,
                -0.4479731508625861,
                0.4759106298686964,
                -0.027904486777983496,
                0.23197300702549137,
                0.3035889885047326,
                0.3749621558936425,
                -0.26382013912038665,
                0.3732981987688225,
                0.5498339703416085,
                0.23356709414462418,
                0.2901006942317542
            ],
            [
                0.26039669452202685,
                -0.2610508622615952,
                0.0906356563642494,
                -0.1579801675163468,
                -0.28465925397332814,
                -0.09230684694024358,
                -0.13473821771563585,
                -0.1334693098750659,
                -0.4089536867931238,
                -0.09121299339314837,
                0.13195686067131562,
                0.43699616776228484,
                -0.1615969971625,
                0.321774152437891,
                -0.007395267942700562,
                0.14395395229166674,
                -0.3525850169655448,
                -0.1549881429625472,
                0.30909708964156163,
                -0.19505045838231586,
                0.34502811010194806,
                -0.08628045753165836,
                0.10446665675125846,
                -0.20009709330919082,
                -0.2503695312217196,
                0.1609972223296632,
                -0.4097917556217544,
                0.23090541476043366,
                -0.17388129261356075,
                -0.3947755252708138
            ],
            [
                -0.34728969582339486,
                0.33856675742476766,
                0.041599184840339185,
                -0.08547347994633821,
                -0.3486500809216085,
                0.4130636284078026,
                0.2597482753267175,
                -0.11709473029883223,
                0.1624031445549642,
                0.2821220235256573,
                0.058686824452178106,
                -0.10484886750741246,
                -0.39761372379086934,
                -0.41935492568393995,
                0.22415626113335815,
                -0.055318494907787244,
                0.28277866898156756,
                -0.030705271154215993,
                0.19197948590018774,
                -0.16214431297892515,
                0.043720119132755635,
                0.008254908684769524,
                -0.2700683461839345,
                -0.37111722372629874,
                0.04797925244652982,
                0.0370368078077697,
                0.49809787313077897,
                0.07505476944033894,
                0.03810819133303155,
                -0.25878649483877425
            ],
            [
                -0.3015191868365537,
                -0.09116735369618167,
                -0.16098001986953178,
                0.06792694762686921,
                0.05173636756913723,
                -0.32848584821071974,
                0.3006536939040089,
                -0.19453354229447414,
                -0.4311346105401966,
                0.2076427689411429,
                0.37224931007169154,
                0.16038268685899368,
                -0.373497473441585,
                0.18732099481794812,
                -0.01624254035395679,
                0.3940363600536229,
                -0.012640418556273517,
                -0.07831175740886362,
                0.06543879281412605,
                0.23517795873531447,
                0.19142885849309793,
                -0.045338617708717936,
                -0.3017187905128336,
                0.00822973661456931,
                -0.024940625260589017,
                0.3035625883507634,
                0.18964179009149837,
                -0.17539959672776642,
                -0.025111263616234728,
                0.18175808239334101
            ],
            [
                0.12365195450534323,
                -0.09327824896666308,
                0.24397309023006947,
                0.03903212575094743,
                -0.22790676070823399,
                0.09190331371689904,
                -0.11934102317467611,
                0.4795258369064875,
                -0.29491099108903507,
                0.3543770526502086,
                0.1922835962818995,
                0.36889651403829105,
                -0.09800689261931551,
                0.14959776404496497,
                0.3144150154156448,
                0.2579728400477576,
                -0.15239287957613437,
                -0.1842740600030562,
                0.27389381262498674,
                -0.02458075476196745,
                -0.17730069695509815,
                0.017795583375333393,
                0.45981200744338036,
                0.342712499170684,
                -0.002428370451955443,
                0.11142032810147406,
                0.16662620273756779,
                0.1693756487483237,
                0.03569753996570502,
                0.041647503348294576
            ],
            [
                0.14040948050115676,
                -0.10985729975085815,
                0.20062519625741124,
                -0.36767954417347626,
                0.2604444704699523,
                0.029657308455726485,
                0.34665707538747936,
                0.359034477967293,
                -0.32575497152446387,
                0.1060326172931995,
                0.26072964374751734,
                -0.2063652079950299,
                0.1546356650492192,
                0.19261024195365212,
                0.03154442054579335,
                0.11992639540300895,
                -0.2810189279331497,
                0.10159425026493231,
                -0.044740471742546216,
                -0.3257100329958742,
                0.15138577400646472,
                -0.14448094175266638,
                0.26241003831030846,
                -0.3227417280490777,
                0.14284458010368808,
                0.049715608441931784,
                0.3803802921035761,
                0.29466147167291645,
                0.37563746535422865,
                0.2716618260991944
            ],
            [
                0.08744153209308952,
                -0.36442015440030767,
                0.28146027545059343,
                -0.11820882192716885,
                0.3282173536121097,
                -0.10661670053331375,
                -0.12482805316287021,
                0.3029514111077824,
                -0.20363791934903291,
                0.12702790928257707,
                0.13685293362488965,
                0.26760513329511537,
                -0.029985333834469465,
                -0.009063937985522163,
                -0.10124805318245733,
                -0.43995471247534396,
                0.1522425294480988,
                -0.2786727550920327,
                0.22647173010919858,
                -0.07728313382610683,
                -0.29967370121253717,
                0.46851346153240186,
                -0.19503026815653676,
                0.31290372445609016,
                0.29565435710143206,
                -0.1017349901888965,
                0.26315708005452526,
                0.04087514927988672,
                -0.384252226959076,
                -0.11079223923283588
            ],
            [
                -0.1648635759500316,
                0.20145986453469952,
                -0.3018846875669862,
                -0.023104230959939895,
                -0.020034181871096853,
                -0.07378794829778502,
                -0.22238025843777773,
                0.05373871392447405,
                0.040248369149714636,
                0.07718975623681161,
                -0.2515235505345293,
                -0.09641735935815894,
                -0.19951371918769215,
                -0.12830888734969972,
                0.05205359672651002,
                0.18656416594123326,
                0.2905310179762722,
                0.16978308917521012,
                -0.30385406198818027,
                -0.515933357368558,
                0.12037183999848867,
                0.5279876290119541,
                0.489508191496748,
                0.13748957627291658,
                -0.03680666952378715,
                -0.0311392202175894,
                0.025685585618894616,
                0.41207100579236716,
                -0.12233396818008578,
                0.16458789392543807
            ],
            [
                0.07773315791364976,
                0.4763242385259185,
                -0.17614098393438465,
                -0.2835006397578372,
                -0.47741482224482623,
                -0.20912377953042235,
                -0.24662110094973752,
                -0.46434618291729274,
                0.2873671990357296,
                0.023709713420313985,
                -0.36612773395458686,
                -0.052083770877586005,
                0.23261959360499407,
                -0.3710732903112263,
                -0.33032281362798926,
                0.3213235625008741,
                0.1700693579582343,
                0.25324874355872307,
                -0.04093600916171046,
                0.3237723445021049,
                -0.3449508015582166,
                0.3138096101420139,
                0.16593087168929127,
                0.1781724257901744,
                0.203599597080923,
                -0.1805645329907716,
                -0.1794646724437183,
                0.11373968812487294,
                -0.13145929563237066,
                0.08250610669905527
            ],
            [
                0.17984738037870454,
                0.007609969068375006,
                -0.41389853830023166,
                0.14796993035813585,
                0.3165216715823546,
                -0.3789338089617391,
                0.3655130768548773,
                -0.415433233980732,
                -0.49009099469547496,
                0.3058283513934997,
                0.048139810004165645,
                -0.2611945503762342,
                0.14317364856703582,
                0.1584482884749377,
                -0.14543782225147792,
                -0.47477434992384365,
                0.2690450190702821,
                0.17784130910455703,
                0.09878719738677766,
                0.21232655649590426,
                -0.2659651004348341,
                0.38305605090479283,
                0.4076670161549547,
                0.18322867420699734,
                0.3129498206815301,
                -0.1289467436980188,
                0.005095726375619012,
                -0.1393192693307873,
                0.26295200466300417,
                -0.14820080201417066
            ],
            [
                -0.1001369607648812,
                -0.4690661149976063,
                0.06587510056201516,
                -0.0188302874146108,
                0.2099424912022665,
                0.1596572794609581,
                -0.4409886662804282,
                0.009239436731887611,
                -0.32451841323299974,
                0.2857213272943448,
                0.23765894185208808,
                -0.10689424019792068,
                -0.45836650761865594,
                0.3211007795846015,
                -0.13732800597752176,
                0.3448653466123391,
                -0.029557875795650657,
                0.21530634295656137,
                0.1749732231003641,
                -0.3583469841249177,
                -0.35252989272396007,
                -0.2626444771208768,
                -0.4026427048525604,
                0.24984552848237626,
                0.3291061117913522,
                -0.15452977491984168,
                -0.3957712004427645,
                0.09848365257942683,
                0.35403487584616894,
                -0.4693040689980396
            ],
            [
                0.1888072828382875,
                0.3953674943674175,
                0.32957131645155324,
                -0.063898369555904,
                0.09056885095091476,
                0.4213456323139235,
                -0.02412503271252043,
                -0.09873354526127166,
                0.07650167583045091,
                0.04506914508935893,
                -0.5177965304533839,
                -0.03609887052950691,
                0.19958942390758458,
                -0.28310332384104575,
                -0.41496707968208585,
                -0.19102420720821833,
                -0.28091658948418896,
                0.2781541811548727,
                0.36109010384791973,
                0.11253289116978585,
                0.3067282205875962,
                0.053132012804538914,
                -0.07227326970156224,
                0.047288980397636106,
                0.08135039912265493,
                0.32170713214906993,
                -0.39353952707296147,
                -0.17056084269468522,
                -0.26829269807668166,
                -0.28988864073110965
            ],
            [
                0.19184024413344067,
                0.3030438250262086,
                -0.2034747659390188,
                0.03649663205638428,
                -0.16949094435972845,
                -0.5248612239448623,
                -0.09315948469068788,
                0.1779270585642591,
                0.061481212147759506,
                -0.3460588816449319,
                -0.13800612198679213,
                -0.6249724197712955,
                0.14145351433634185,
                0.1676889757563083,
                0.11144950685921245,
                -0.46015307337586436,
                -0.34997940578001113,
                0.35234953113390083,
                -0.4677574460086882,
                -0.35386496039105214,
                0.609692147934223,
                0.04373807290183677,
                0.29131848412800554,
                0.5996132604802242,
                0.2733397170675443,
                -0.36790674672836865,
                0.17652057715924074,
                -0.036851313002033134,
                0.5340111301425209,
                0.034405937907342685
            ],
            [
                0.08137217640010748,
                0.07919011106909654,
                0.4677824321081802,
                0.029424555005839594,
                -0.2919350685759333,
                0.03984368232927034,
                0.42171456725102985,
                0.030634263724237887,
                0.29756697252757114,
                0.21706055620396164,
                0.5079257017160763,
                0.15238183649704987,
                0.5902145786526848,
                -0.2814020022829659,
                0.35228761365235184,
                -0.2204262390126844,
                -0.12613728586977493,
                0.15118918026495057,
                -0.22818302253743014,
                -0.056221207963053646,
                -0.13702543285553848,
                0.0526382229475633,
                0.0791044808137475,
                0.36966738668326815,
                -0.3371844365091513,
                -0.4398572477917455,
                0.20542920593399702,
                0.2736453645015815,
                -0.38225739139107534,
                0.056498252094415044
            ],
            [
                -0.24260765041386628,
                -0.0010939910214006017,
                -0.44074194040798104,
                0.18655598311916496,
                -0.21143176049159818,
                0.2971015953772755,
                -0.07315677736552183,
                -0.29361657964640253,
                0.34102867444092866,
                0.42640588597353246,
                0.18192129787615288,
                0.550195410988823,
                0.08933381642836401,
                -0.17280490692290457,
                0.05071958036765269,
                0.05598720252914469,
                -0.23058644655940078,
                0.24679639547642518,
                0.1841118472685134,
                -0.2813436199645356,
                -0.2432509625139021,
                -0.057978726816386945,
                -0.028229170584696917,
                0.25639810509207,
                -0.43332631365792407,
                -0.2313402047545443,
                -0.3147517220310443,
                -0.44050977345065306,
                -0.3011363219353916,
                -0.11831934615444606
            ],
            [
                0.3838687586941039,
                0.5211396621078579,
                0.21707773781824116,
                -0.16142499984828554,
                0.29174524790389383,
                -0.3444639610437624,
                0.4446234288692042,
                0.4111359075263784,
                0.07973538113484846,
                0.1016573162087777,
                0.5237420887322666,
                -0.1351024726369896,
                0.48914345742632537,
                0.4260019661314684,
                -0.08817505371005097,
                0.35724415197415604,
                -0.15003535478766664,
                -0.2701403540753715,
                0.17083573338490765,
                0.23573790298824002,
                0.1295788571050627,
                -0.20677216190694417,
                0.12840328555589567,
                0.3150774587261219,
                0.24038270586817204,
                -0.22820191590755967,
                -0.2283138951130191,
                0.41085190055217014,
                -0.24661839882257994,
                -0.37193833171906565
            ],
            [
                -0.38984312703142326,
                0.2202345544617553,
                -0.07344048887848567,
                -0.04713629340684216,
                0.21117967034844995,
                -0.37720124129115007,
                0.46169609322912397,
                -0.08387103005471729,
                -0.004588257932530653,
                -0.25555549995474397,
                0.39124152207849877,
                0.40575646912356533,
                0.10584958950118292,
                -0.26673707068574937,
                -0.15266220689371346,
                0.05400589056379258,
                0.3680736733764208,
                0.23242646850568352,
                0.31523865865296974,
                -0.0807687056918704,
                -0.364919569077665,
                -0.047312398086561715,
                -0.3500200923510074,
                0.3668436314020081,
                0.28455565492117635,
                0.18799991228863985,
                -0.2649506938222812,
                0.47509921829794943,
                -0.36272902227402376,
                -0.16770988370855291
            ]
        ],
        "l2": [
            [
                0.7096998470630744,
                1.021403880165318,
                -0.06485023994382738,
                -0.6209563432225688,
                0.6566309843421105,
                0.3804290154445823,
                0.02337819173677372,
                -0.090339668544765,
                -0.0991557326208476,
                -0.4448231897649364,
                -0.2966444455228005,
                0.8021207006268898,
                -0.19309846927147958,
                0.7740850205863953,
                0.5788739146841997,
                -0.7518043435414484,
                -0.2982830449394632,
                0.3699267442669878,
                -0.11570772438728559,
                0.4627563348215413
            ],
            [
                0.32484933209892675,
                -0.4669224323741015,
                -0.2514818454501609,
                0.5948649869381918,
                -0.40852391451257336,
                -0.39442945801689655,
                -0.11166462873287109,
                0.46400637527232047,
                0.45753909264107995,
                0.2921574782755688,
                0.5648487407990294,
                0.29966889200504393,
                -0.3381399907054622,
                0.37048223089075766,
                -0.24644861378857982,
                0.7959667558724877,
                -0.19175199858792893,
                -0.26728884666688907,
                -0.12880781926399154,
                0.1220883110036051
            ],
            [
                -0.21315397313566622,
                0.41377872953107525,
                -0.4788717391937746,
                0.33461987842328617,
                -0.11236416528128539,
                -0.4354527649986032,
                -0.03991051563615362,
                -0.4500401425370178,
                -0.3378353636732184,
                -0.5133494281104584,
                -0.3577556558486252,
                0.26740319542713936,
                -0.32077574996942776,
                -0.17240304433179673,
                -0.4962944348284992,
                0.2496997470916753,
                0.543584208360067,
                -0.22877582254215145,
                -0.12879763580584697,
                0.5511032619419454
            ],
            [
                -0.27525321214663917,
                -0.29119778794684864,
                -0.33588350724912613,
                -0.14166936766818197,
                0.16783202415645346,
                0.47152209732563766,
                0.2458221155275803,
                0.45275631442483427,
                0.32329658914354126,
                0.4836065725266958,
                0.31181633520837704,
                -0.39893519302358876,
                -0.11560497184892736,
                0.29504303281360494,
                -0.5248941024662981,
                -0.2946335016319459,
                -0.4896872121568712,
                0.2847703039037237,
                0.2191221056191745,
                0.4705646394392702
            ],
            [
                -0.14152162427373344,
                -0.06420605634779605,
                -0.3903377794138982,
                0.55013334978198,
                0.3011104243326837,
                0.26994776816322863,
                -0.586600456395468,
                0.37321484366078117,
                0.3169913718769464,
                -0.0012402175234696375,
                -0.1169466279024003,
                0.04821171761791242,
                0.5812986811585599,
                -0.48560384489890085,
                -0.13057789904902892,
                0.5168025317141276,
                0.6672405579815448,
                -0.5053507978763285,
                0.5443400352936053,
                0.5640600613543549
            ],
            [
                -0.0762048960647917,
                -0.48553811131215957,
                -0.16286437436388915,
                0.27163281283809515,
                -0.3677387356451046,
                0.2753450793773942,
                0.4424440987946612,
                0.41745642902033914,
                0.06289132318408323,
                0.3059399836592465,
                0.5444888266764082,
                0.5240510325073786,
                -0.5038574957212085,
                -0.1296043565540125,
                -0.15195570447557794,
                -0.356708772680604,
                -0.4660543763067911,
                -0.45116829209720144,
                0.4509915309605306,
                0.5031833229880126
            ],
            [
                -0.09443982329035117,
                -0.11674054588461762,
                -0.4159883781320277,
                0.5123298513389151,
                -0.37294626717139484,
                -0.39472709451031396,
                0.5130032909975536,
                0.4481006925410577,
                0.48472411091594,
                -0.5229814547841335,
                -0.019936590554389684,
                -0.3960292786938425,
                -0.22979507508183517,
                -0.1470818502901438,
                -0.034016562876077315,
                -0.4945082175012248,
                0.107876940473836,
                0.2892112478725521,
                0.03967637586295203,
                -0.10956626191276872
            ],
            [
                0.057327554491354134,
                -0.22167043603369246,
                0.19402642887074528,
                -0.12549022596663686,
                -0.4150757037742764,
                -0.20348996672104766,
                0.15536123196403825,
                0.1572454369422019,
                0.42840821174186855,
                -0.13191875900409525,
                0.3636941942919761,
                -0.24974786961898415,
                0.10613567154106182,
                -0.013346792404876462,
                -0.16057482607986256,
                -0.12382533316825643,
                0.047970283113374645,
                -0.5267358720225612,
                0.3942288325829164,
                -0.39331448776157285
            ]
        ],
        "l3": [
            [
                1.0464522854584308,
                -0.9561942379213811,
                -0.2344340984001271,
                -0.12957540912931267,
                -1.2095673717328759,
                0.05121369632723502,
                -0.08936595028516821,
                -0.2532379252894589
            ],
            [
                -1.487801274949284,
                0.6120643098296558,
                0.5242619943074083,
                -0.04591978476463754,
                0.8590583312466374,
                -0.12339918497459587,
                -0.19886771006656176,
                -0.24541746589443433
            ]
        ]
    },
    "biases": {
        "l1": [
            [
                0.08305268088246287
            ],
            [
                0.22071469668514415
            ],
            [
                -0.0611300985966558
            ],
            [
                0.08698131477872606
            ],
            [
                0.0019399651740859942
            ],
            [
                0.00890013806566227
            ],
            [
                -0.0010005237424681778
            ],
            [
                -0.11768371486261846
            ],
            [
                -0.00821360247327223
            ],
            [
                0.023157124384757807
            ],
            [
                -0.028672439564764556
            ],
            [
                0.12151152458550236
            ],
            [
                0.07983220679049875
            ],
            [
                0.22332715219008342
            ],
            [
                0.13924579004218202
            ],
            [
                0.10842855667361008
            ],
            [
                0.11200667608108522
            ],
            [
                -0.013541221096794141
            ],
            [
                0.027161817497086474
            ],
            [
                0.0599838860806141
            ]
        ],
        "l2": [
            [
                0.3453497408669525
            ],
            [
                -0.04829832278183567
            ],
            [
                -0.02322793270823725
            ],
            [
                -0.04012507249865616
            ],
            [
                0.08188773105540646
            ],
            [
                0.006671584024414033
            ],
            [
                0.013087889390751947
            ],
            [
                0.0004364977783070514
            ]
        ],
        "l3": [
            [
                0.23303827021938106
            ],
            [
                -0.23103827021938092
            ]
        ]
    },
    "dataParameters": {
        "f2": {
            "mean": 14.176922807017545,
            "std": 3.5104059355078054,
            "median": 13.43
        },
        "f3": {
            "mean": 19.342877192982453,
            "std": 4.219883284173678,
            "median": 18.95
        },
        "f4": {
            "mean": 92.3280701754386,
            "std": 24.29010682505375,
            "median": 86.91
        },
        "f5": {
            "mean": 658.3712280701754,
            "std": 351.0804784351805,
            "median": 556.7
        },
        "f6": {
            "mean": 0.09759687719298248,
            "std": 0.014732575661990464,
            "median": 0.09676
        },
        "f7": {
            "mean": 0.10478175438596492,
            "std": 0.05511627664435112,
            "median": 0.08963
        },
        "f8": {
            "mean": 0.08863638140350877,
            "std": 0.08169820337791392,
            "median": 0.05929
        },
        "f9": {
            "mean": 0.04956600701754386,
            "std": 0.03988986274193449,
            "median": 0.03483
        },
        "f10": {
            "mean": 0.1821140350877193,
            "std": 0.02850372127050028,
            "median": 0.1794
        },
        "f11": {
            "mean": 0.06270614035087721,
            "std": 0.007134492528708969,
            "median": 0.06125
        },
        "f12": {
            "mean": 0.4102442105263158,
            "std": 0.2775371921716927,
            "median": 0.335
        },
        "f13": {
            "mean": 1.2309080701754387,
            "std": 0.596638449900299,
            "median": 1.081
        },
        "f14": {
            "mean": 2.8949035087719293,
            "std": 2.042133415321722,
            "median": 2.344
        },
        "f15": {
            "mean": 40.819087719298246,
            "std": 45.58153423087983,
            "median": 25.22
        },
        "f16": {
            "mean": 0.007211845614035087,
            "std": 0.0032544520412439793,
            "median": 0.006458
        },
        "f17": {
            "mean": 0.025016877192982456,
            "std": 0.018153128371287488,
            "median": 0.01966
        },
        "f18": {
            "mean": 0.030286588070175438,
            "std": 0.023240313620988412,
            "median": 0.02526
        },
        "f19": {
            "mean": 0.011495726315789474,
            "std": 0.005853151260505262,
            "median": 0.01075
        },
        "f20": {
            "mean": 0.0208244947368421,
            "std": 0.008876624597832922,
            "median": 0.01857
        },
        "f21": {
            "mean": 0.003688814736842105,
            "std": 0.002332712683462084,
            "median": 0.003121
        },
        "f22": {
            "mean": 16.27481052631579,
            "std": 4.68894649109666,
            "median": 14.99
        },
        "f23": {
            "mean": 25.708736842105264,
            "std": 6.172942819004665,
            "median": 25.5
        },
        "f24": {
            "mean": 107.46540350877193,
            "std": 32.99887168784888,
            "median": 98.0
        },
        "f25": {
            "mean": 876.0856140350877,
            "std": 549.3840105928931,
            "median": 697.7
        },
        "f26": {
            "mean": 0.1340239298245614,
            "std": 0.023977894661321376,
            "median": 0.1324
        },
        "f27": {
            "mean": 0.25341417543859646,
            "std": 0.16430998748427253,
            "median": 0.2074
        },
        "f28": {
            "mean": 0.2706077228070175,
            "std": 0.21122669458920515,
            "median": 0.231
        },
        "f29": {
            "mean": 0.11441628070175437,
            "std": 0.06623174041903937,
            "median": 0.101
        },
        "f30": {
            "mean": 0.2904852631578947,
            "std": 0.06494230478720993,
            "median": 0.2807
        },
        "f31": {
            "mean": 0.0835881754385965,
            "std": 0.018369119050390598,
            "median": 0.07953
        }
    },
    "targetColumnName": "f1",
    "targetClasses": [
        "B",
        "M"
    ]
}