{
    "network": {
        "input_layer": {
            "activation": "default",
            "neurons": 30
        },
        "hidden_layer_1": {
            "neurons": 20,
            "activation": "sigmoid"
        },
        "hidden_layer_2": {
            "neurons": 10,
            "activation": "sigmoid"
        },
        "hidden_layer_3": {
            "neurons": 8,
            "activation": "sigmoid"
        },
        "hidden_layer_4": {
            "neurons": 8,
            "activation": "sigmoid"
        },
        "output_layer": {
            "activation": "softmax",
            "neurons": 2
        }
    },
    "weights": {
        "l1": [
            [
                -0.5199572334513771,
                -0.17587442577667503,
                -0.4672538590164193,
                0.017722131826841864,
                0.3451943260775,
                0.10739625870853843,
                -0.35849741184638745,
                -0.1689479046812695,
                -0.22579962646655533,
                -0.07208539924153888,
                -0.29354756898338724,
                0.20051064414951464,
                0.14172257657942733,
                0.22612134395598563,
                0.11402681273454711,
                0.23843413857472878,
                0.051016080309033034,
                0.15317880569404618,
                0.31817554300904055,
                -0.07150120325780997,
                -0.16270531437835725,
                -0.27655532955037354,
                -0.6129227640389688,
                0.1600951196715805,
                -0.3461576691874749,
                0.1119982971945445,
                -0.5901800952824291,
                -0.6240052711111347,
                -0.40995158490632455,
                -0.16654423941019636
            ],
            [
                -0.5837132991425649,
                -0.5416749192070892,
                -0.4922210859781553,
                -0.5307492937803507,
                -0.558601456769103,
                0.1044355657716624,
                -0.21406588139243682,
                -0.772296888652684,
                0.214036894069285,
                0.19713086022333395,
                -0.3825082428364466,
                -0.10478570369059516,
                0.08868466151462213,
                -0.4236571547408641,
                0.2550229408694114,
                -0.4785527767328196,
                0.21444671625954984,
                0.08508359548887812,
                -0.298866331809325,
                -0.38833750781142384,
                -0.3151170965394994,
                0.1140657684168419,
                -0.7408901009952998,
                -0.7755124585732346,
                -0.5152415887693853,
                0.008711344418418462,
                0.0843614805396907,
                -0.005796705554114578,
                -0.23976818368166636,
                0.2304504631647944
            ],
            [
                0.257950134528811,
                0.35958746977192063,
                0.24971749309306795,
                0.13211022216195,
                0.49251188296492954,
                0.3460084919636716,
                0.15178330039900534,
                0.47226629429602907,
                0.3690639738230018,
                0.2949978515973138,
                0.17259426721376137,
                -0.04354218909612577,
                0.29171726934353076,
                -0.20084860387114165,
                -0.454738398429944,
                0.23800260629388195,
                0.1271108021970537,
                0.08174772902489932,
                -0.06968103372189167,
                0.2775188773887058,
                0.5281502923452397,
                0.46799192414970137,
                -0.0628909925728942,
                0.4017480665091561,
                0.4798193653372532,
                -0.085997075036489,
                -0.05707772699046663,
                0.17650713179320718,
                0.3022410522318032,
                -0.1524947356447346
            ],
            [
                0.02884470709642694,
                0.16243226224507376,
                0.14343922727956238,
                0.4883766449429039,
                -0.25399363686556437,
                0.4178465691022628,
                0.12048219252960848,
                0.6298180184110332,
                0.28478234249354123,
                0.12966928797103372,
                0.47756359280487454,
                0.3171475874789963,
                -0.11910614197919425,
                0.637740621509393,
                -0.18626431622997386,
                0.41967460223237457,
                0.2645510161366891,
                0.49320216617359713,
                -0.4401182909689447,
                0.025445071362357633,
                0.7426461432372957,
                0.4845456324107108,
                0.6156145065309634,
                0.43151003296237994,
                0.42655979195052846,
                0.6280367098613598,
                -0.1341363202367836,
                0.7585161135443864,
                0.5847554533538636,
                0.3151531182809567
            ],
            [
                -0.6402994749121014,
                -0.48336739754624386,
                -0.02058129823357106,
                -0.11544532032621123,
                0.0704004233203863,
                -0.26282257382358426,
                -0.4683315662579112,
                -0.17129117679140463,
                -0.21120047113523735,
                0.2072425056524778,
                -0.6196313738087823,
                0.2656860888120105,
                0.08144347948429197,
                -0.6181945344601587,
                0.19158388264027215,
                -0.16989018787878785,
                -0.5040563638581259,
                -0.3992321411491801,
                0.3461284504782324,
                0.29954908340789194,
                -0.19385422718755782,
                -0.4745420443861932,
                -0.759136524351789,
                -0.12764145325428647,
                0.15913999759687078,
                -0.5843691421888005,
                -0.1573550948460382,
                -0.5133137147990045,
                -0.36088795962285036,
                -0.09253535409984004
            ],
            [
                -0.47277558347444326,
                -0.21148422198514746,
                -0.5424199956240222,
                -0.6919499769420208,
                -0.38091831451851,
                -0.10679350099768962,
                -0.03792730380781199,
                -0.3554258409635572,
                -0.3433235982020332,
                -0.2663112518671225,
                -0.551438472205664,
                0.08565145515474462,
                -0.2945830983598603,
                -0.008521445372487868,
                0.1723542752914627,
                0.1462449039763726,
                -0.35557470559046955,
                -0.4029011622912758,
                0.36786872361062156,
                -0.4070286607850343,
                -0.11064941695366852,
                0.15276395384535035,
                0.12160295198981237,
                -0.38147575954552976,
                -0.47501790966393037,
                0.026902084345383468,
                -0.6080459309965346,
                -0.4253041620242449,
                -0.5611866759886293,
                -0.40337837703426244
            ],
            [
                -0.6444257202625647,
                -0.2575343977084132,
                0.03529436688033853,
                -0.23043399263239256,
                -0.11038930942263152,
                -0.5415290801631925,
                -0.5028983130340141,
                -0.2963104519292103,
                -0.34688876104631533,
                -0.3362241868502926,
                -0.10550889774269506,
                -0.2968013795325296,
                0.0947156531136405,
                -0.017971698547824683,
                -0.08656832555181394,
                -0.05499369455060513,
                -0.4247318737985641,
                0.04304220329385372,
                0.21668937929460808,
                0.09582557762757615,
                -0.475314022195073,
                -0.6557695625219689,
                -0.6555889676010211,
                -0.5109396471892274,
                -0.5097039704504769,
                0.1370058872058287,
                -0.36201247633805494,
                -0.5122554124092974,
                0.16261273399825904,
                -0.4872680144636958
            ],
            [
                0.7329512295073394,
                -0.03715741121205596,
                0.1472893562230556,
                0.22212016895495945,
                0.06241895875192575,
                0.20561411609536395,
                0.525078482462121,
                0.45716523323209013,
                0.40909548956031616,
                0.010521669940682248,
                0.7175056095919184,
                -0.2125532967091325,
                0.3665451736053204,
                0.01683620955533354,
                0.31659799971229396,
                -0.2787583151216899,
                -0.2405207135719086,
                0.5525796080621641,
                -0.10625798090258108,
                -0.34071016542466204,
                0.6907737854929847,
                0.57435286229789,
                0.17530998782845325,
                0.3057101696140298,
                0.478992307720449,
                -0.1658255496432677,
                0.4024216908761915,
                0.7157933780080049,
                -0.17830994552471843,
                0.3075633140714362
            ],
            [
                0.19742352996086057,
                0.16388845865367913,
                -0.3504946410643813,
                -0.4758595333013117,
                0.0043798441392015365,
                0.14235104234736135,
                -0.5611151420969679,
                -0.5673888579969381,
                0.009826762177835534,
                -0.3569086375122173,
                -0.1713446640232297,
                -0.28951210772756586,
                0.15970367301038135,
                0.1356401950745936,
                -0.3541518856506161,
                -0.10659567398055159,
                -0.07236783707702665,
                -0.05229561928927553,
                -0.36002286934346234,
                0.18526796473180407,
                0.160040915685214,
                0.21886393039559512,
                -0.38540768596478575,
                -0.22861492516345144,
                -0.4099338531136123,
                -0.2513163037817523,
                -0.5622762337594579,
                -0.4911407596208319,
                -0.3311661545370251,
                0.19062437322653544
            ],
            [
                -0.5732938929429685,
                0.2535792293132493,
                -0.07375391044827352,
                -0.642114350247993,
                0.3299767171531394,
                0.07578034014295205,
                -0.11179455142394798,
                0.15236668009864254,
                -0.4393117946421776,
                -0.2717606060659393,
                -0.2870438854726817,
                -0.4385424904552324,
                -0.5356637486414627,
                -0.2098992038230143,
                0.29330139264948507,
                -0.21359283426245437,
                -0.10247095828260569,
                -0.38235735423639006,
                0.02647062465745358,
                -0.17077630741898261,
                -0.4393774025711825,
                -0.28468510189129775,
                0.1434614015984144,
                -0.48574345765923627,
                -0.35728177770410396,
                -0.36937547197439935,
                -0.3722784950531881,
                -0.624276258486547,
                0.28054351672645833,
                -0.3206942277437412
            ],
            [
                -0.3605745986197267,
                -0.5548056668675053,
                -0.3900339089318193,
                -0.5108589812170506,
                -0.05013870776200792,
                -0.5984851956553154,
                -0.2619910658706369,
                -0.5149013039008732,
                0.054252658404995366,
                0.4241773786181399,
                -0.1715981906101856,
                0.09652232981956987,
                -0.10846109208588564,
                0.09307417612487134,
                0.23298394221518978,
                0.20026121135570957,
                -0.552972720872515,
                -0.057419143635017066,
                0.30461203766816297,
                0.41990813624460704,
                -0.4269730655312013,
                -0.4137036444417437,
                -0.28314691539664183,
                -0.4782538245554225,
                -0.5961117758796466,
                -0.5284768691608369,
                -0.5730352805464637,
                -0.22354646664169187,
                -0.4090392527202439,
                -0.14941154759593384
            ],
            [
                0.5235147518352138,
                0.05029823074622481,
                0.3909149070499557,
                0.04864604446334566,
                0.1350475832907556,
                0.30703939403677477,
                -0.12502946609839352,
                0.49853797678848993,
                0.42638922549894226,
                -0.28380825615698374,
                -0.1886657487186078,
                -0.005242104306850748,
                0.06534400245213287,
                -0.020079942863164578,
                0.4211067525744786,
                -0.15891908237068017,
                -0.09427775846298601,
                -0.284150247449918,
                0.19848252485688875,
                -0.1864139039712089,
                0.11699657766650376,
                0.5595602160052395,
                0.5174357173521217,
                0.5918343049262771,
                -0.3056416351908985,
                0.10333338892204738,
                0.40854879390891075,
                -0.13913130735208515,
                0.12083760054638149,
                -0.07924981385774721
            ],
            [
                -0.10176330991408983,
                0.08420714907242367,
                -0.014751206031949734,
                -0.14900970037155606,
                -0.2509684784254361,
                0.3793898835237285,
                -0.22921862843938268,
                -0.17000000943881347,
                -0.3786952798145546,
                0.2679140601934279,
                0.05586158478420123,
                0.4042022789400483,
                -0.4244163005307446,
                -0.05912131131777605,
                0.36490255799510973,
                0.36029426886396765,
                0.11357447382413623,
                0.1834421152213362,
                0.22324452098815356,
                -0.26378729581625293,
                0.05489949838382929,
                -0.4274979123195601,
                0.3096431574856081,
                -0.14308785883491026,
                0.05736440794121955,
                0.28848281161223766,
                -0.06949091435685006,
                -0.11364625414247423,
                0.12272723154242862,
                -0.021473590002928804
            ],
            [
                -0.252278180025567,
                0.07778207425439813,
                -0.7447148766345704,
                -0.9132618555493219,
                -0.0592414752115534,
                -0.5447811278069139,
                -0.8150749850646238,
                -0.8035983131699325,
                -0.47178282367128854,
                0.4185773235303268,
                -0.0409702206238003,
                0.12287918971524818,
                -0.6380061503666847,
                -0.7456808819519797,
                0.2564548315610136,
                -0.11005422267959986,
                -0.3131217881323403,
                0.11047855752788045,
                -0.36990523550860355,
                -0.26407434061374907,
                -0.7629589087577859,
                -0.7456451738632017,
                -0.5389358470160878,
                -0.3943924497401103,
                -0.25361617711008777,
                -0.3123103919603411,
                -0.46484645565690874,
                -0.9345044500636237,
                0.05686698601142333,
                -0.5907795571525829
            ],
            [
                0.28559026340571947,
                0.598220053159722,
                0.6392566537346721,
                0.3772470582876864,
                0.13679131388956567,
                0.274422309595362,
                0.6743279231172323,
                0.7858823568390174,
                0.5751678368025289,
                -0.22059689339087396,
                0.0271669171763976,
                0.17149034182686437,
                -0.1854118085262391,
                0.5993740448443325,
                -0.1400583788443426,
                -0.3635131504052463,
                0.2600883699226253,
                0.2893038374383915,
                -0.3312598717318664,
                0.03887013923530036,
                0.3100927763333343,
                0.32219599845445784,
                -0.034213858202472344,
                0.7504533363825454,
                0.29632778948224076,
                0.5069329981425568,
                -0.07135249161389463,
                0.6108988291200315,
                0.05396713476610487,
                -0.26132776876642577
            ],
            [
                0.5492613771822489,
                0.5762367984028995,
                0.3829355430538628,
                0.02212363430222767,
                -0.04087961670212262,
                0.1347557610744046,
                0.07646698171702858,
                0.5349402645477144,
                -0.17813386110716184,
                -0.22964980975135119,
                0.09602767350294658,
                0.2383678493449183,
                0.10888446281221037,
                0.3081525246389688,
                -0.18207081661519242,
                0.23553285722404055,
                -0.2908144446489222,
                -0.19954311478281564,
                0.18106322839686062,
                0.029094255448397822,
                0.21801829729023545,
                0.17345952278845808,
                -0.020914998668324605,
                0.12486884870219152,
                0.025997794958887384,
                0.05823429222486259,
                0.4303174936442488,
                0.5700362075527413,
                -0.2654585552903605,
                0.14502958631091684
            ],
            [
                -0.5277967636049046,
                -0.2563658553691288,
                -0.15813394120791271,
                -0.33408498824294103,
                -0.44231479929547673,
                -0.48248449228604345,
                -0.485457411588126,
                -0.0893892571253839,
                -0.013356502033271463,
                0.2754898343500631,
                -0.34084884216449957,
                -0.1269636065930474,
                0.015720239598863043,
                0.14157037954034243,
                0.2705850440391089,
                -0.4302748318835836,
                -0.3999277465276506,
                0.22147736446268618,
                -0.3946287370012035,
                0.13285416669732725,
                0.12858542014677052,
                -0.11689060642706238,
                -0.05921071313589142,
                -0.0640963522717085,
                0.316041213800945,
                0.26774710889654874,
                0.15913014338655027,
                -0.45244291821863103,
                -0.14531558637588593,
                0.27713206289805425
            ],
            [
                0.08201052360095958,
                0.35336970853241356,
                -0.4243135802034482,
                -0.4366834229886625,
                0.2594579471030567,
                0.29657938851224075,
                -0.37489918403840305,
                -0.21636148069757116,
                0.03638951099118061,
                0.18294810565909972,
                0.07110355756414666,
                0.22112368445823838,
                -0.49205150546041926,
                0.23961641034022613,
                -0.1653578390197935,
                0.15248006915469686,
                0.019236761422939452,
                0.36222004944448377,
                -0.4247305918590401,
                -0.4119454450574764,
                -0.45840662784903924,
                0.14521927696935683,
                -0.30227465104449275,
                -0.0043076706988180065,
                -0.2765175864160873,
                0.01105745188466095,
                -0.11572945929728734,
                -0.5387328043505962,
                -0.16577725341362334,
                0.1592349082709188
            ],
            [
                -0.4365950933951897,
                -0.5532805626853023,
                -0.35861343949114943,
                -0.32953752064958197,
                0.029861366952323408,
                -0.4188024750188357,
                -0.6601161295177411,
                -0.5888328290350544,
                0.1829999897631275,
                -0.28100509672722024,
                -0.39735348142520416,
                0.2227269818083335,
                0.2178911093783438,
                -0.07587443048467733,
                0.12460029900033232,
                -0.22898799058275543,
                0.12074641642395822,
                -0.04414436804473961,
                0.36504779756697664,
                -0.09405134527372955,
                -0.5323478097841106,
                0.20926719509106706,
                -0.08335493506974292,
                -0.19417722634410892,
                -0.08076934897483905,
                0.002023358453641442,
                -0.41887423432046134,
                -0.20097789650802456,
                0.2463618790921695,
                0.12992655039410964
            ],
            [
                0.07202474987790335,
                -0.42091694029534654,
                0.02998462736935656,
                -0.4689896512021687,
                -0.3509380812160782,
                -0.13946925652456926,
                -0.2812010669318686,
                -0.03285690497900196,
                -0.263101386424958,
                -0.015751396626078194,
                -0.25850711202967297,
                0.030026784761327432,
                -0.053022223459295754,
                -0.038948312664059834,
                0.3249965117658478,
                0.41926012470925056,
                -0.020808658287788995,
                -0.09224033641954114,
                -0.25165834979824253,
                0.09631403258443978,
                -0.27668891977764565,
                0.1849132252984995,
                -0.4022754352883854,
                -0.3458386010126128,
                0.22855482323099888,
                -0.06997883194140866,
                0.10394428843779932,
                -0.5310522102886073,
                0.0790009809156713,
                -0.3035556251451694
            ]
        ],
        "l2": [
            [
                0.27305025859964926,
                0.5351645651343698,
                0.31516426767651184,
                -0.8426100976286232,
                -0.0911234407342061,
                0.34954025926349014,
                0.5740662861644175,
                -0.31068330710984154,
                0.1417518134980731,
                0.5174668282932591,
                0.49147760540668645,
                -0.5783188471825198,
                -0.5238959130358891,
                0.14911216530484597,
                -0.5842700883706337,
                -0.16472289382307395,
                0.14106246937835906,
                -0.33989857235595544,
                0.5791310332919568,
                0.6686770318093838
            ],
            [
                0.09997697720416855,
                -0.3715610281344808,
                0.7315578691590808,
                0.7246170953237914,
                -0.7592990133146952,
                -0.6368009820980705,
                -0.2933154682791204,
                0.6065258591124649,
                -0.6525062491675626,
                -0.476105796314083,
                -0.15035771915967308,
                0.29177109059659073,
                -0.3803809100185281,
                -0.6241558778270568,
                0.3938698157375301,
                0.418487826466654,
                -0.49756760346242035,
                -0.42397139968679687,
                -0.8196581729824228,
                -0.5873985535138389
            ],
            [
                0.47325419810424646,
                0.5446466793572031,
                0.13030221524437346,
                -0.09676931945596688,
                0.3507898819078164,
                0.642230026480894,
                0.044484036807487706,
                0.0887994653650372,
                0.33285107650146345,
                -0.18022738931104992,
                0.44974026571078174,
                -0.7323529103087634,
                -0.35704313561157064,
                0.47935192636187085,
                -0.49137240130401605,
                -0.21387889012909866,
                -0.2829113379090369,
                0.006748556418263091,
                0.047767897194617465,
                -0.1528372381794667
            ],
            [
                -0.052435344815541705,
                0.14184848134699615,
                -0.17200893030071066,
                -0.6080865197244173,
                -0.33082037661486785,
                -0.13056385807603643,
                0.19302318970489452,
                -0.5421004694809172,
                0.34339522937983025,
                0.550206695259541,
                0.6710906414734303,
                -0.21780707594753315,
                0.5250496337890076,
                0.6852800275124968,
                0.11675803222831377,
                -0.43373717463146627,
                0.0612580103162877,
                0.4688855147872397,
                0.19769543885269067,
                0.10325343332920375
            ],
            [
                0.6142712691126686,
                0.5975611123863129,
                -0.5886747835367417,
                -0.2438210290275604,
                0.8207294425148016,
                0.13751943164597358,
                0.25144602774686586,
                -0.8986991988935906,
                -0.16490213373984047,
                -0.2607156288220448,
                0.6503087359344457,
                0.049008919625006,
                0.540137599831165,
                0.8859037633999732,
                -0.8297532006753922,
                -0.44358325018292094,
                -0.2730233754609723,
                -0.014344140761659265,
                0.12178633255086778,
                0.3423691929531098
            ],
            [
                -0.4801960661700973,
                -0.48223001244104186,
                0.5266719903854136,
                0.238911250713612,
                0.2935136738698285,
                -0.2279918854752443,
                -0.7016001237644223,
                0.002266307066131576,
                -0.30158616353151346,
                -0.6597089768787608,
                -0.08055231586198196,
                0.017471199808837618,
                0.3156097414694931,
                -0.6936275706743892,
                0.46379905739312266,
                0.537103585528239,
                -0.5017186897467986,
                -0.10500783826585083,
                -0.18669735488726216,
                -0.5093769307756352
            ],
            [
                -0.06062096256967438,
                -0.34439469961851177,
                0.05767532701010591,
                0.2537096112439119,
                -0.36247585085525974,
                -0.5440304180202535,
                -0.7255959823896827,
                0.5941338858125206,
                -0.3353888816988603,
                -0.38284510048951126,
                -0.4053562410508924,
                -0.3327772515428756,
                0.2959582690933377,
                -0.4395529054716904,
                -0.21948869968977924,
                0.6065814655813807,
                0.038091582460051676,
                -0.2989207122841773,
                0.10835326729330932,
                0.336592455549044
            ],
            [
                0.6374301989989043,
                -0.16900811490581766,
                -0.5287450250421256,
                0.043488361067911145,
                0.7953937066955048,
                -0.2358280613116551,
                0.47424270608570834,
                -0.8198407936747404,
                -0.14782252750552352,
                0.20606767212603436,
                0.6964292044518516,
                -0.7697582270807841,
                0.10183092597959623,
                0.7249768014066043,
                -0.8861456033699425,
                0.1574152150688167,
                0.4592107141305959,
                0.5912875997785051,
                0.3442535163352219,
                -0.1296585474051429
            ],
            [
                -0.00833796709679927,
                -0.6355980011215855,
                0.3476612657903736,
                0.5970041599286002,
                -0.1614680481195864,
                -0.5338312215513066,
                -0.39034932295176383,
                -0.004262208742094559,
                -0.12453760253266523,
                -0.39317759728291457,
                -0.5756108593938541,
                -0.07624144164223236,
                -0.02549655281977158,
                0.2941185336001489,
                0.43641131637294306,
                -0.2817580803934452,
                -0.5969452524320603,
                0.3858601066559519,
                0.2508425395861201,
                0.23882667869423688
            ],
            [
                0.4658742417551729,
                -0.25559581300934525,
                0.11196813303228928,
                0.5019393281345208,
                -0.28442436215167066,
                0.370336557676096,
                -0.43954183306754524,
                0.44109773326654805,
                -0.2617115358470443,
                -0.37232198418171086,
                -0.17477574893070968,
                -0.35535953288992833,
                0.0832192703257732,
                -0.13952629459391147,
                -0.17789097694457462,
                -0.16820659437974492,
                -0.4995995287118346,
                -0.42439754707450866,
                0.04796628624505742,
                -0.05404796623181688
            ]
        ],
        "l3": [
            [
                0.22291863826409292,
                -0.5362679976356652,
                -0.0302292857141841,
                0.29682775403509526,
                -0.40221580485174935,
                0.6906738976057062,
                0.5026640506825988,
                -0.7851026621154729,
                0.6573329875260493,
                -0.27599443305388094
            ],
            [
                0.7711789878314078,
                -1.0554295736462898,
                0.6478236548906781,
                0.35397188590512546,
                0.6879338447836357,
                -0.8034793758517801,
                0.2604815742256619,
                0.06824529013287868,
                -0.8038890374767851,
                0.19118223587576563
            ],
            [
                -0.4912814457576073,
                1.1544235151874902,
                0.2787125999225296,
                -0.9171872523945167,
                -1.1376518132029416,
                0.15457431180670303,
                0.9204232096880619,
                -0.36668003902789076,
                -0.5435537331799757,
                -0.1129789506494847
            ],
            [
                -0.0778746015635942,
                1.3450337521140894,
                -0.2895812933561757,
                -0.7337671627102829,
                -0.901218956811015,
                -0.0744075760418548,
                0.9264544398420224,
                -1.3701711697471286,
                0.29613318018355134,
                0.10057756542126274
            ],
            [
                -1.1677201685683816,
                0.21152503983832663,
                -1.0368182696040429,
                0.14968559478126864,
                -1.143389560890532,
                1.177894564415723,
                0.8762080756720925,
                -0.07607550448967562,
                0.5902180064782323,
                0.7654042665146753
            ],
            [
                -0.8935760506104944,
                0.26648408216485153,
                -0.49792954895191444,
                -0.8195363280073041,
                0.2924086354991535,
                0.11393953830476991,
                -0.43417582158697277,
                -0.48512137487130114,
                0.5130514848752723,
                -0.3546338128762151
            ],
            [
                0.5383259795838443,
                -0.5346256658875412,
                -0.28266966550366224,
                -0.5619623719387615,
                0.32039522664400183,
                -0.2078346652383733,
                0.15478787246474285,
                -0.5275370374494424,
                0.4340006464836876,
                -0.7476457906599098
            ],
            [
                0.03087692581988038,
                -0.8444346641446077,
                0.8046046693223575,
                0.09310998689706654,
                -0.2526810492331029,
                -0.17623755986233952,
                0.3415787098698129,
                0.690486079110659,
                -0.354704502959506,
                -0.33627366833812794
            ]
        ],
        "l4": [
            [
                -0.12595971452590793,
                1.0007615820613054,
                -0.7794284049259685,
                -1.5332183190983648,
                -0.863356635844188,
                -0.37541379562314614,
                0.3506216506349668,
                0.6345507639365405
            ],
            [
                -0.12082816808130267,
                -0.2135657663991972,
                0.09811181405502736,
                0.40329273485502964,
                0.6140042074635869,
                0.3043980706839571,
                0.5974350358465,
                -0.016974065145793155
            ],
            [
                -0.425959021793109,
                0.3426828991409703,
                0.7493368753927477,
                -0.3041204481440597,
                -0.0007740565143737609,
                0.5233941498279537,
                0.35335533758106574,
                0.6313917609651568
            ],
            [
                -0.7027119043952231,
                -0.4969990177186394,
                -0.3636400319692994,
                0.4541147668161383,
                -0.6674829498018853,
                -0.8808652893901366,
                0.478081665415197,
                0.13351676740692547
            ],
            [
                -0.7774137586119833,
                0.6046807266819675,
                -0.23400077445238898,
                0.29169443918977517,
                -0.906662286976514,
                -1.0011312082460844,
                -0.37175281563261386,
                -0.15887665992252997
            ],
            [
                -0.677672807880209,
                0.5210797036531857,
                -1.2565212321666073,
                -1.4886517326438027,
                -1.5924137013567774,
                -0.11317149269223603,
                0.6470741840189306,
                1.028153324941922
            ],
            [
                -0.30161347614460443,
                -0.6078203138118603,
                0.09182685827668946,
                0.6203500189809567,
                -0.16497300464947257,
                0.5065606065016218,
                0.4046631145576028,
                0.10218137876439681
            ],
            [
                0.3203790958128374,
                -0.44637061179403564,
                0.1856274696145772,
                0.699585321449369,
                -0.011764143060427,
                -0.41518428950108827,
                0.14754344712595807,
                -0.491412000732209
            ]
        ],
        "l5": [
            [
                1.283170073716289,
                -0.5508756326455784,
                0.039310299843415525,
                0.03589463093982197,
                0.7353200292049376,
                2.1016109789973427,
                -0.5587088778902475,
                -0.4548151669821705
            ],
            [
                -1.5444758479919347,
                0.7657453292710577,
                0.3598607561549905,
                -0.26091198962436013,
                -0.5781289142575634,
                -0.8263787676377623,
                0.4692336164941624,
                0.7127704697742929
            ]
        ]
    },
    "biases": {
        "l1": [
            [
                -0.045985062208900966
            ],
            [
                -0.04984379462710086
            ],
            [
                -0.008823330206519944
            ],
            [
                -0.014714282032281133
            ],
            [
                -0.055965757735507056
            ],
            [
                -0.027847258189677194
            ],
            [
                -0.04638189459415848
            ],
            [
                -0.010365905527059377
            ],
            [
                -0.0077227822538941965
            ],
            [
                -0.02033685292711984
            ],
            [
                -0.07805331024698947
            ],
            [
                0.0160445368154916
            ],
            [
                -0.004543113769758758
            ],
            [
                -0.09372330313867468
            ],
            [
                0.0022210895221658413
            ],
            [
                -0.01096367364209963
            ],
            [
                -0.006231966820358587
            ],
            [
                -0.008033922214052767
            ],
            [
                -0.03261192925816179
            ],
            [
                -0.02057795626381397
            ]
        ],
        "l2": [
            [
                -0.077969268774631
            ],
            [
                -0.00757384749703753
            ],
            [
                -0.06064927298140754
            ],
            [
                -0.04275159978968435
            ],
            [
                -0.09654124306933361
            ],
            [
                0.003226072024421969
            ],
            [
                -0.024923638231753465
            ],
            [
                -0.08066360287410791
            ],
            [
                0.011870028839751795
            ],
            [
                0.0003574410361783809
            ]
        ],
        "l3": [
            [
                0.025615922492850076
            ],
            [
                -0.12300779992635963
            ],
            [
                0.03380678892681565
            ],
            [
                0.03098645278044063
            ],
            [
                0.007696828050551309
            ],
            [
                0.022343473191000565
            ],
            [
                -0.04164749017274019
            ],
            [
                -0.08959628172013771
            ]
        ],
        "l4": [
            [
                -0.21153280750660833
            ],
            [
                0.017003165449466836
            ],
            [
                0.008587904800825453
            ],
            [
                -0.01361910204934975
            ],
            [
                -0.06606419295804106
            ],
            [
                -0.1949456588120699
            ],
            [
                0.01895152283227305
            ],
            [
                0.01667190515805287
            ]
        ],
        "l5": [
            [
                -0.18030980003070327
            ],
            [
                0.18230980003070332
            ]
        ]
    },
    "dataParameters": {
        "f2": {
            "mean": 14.176922807017545,
            "std": 3.5104059355078054,
            "median": 13.43
        },
        "f3": {
            "mean": 19.342877192982453,
            "std": 4.219883284173678,
            "median": 18.95
        },
        "f4": {
            "mean": 92.3280701754386,
            "std": 24.29010682505375,
            "median": 86.91
        },
        "f5": {
            "mean": 658.3712280701754,
            "std": 351.0804784351805,
            "median": 556.7
        },
        "f6": {
            "mean": 0.09759687719298248,
            "std": 0.014732575661990464,
            "median": 0.09676
        },
        "f7": {
            "mean": 0.10478175438596492,
            "std": 0.05511627664435112,
            "median": 0.08963
        },
        "f8": {
            "mean": 0.08863638140350877,
            "std": 0.08169820337791392,
            "median": 0.05929
        },
        "f9": {
            "mean": 0.04956600701754386,
            "std": 0.03988986274193449,
            "median": 0.03483
        },
        "f10": {
            "mean": 0.1821140350877193,
            "std": 0.02850372127050028,
            "median": 0.1794
        },
        "f11": {
            "mean": 0.06270614035087721,
            "std": 0.007134492528708969,
            "median": 0.06125
        },
        "f12": {
            "mean": 0.4102442105263158,
            "std": 0.2775371921716927,
            "median": 0.335
        },
        "f13": {
            "mean": 1.2309080701754387,
            "std": 0.596638449900299,
            "median": 1.081
        },
        "f14": {
            "mean": 2.8949035087719293,
            "std": 2.042133415321722,
            "median": 2.344
        },
        "f15": {
            "mean": 40.819087719298246,
            "std": 45.58153423087983,
            "median": 25.22
        },
        "f16": {
            "mean": 0.007211845614035087,
            "std": 0.0032544520412439793,
            "median": 0.006458
        },
        "f17": {
            "mean": 0.025016877192982456,
            "std": 0.018153128371287488,
            "median": 0.01966
        },
        "f18": {
            "mean": 0.030286588070175438,
            "std": 0.023240313620988412,
            "median": 0.02526
        },
        "f19": {
            "mean": 0.011495726315789474,
            "std": 0.005853151260505262,
            "median": 0.01075
        },
        "f20": {
            "mean": 0.0208244947368421,
            "std": 0.008876624597832922,
            "median": 0.01857
        },
        "f21": {
            "mean": 0.003688814736842105,
            "std": 0.002332712683462084,
            "median": 0.003121
        },
        "f22": {
            "mean": 16.27481052631579,
            "std": 4.68894649109666,
            "median": 14.99
        },
        "f23": {
            "mean": 25.708736842105264,
            "std": 6.172942819004665,
            "median": 25.5
        },
        "f24": {
            "mean": 107.46540350877193,
            "std": 32.99887168784888,
            "median": 98.0
        },
        "f25": {
            "mean": 876.0856140350877,
            "std": 549.3840105928931,
            "median": 697.7
        },
        "f26": {
            "mean": 0.1340239298245614,
            "std": 0.023977894661321376,
            "median": 0.1324
        },
        "f27": {
            "mean": 0.25341417543859646,
            "std": 0.16430998748427253,
            "median": 0.2074
        },
        "f28": {
            "mean": 0.2706077228070175,
            "std": 0.21122669458920515,
            "median": 0.231
        },
        "f29": {
            "mean": 0.11441628070175437,
            "std": 0.06623174041903937,
            "median": 0.101
        },
        "f30": {
            "mean": 0.2904852631578947,
            "std": 0.06494230478720993,
            "median": 0.2807
        },
        "f31": {
            "mean": 0.0835881754385965,
            "std": 0.018369119050390598,
            "median": 0.07953
        }
    },
    "targetColumnName": "f1",
    "targetClasses": [
        "B",
        "M"
    ]
}